digraph Tree {
node [shape=box, style="rounded", color="black", fontname="helvetica"] ;
edge [fontname="helvetica"] ;
0 [label="cob_vac_bcg <= 42.495\ngini = 0.909\nsamples = 686\nvalue = [61, 64, 66, 58, 61, 67, 61, 64, 59, 65, 60]\nclass = 2015"] ;
1 [label="cob_vac_bcg <= 32.103\ngini = 0.872\nsamples = 48\nvalue = [7, 8, 7, 7, 5, 5, 5, 1, 0, 0, 3]\nclass = 2011"] ;
0 -> 1 [labeldistance=2.5, labelangle=45, headlabel="True"] ;
2 [label="exp_vida <= 75.145\ngini = 0.868\nsamples = 37\nvalue = [4, 3, 6, 6, 5, 5, 5, 0, 0, 0, 3]\nclass = 2012"] ;
1 -> 2 ;
3 [label="cob_vac_bcg <= 21.548\ngini = 0.852\nsamples = 28\nvalue = [2, 2, 2, 5, 5, 5, 5, 0, 0, 0, 2]\nclass = 2013"] ;
2 -> 3 ;
4 [label="cob_vac_bcg <= 3.31\ngini = 0.837\nsamples = 17\nvalue = [1, 2, 2, 2, 1, 4, 4, 0, 0, 0, 1]\nclass = 2015"] ;
3 -> 4 ;
5 [label="cob_vac_bcg <= 1.593\ngini = 0.75\nsamples = 4\nvalue = [1, 1, 0, 1, 1, 0, 0, 0, 0, 0, 0]\nclass = 2010"] ;
4 -> 5 ;
6 [label="gini = 0.0\nsamples = 1\nvalue = [0, 0, 0, 0, 1, 0, 0, 0, 0, 0, 0]\nclass = 2014"] ;
5 -> 6 ;
7 [label="cob_vac_bcg <= 2.07\ngini = 0.667\nsamples = 3\nvalue = [1, 1, 0, 1, 0, 0, 0, 0, 0, 0, 0]\nclass = 2010"] ;
5 -> 7 ;
8 [label="gini = 0.0\nsamples = 1\nvalue = [0, 1, 0, 0, 0, 0, 0, 0, 0, 0, 0]\nclass = 2011"] ;
7 -> 8 ;
9 [label="cob_vac_bcg <= 2.407\ngini = 0.5\nsamples = 2\nvalue = [1, 0, 0, 1, 0, 0, 0, 0, 0, 0, 0]\nclass = 2010"] ;
7 -> 9 ;
10 [label="gini = 0.0\nsamples = 1\nvalue = [0, 0, 0, 1, 0, 0, 0, 0, 0, 0, 0]\nclass = 2013"] ;
9 -> 10 ;
11 [label="gini = 0.0\nsamples = 1\nvalue = [1, 0, 0, 0, 0, 0, 0, 0, 0, 0, 0]\nclass = 2010"] ;
9 -> 11 ;
12 [label="exp_vida <= 72.945\ngini = 0.769\nsamples = 13\nvalue = [0, 1, 2, 1, 0, 4, 4, 0, 0, 0, 1]\nclass = 2015"] ;
4 -> 12 ;
13 [label="gini = 0.0\nsamples = 1\nvalue = [0, 0, 0, 0, 0, 0, 0, 0, 0, 0, 1]\nclass = 2020"] ;
12 -> 13 ;
14 [label="cob_vac_bcg <= 9.692\ngini = 0.736\nsamples = 12\nvalue = [0, 1, 2, 1, 0, 4, 4, 0, 0, 0, 0]\nclass = 2015"] ;
12 -> 14 ;
15 [label="cob_vac_bcg <= 4.768\ngini = 0.722\nsamples = 6\nvalue = [0, 0, 2, 1, 0, 1, 2, 0, 0, 0, 0]\nclass = 2012"] ;
14 -> 15 ;
16 [label="gini = 0.0\nsamples = 1\nvalue = [0, 0, 0, 0, 0, 1, 0, 0, 0, 0, 0]\nclass = 2015"] ;
15 -> 16 ;
17 [label="idhm <= 0.706\ngini = 0.64\nsamples = 5\nvalue = [0, 0, 2, 1, 0, 0, 2, 0, 0, 0, 0]\nclass = 2012"] ;
15 -> 17 ;
18 [label="cob_vac_bcg <= 6.748\ngini = 0.444\nsamples = 3\nvalue = [0, 0, 1, 0, 0, 0, 2, 0, 0, 0, 0]\nclass = 2016"] ;
17 -> 18 ;
19 [label="gini = 0.0\nsamples = 1\nvalue = [0, 0, 1, 0, 0, 0, 0, 0, 0, 0, 0]\nclass = 2012"] ;
18 -> 19 ;
20 [label="gini = 0.0\nsamples = 2\nvalue = [0, 0, 0, 0, 0, 0, 2, 0, 0, 0, 0]\nclass = 2016"] ;
18 -> 20 ;
21 [label="cob_vac_bcg <= 8.87\ngini = 0.5\nsamples = 2\nvalue = [0, 0, 1, 1, 0, 0, 0, 0, 0, 0, 0]\nclass = 2012"] ;
17 -> 21 ;
22 [label="gini = 0.0\nsamples = 1\nvalue = [0, 0, 0, 1, 0, 0, 0, 0, 0, 0, 0]\nclass = 2013"] ;
21 -> 22 ;
23 [label="gini = 0.0\nsamples = 1\nvalue = [0, 0, 1, 0, 0, 0, 0, 0, 0, 0, 0]\nclass = 2012"] ;
21 -> 23 ;
24 [label="cob_vac_bcg <= 10.522\ngini = 0.611\nsamples = 6\nvalue = [0, 1, 0, 0, 0, 3, 2, 0, 0, 0, 0]\nclass = 2015"] ;
14 -> 24 ;
25 [label="gini = 0.0\nsamples = 1\nvalue = [0, 0, 0, 0, 0, 1, 0, 0, 0, 0, 0]\nclass = 2015"] ;
24 -> 25 ;
26 [label="exp_vida <= 73.765\ngini = 0.64\nsamples = 5\nvalue = [0, 1, 0, 0, 0, 2, 2, 0, 0, 0, 0]\nclass = 2015"] ;
24 -> 26 ;
27 [label="gini = 0.0\nsamples = 1\nvalue = [0, 0, 0, 0, 0, 0, 1, 0, 0, 0, 0]\nclass = 2016"] ;
26 -> 27 ;
28 [label="exp_vida <= 74.51\ngini = 0.625\nsamples = 4\nvalue = [0, 1, 0, 0, 0, 2, 1, 0, 0, 0, 0]\nclass = 2015"] ;
26 -> 28 ;
29 [label="gini = 0.0\nsamples = 1\nvalue = [0, 0, 0, 0, 0, 1, 0, 0, 0, 0, 0]\nclass = 2015"] ;
28 -> 29 ;
30 [label="cob_vac_bcg <= 19.078\ngini = 0.667\nsamples = 3\nvalue = [0, 1, 0, 0, 0, 1, 1, 0, 0, 0, 0]\nclass = 2011"] ;
28 -> 30 ;
31 [label="gini = 0.0\nsamples = 1\nvalue = [0, 1, 0, 0, 0, 0, 0, 0, 0, 0, 0]\nclass = 2011"] ;
30 -> 31 ;
32 [label="cob_vac_bcg <= 20.837\ngini = 0.5\nsamples = 2\nvalue = [0, 0, 0, 0, 0, 1, 1, 0, 0, 0, 0]\nclass = 2015"] ;
30 -> 32 ;
33 [label="gini = 0.0\nsamples = 1\nvalue = [0, 0, 0, 0, 0, 0, 1, 0, 0, 0, 0]\nclass = 2016"] ;
32 -> 33 ;
34 [label="gini = 0.0\nsamples = 1\nvalue = [0, 0, 0, 0, 0, 1, 0, 0, 0, 0, 0]\nclass = 2015"] ;
32 -> 34 ;
35 [label="exp_vida <= 74.675\ngini = 0.76\nsamples = 11\nvalue = [1, 0, 0, 3, 4, 1, 1, 0, 0, 0, 1]\nclass = 2014"] ;
3 -> 35 ;
36 [label="cob_vac_bcg <= 26.122\ngini = 0.72\nsamples = 10\nvalue = [1, 0, 0, 3, 4, 1, 1, 0, 0, 0, 0]\nclass = 2014"] ;
35 -> 36 ;
37 [label="cob_vac_bcg <= 25.701\ngini = 0.72\nsamples = 5\nvalue = [1, 0, 0, 2, 1, 1, 0, 0, 0, 0, 0]\nclass = 2013"] ;
36 -> 37 ;
38 [label="exp_vida <= 73.875\ngini = 0.625\nsamples = 4\nvalue = [0, 0, 0, 2, 1, 1, 0, 0, 0, 0, 0]\nclass = 2013"] ;
37 -> 38 ;
39 [label="cob_vac_bcg <= 21.798\ngini = 0.5\nsamples = 2\nvalue = [0, 0, 0, 1, 1, 0, 0, 0, 0, 0, 0]\nclass = 2013"] ;
38 -> 39 ;
40 [label="gini = 0.0\nsamples = 1\nvalue = [0, 0, 0, 1, 0, 0, 0, 0, 0, 0, 0]\nclass = 2013"] ;
39 -> 40 ;
41 [label="gini = 0.0\nsamples = 1\nvalue = [0, 0, 0, 0, 1, 0, 0, 0, 0, 0, 0]\nclass = 2014"] ;
39 -> 41 ;
42 [label="cob_vac_bcg <= 25.481\ngini = 0.5\nsamples = 2\nvalue = [0, 0, 0, 1, 0, 1, 0, 0, 0, 0, 0]\nclass = 2013"] ;
38 -> 42 ;
43 [label="gini = 0.0\nsamples = 1\nvalue = [0, 0, 0, 0, 0, 1, 0, 0, 0, 0, 0]\nclass = 2015"] ;
42 -> 43 ;
44 [label="gini = 0.0\nsamples = 1\nvalue = [0, 0, 0, 1, 0, 0, 0, 0, 0, 0, 0]\nclass = 2013"] ;
42 -> 44 ;
45 [label="gini = 0.0\nsamples = 1\nvalue = [1, 0, 0, 0, 0, 0, 0, 0, 0, 0, 0]\nclass = 2010"] ;
37 -> 45 ;
46 [label="cob_vac_bcg <= 28.631\ngini = 0.56\nsamples = 5\nvalue = [0, 0, 0, 1, 3, 0, 1, 0, 0, 0, 0]\nclass = 2014"] ;
36 -> 46 ;
47 [label="gini = 0.0\nsamples = 2\nvalue = [0, 0, 0, 0, 2, 0, 0, 0, 0, 0, 0]\nclass = 2014"] ;
46 -> 47 ;
48 [label="cob_vac_bcg <= 29.65\ngini = 0.667\nsamples = 3\nvalue = [0, 0, 0, 1, 1, 0, 1, 0, 0, 0, 0]\nclass = 2013"] ;
46 -> 48 ;
49 [label="gini = 0.0\nsamples = 1\nvalue = [0, 0, 0, 0, 0, 0, 1, 0, 0, 0, 0]\nclass = 2016"] ;
48 -> 49 ;
50 [label="cob_vac_bcg <= 30.993\ngini = 0.5\nsamples = 2\nvalue = [0, 0, 0, 1, 1, 0, 0, 0, 0, 0, 0]\nclass = 2013"] ;
48 -> 50 ;
51 [label="gini = 0.0\nsamples = 1\nvalue = [0, 0, 0, 1, 0, 0, 0, 0, 0, 0, 0]\nclass = 2013"] ;
50 -> 51 ;
52 [label="gini = 0.0\nsamples = 1\nvalue = [0, 0, 0, 0, 1, 0, 0, 0, 0, 0, 0]\nclass = 2014"] ;
50 -> 52 ;
53 [label="gini = 0.0\nsamples = 1\nvalue = [0, 0, 0, 0, 0, 0, 0, 0, 0, 0, 1]\nclass = 2020"] ;
35 -> 53 ;
54 [label="idhm <= 0.729\ngini = 0.716\nsamples = 9\nvalue = [2, 1, 4, 1, 0, 0, 0, 0, 0, 0, 1]\nclass = 2012"] ;
2 -> 54 ;
55 [label="cob_vac_bcg <= 11.927\ngini = 0.656\nsamples = 8\nvalue = [2, 1, 4, 1, 0, 0, 0, 0, 0, 0, 0]\nclass = 2012"] ;
54 -> 55 ;
56 [label="cob_vac_bcg <= 10.321\ngini = 0.5\nsamples = 2\nvalue = [1, 1, 0, 0, 0, 0, 0, 0, 0, 0, 0]\nclass = 2010"] ;
55 -> 56 ;
57 [label="gini = 0.0\nsamples = 1\nvalue = [1, 0, 0, 0, 0, 0, 0, 0, 0, 0, 0]\nclass = 2010"] ;
56 -> 57 ;
58 [label="gini = 0.0\nsamples = 1\nvalue = [0, 1, 0, 0, 0, 0, 0, 0, 0, 0, 0]\nclass = 2011"] ;
56 -> 58 ;
59 [label="cob_vac_bcg <= 19.188\ngini = 0.5\nsamples = 6\nvalue = [1, 0, 4, 1, 0, 0, 0, 0, 0, 0, 0]\nclass = 2012"] ;
55 -> 59 ;
60 [label="cob_vac_bcg <= 13.51\ngini = 0.5\nsamples = 2\nvalue = [0, 0, 1, 1, 0, 0, 0, 0, 0, 0, 0]\nclass = 2012"] ;
59 -> 60 ;
61 [label="gini = 0.0\nsamples = 1\nvalue = [0, 0, 1, 0, 0, 0, 0, 0, 0, 0, 0]\nclass = 2012"] ;
60 -> 61 ;
62 [label="gini = 0.0\nsamples = 1\nvalue = [0, 0, 0, 1, 0, 0, 0, 0, 0, 0, 0]\nclass = 2013"] ;
60 -> 62 ;
63 [label="exp_vida <= 75.33\ngini = 0.375\nsamples = 4\nvalue = [1, 0, 3, 0, 0, 0, 0, 0, 0, 0, 0]\nclass = 2012"] ;
59 -> 63 ;
64 [label="gini = 0.0\nsamples = 1\nvalue = [0, 0, 1, 0, 0, 0, 0, 0, 0, 0, 0]\nclass = 2012"] ;
63 -> 64 ;
65 [label="exp_vida <= 75.53\ngini = 0.444\nsamples = 3\nvalue = [1, 0, 2, 0, 0, 0, 0, 0, 0, 0, 0]\nclass = 2012"] ;
63 -> 65 ;
66 [label="gini = 0.5\nsamples = 2\nvalue = [1, 0, 1, 0, 0, 0, 0, 0, 0, 0, 0]\nclass = 2010"] ;
65 -> 66 ;
67 [label="gini = 0.0\nsamples = 1\nvalue = [0, 0, 1, 0, 0, 0, 0, 0, 0, 0, 0]\nclass = 2012"] ;
65 -> 67 ;
68 [label="gini = 0.0\nsamples = 1\nvalue = [0, 0, 0, 0, 0, 0, 0, 0, 0, 0, 1]\nclass = 2020"] ;
54 -> 68 ;
69 [label="cob_vac_bcg <= 35.644\ngini = 0.694\nsamples = 11\nvalue = [3, 5, 1, 1, 0, 0, 0, 1, 0, 0, 0]\nclass = 2011"] ;
1 -> 69 ;
70 [label="gini = 0.0\nsamples = 3\nvalue = [0, 3, 0, 0, 0, 0, 0, 0, 0, 0, 0]\nclass = 2011"] ;
69 -> 70 ;
71 [label="cob_vac_bcg <= 36.623\ngini = 0.75\nsamples = 8\nvalue = [3, 2, 1, 1, 0, 0, 0, 1, 0, 0, 0]\nclass = 2010"] ;
69 -> 71 ;
72 [label="gini = 0.0\nsamples = 1\nvalue = [0, 0, 0, 0, 0, 0, 0, 1, 0, 0, 0]\nclass = 2017"] ;
71 -> 72 ;
73 [label="cob_vac_bcg <= 37.662\ngini = 0.694\nsamples = 7\nvalue = [3, 2, 1, 1, 0, 0, 0, 0, 0, 0, 0]\nclass = 2010"] ;
71 -> 73 ;
74 [label="gini = 0.0\nsamples = 2\nvalue = [2, 0, 0, 0, 0, 0, 0, 0, 0, 0, 0]\nclass = 2010"] ;
73 -> 74 ;
75 [label="cob_vac_bcg <= 41.118\ngini = 0.72\nsamples = 5\nvalue = [1, 2, 1, 1, 0, 0, 0, 0, 0, 0, 0]\nclass = 2011"] ;
73 -> 75 ;
76 [label="exp_vida <= 73.655\ngini = 0.444\nsamples = 3\nvalue = [0, 2, 1, 0, 0, 0, 0, 0, 0, 0, 0]\nclass = 2011"] ;
75 -> 76 ;
77 [label="gini = 0.0\nsamples = 1\nvalue = [0, 0, 1, 0, 0, 0, 0, 0, 0, 0, 0]\nclass = 2012"] ;
76 -> 77 ;
78 [label="gini = 0.0\nsamples = 2\nvalue = [0, 2, 0, 0, 0, 0, 0, 0, 0, 0, 0]\nclass = 2011"] ;
76 -> 78 ;
79 [label="cob_vac_bcg <= 41.917\ngini = 0.5\nsamples = 2\nvalue = [1, 0, 0, 1, 0, 0, 0, 0, 0, 0, 0]\nclass = 2010"] ;
75 -> 79 ;
80 [label="gini = 0.0\nsamples = 1\nvalue = [0, 0, 0, 1, 0, 0, 0, 0, 0, 0, 0]\nclass = 2013"] ;
79 -> 80 ;
81 [label="gini = 0.0\nsamples = 1\nvalue = [1, 0, 0, 0, 0, 0, 0, 0, 0, 0, 0]\nclass = 2010"] ;
79 -> 81 ;
82 [label="cob_vac_bcg <= 89.975\ngini = 0.909\nsamples = 638\nvalue = [54, 56, 59, 51, 56, 62, 56, 63, 59, 65, 57]\nclass = 2019"] ;
0 -> 82 [labeldistance=2.5, labelangle=-45, headlabel="False"] ;
83 [label="cob_vac_bcg <= 80.079\ngini = 0.901\nsamples = 263\nvalue = [16, 15, 21, 19, 16, 25, 28, 28, 24, 35, 36]\nclass = 2020"] ;
82 -> 83 ;
84 [label="cob_vac_bcg <= 79.777\ngini = 0.899\nsamples = 173\nvalue = [12, 6, 11, 15, 12, 21, 18, 19, 18, 15, 26]\nclass = 2020"] ;
83 -> 84 ;
85 [label="cob_vac_bcg <= 78.352\ngini = 0.899\nsamples = 171\nvalue = [12, 6, 11, 13, 12, 21, 18, 19, 18, 15, 26]\nclass = 2020"] ;
84 -> 85 ;
86 [label="exp_vida <= 73.895\ngini = 0.897\nsamples = 158\nvalue = [12, 5, 8, 12, 10, 21, 17, 19, 17, 15, 22]\nclass = 2020"] ;
85 -> 86 ;
87 [label="cob_vac_bcg <= 70.602\ngini = 0.896\nsamples = 54\nvalue = [6, 3, 3, 7, 4, 6, 3, 4, 7, 8, 3]\nclass = 2019"] ;
86 -> 87 ;
88 [label="cob_vac_bcg <= 44.905\ngini = 0.886\nsamples = 38\nvalue = [5, 3, 3, 6, 3, 2, 1, 2, 7, 3, 3]\nclass = 2018"] ;
87 -> 88 ;
89 [label="gini = 0.0\nsamples = 2\nvalue = [0, 0, 0, 2, 0, 0, 0, 0, 0, 0, 0]\nclass = 2013"] ;
88 -> 89 ;
90 [label="exp_vida <= 73.6\ngini = 0.889\nsamples = 36\nvalue = [5, 3, 3, 4, 3, 2, 1, 2, 7, 3, 3]\nclass = 2018"] ;
88 -> 90 ;
91 [label="cob_vac_bcg <= 61.508\ngini = 0.883\nsamples = 25\nvalue = [4, 3, 3, 0, 3, 1, 1, 2, 4, 2, 2]\nclass = 2010"] ;
90 -> 91 ;
92 [label="idhm <= 0.674\ngini = 0.852\nsamples = 13\nvalue = [0, 0, 1, 0, 2, 1, 1, 2, 3, 1, 2]\nclass = 2018"] ;
91 -> 92 ;
93 [label="cob_vac_bcg <= 49.668\ngini = 0.815\nsamples = 9\nvalue = [0, 0, 1, 0, 2, 0, 1, 2, 2, 1, 0]\nclass = 2014"] ;
92 -> 93 ;
94 [label="cob_vac_bcg <= 46.331\ngini = 0.5\nsamples = 2\nvalue = [0, 0, 1, 0, 1, 0, 0, 0, 0, 0, 0]\nclass = 2012"] ;
93 -> 94 ;
95 [label="gini = 0.0\nsamples = 1\nvalue = [0, 0, 0, 0, 1, 0, 0, 0, 0, 0, 0]\nclass = 2014"] ;
94 -> 95 ;
96 [label="gini = 0.0\nsamples = 1\nvalue = [0, 0, 1, 0, 0, 0, 0, 0, 0, 0, 0]\nclass = 2012"] ;
94 -> 96 ;
97 [label="exp_vida <= 73.145\ngini = 0.776\nsamples = 7\nvalue = [0, 0, 0, 0, 1, 0, 1, 2, 2, 1, 0]\nclass = 2017"] ;
93 -> 97 ;
98 [label="cob_vac_bcg <= 53.762\ngini = 0.75\nsamples = 4\nvalue = [0, 0, 0, 0, 1, 0, 1, 1, 0, 1, 0]\nclass = 2014"] ;
97 -> 98 ;
99 [label="gini = 0.5\nsamples = 2\nvalue = [0, 0, 0, 0, 0, 0, 1, 1, 0, 0, 0]\nclass = 2016"] ;
98 -> 99 ;
100 [label="cob_vac_bcg <= 55.818\ngini = 0.5\nsamples = 2\nvalue = [0, 0, 0, 0, 1, 0, 0, 0, 0, 1, 0]\nclass = 2014"] ;
98 -> 100 ;
101 [label="gini = 0.0\nsamples = 1\nvalue = [0, 0, 0, 0, 1, 0, 0, 0, 0, 0, 0]\nclass = 2014"] ;
100 -> 101 ;
102 [label="gini = 0.0\nsamples = 1\nvalue = [0, 0, 0, 0, 0, 0, 0, 0, 0, 1, 0]\nclass = 2019"] ;
100 -> 102 ;
103 [label="idhm <= 0.662\ngini = 0.444\nsamples = 3\nvalue = [0, 0, 0, 0, 0, 0, 0, 1, 2, 0, 0]\nclass = 2018"] ;
97 -> 103 ;
104 [label="gini = 0.0\nsamples = 1\nvalue = [0, 0, 0, 0, 0, 0, 0, 0, 1, 0, 0]\nclass = 2018"] ;
103 -> 104 ;
105 [label="cob_vac_bcg <= 58.771\ngini = 0.5\nsamples = 2\nvalue = [0, 0, 0, 0, 0, 0, 0, 1, 1, 0, 0]\nclass = 2017"] ;
103 -> 105 ;
106 [label="gini = 0.0\nsamples = 1\nvalue = [0, 0, 0, 0, 0, 0, 0, 1, 0, 0, 0]\nclass = 2017"] ;
105 -> 106 ;
107 [label="gini = 0.0\nsamples = 1\nvalue = [0, 0, 0, 0, 0, 0, 0, 0, 1, 0, 0]\nclass = 2018"] ;
105 -> 107 ;
108 [label="cob_vac_bcg <= 53.116\ngini = 0.625\nsamples = 4\nvalue = [0, 0, 0, 0, 0, 1, 0, 0, 1, 0, 2]\nclass = 2020"] ;
92 -> 108 ;
109 [label="cob_vac_bcg <= 47.756\ngini = 0.5\nsamples = 2\nvalue = [0, 0, 0, 0, 0, 1, 0, 0, 1, 0, 0]\nclass = 2015"] ;
108 -> 109 ;
110 [label="gini = 0.0\nsamples = 1\nvalue = [0, 0, 0, 0, 0, 0, 0, 0, 1, 0, 0]\nclass = 2018"] ;
109 -> 110 ;
111 [label="gini = 0.0\nsamples = 1\nvalue = [0, 0, 0, 0, 0, 1, 0, 0, 0, 0, 0]\nclass = 2015"] ;
109 -> 111 ;
112 [label="gini = 0.0\nsamples = 2\nvalue = [0, 0, 0, 0, 0, 0, 0, 0, 0, 0, 2]\nclass = 2020"] ;
108 -> 112 ;
113 [label="cob_vac_bcg <= 70.245\ngini = 0.778\nsamples = 12\nvalue = [4, 3, 2, 0, 1, 0, 0, 0, 1, 1, 0]\nclass = 2010"] ;
91 -> 113 ;
114 [label="cob_vac_bcg <= 68.367\ngini = 0.744\nsamples = 11\nvalue = [4, 3, 2, 0, 0, 0, 0, 0, 1, 1, 0]\nclass = 2010"] ;
113 -> 114 ;
115 [label="idhm <= 0.679\ngini = 0.691\nsamples = 9\nvalue = [4, 2, 2, 0, 0, 0, 0, 0, 0, 1, 0]\nclass = 2010"] ;
114 -> 115 ;
116 [label="idhm <= 0.647\ngini = 0.5\nsamples = 6\nvalue = [4, 1, 1, 0, 0, 0, 0, 0, 0, 0, 0]\nclass = 2010"] ;
115 -> 116 ;
117 [label="exp_vida <= 72.845\ngini = 0.5\nsamples = 2\nvalue = [1, 1, 0, 0, 0, 0, 0, 0, 0, 0, 0]\nclass = 2010"] ;
116 -> 117 ;
118 [label="gini = 0.0\nsamples = 1\nvalue = [1, 0, 0, 0, 0, 0, 0, 0, 0, 0, 0]\nclass = 2010"] ;
117 -> 118 ;
119 [label="gini = 0.0\nsamples = 1\nvalue = [0, 1, 0, 0, 0, 0, 0, 0, 0, 0, 0]\nclass = 2011"] ;
117 -> 119 ;
120 [label="cob_vac_bcg <= 63.185\ngini = 0.375\nsamples = 4\nvalue = [3, 0, 1, 0, 0, 0, 0, 0, 0, 0, 0]\nclass = 2010"] ;
116 -> 120 ;
121 [label="gini = 0.0\nsamples = 1\nvalue = [0, 0, 1, 0, 0, 0, 0, 0, 0, 0, 0]\nclass = 2012"] ;
120 -> 121 ;
122 [label="gini = 0.0\nsamples = 3\nvalue = [3, 0, 0, 0, 0, 0, 0, 0, 0, 0, 0]\nclass = 2010"] ;
120 -> 122 ;
123 [label="cob_vac_bcg <= 62.162\ngini = 0.667\nsamples = 3\nvalue = [0, 1, 1, 0, 0, 0, 0, 0, 0, 1, 0]\nclass = 2011"] ;
115 -> 123 ;
124 [label="gini = 0.0\nsamples = 1\nvalue = [0, 1, 0, 0, 0, 0, 0, 0, 0, 0, 0]\nclass = 2011"] ;
123 -> 124 ;
125 [label="exp_vida <= 73.345\ngini = 0.5\nsamples = 2\nvalue = [0, 0, 1, 0, 0, 0, 0, 0, 0, 1, 0]\nclass = 2012"] ;
123 -> 125 ;
126 [label="gini = 0.0\nsamples = 1\nvalue = [0, 0, 1, 0, 0, 0, 0, 0, 0, 0, 0]\nclass = 2012"] ;
125 -> 126 ;
127 [label="gini = 0.0\nsamples = 1\nvalue = [0, 0, 0, 0, 0, 0, 0, 0, 0, 1, 0]\nclass = 2019"] ;
125 -> 127 ;
128 [label="exp_vida <= 73.345\ngini = 0.5\nsamples = 2\nvalue = [0, 1, 0, 0, 0, 0, 0, 0, 1, 0, 0]\nclass = 2011"] ;
114 -> 128 ;
129 [label="gini = 0.0\nsamples = 1\nvalue = [0, 0, 0, 0, 0, 0, 0, 0, 1, 0, 0]\nclass = 2018"] ;
128 -> 129 ;
130 [label="gini = 0.0\nsamples = 1\nvalue = [0, 1, 0, 0, 0, 0, 0, 0, 0, 0, 0]\nclass = 2011"] ;
128 -> 130 ;
131 [label="gini = 0.0\nsamples = 1\nvalue = [0, 0, 0, 0, 1, 0, 0, 0, 0, 0, 0]\nclass = 2014"] ;
113 -> 131 ;
132 [label="cob_vac_bcg <= 59.679\ngini = 0.76\nsamples = 11\nvalue = [1, 0, 0, 4, 0, 1, 0, 0, 3, 1, 1]\nclass = 2013"] ;
90 -> 132 ;
133 [label="cob_vac_bcg <= 48.187\ngini = 0.667\nsamples = 6\nvalue = [1, 0, 0, 3, 0, 1, 0, 0, 0, 1, 0]\nclass = 2013"] ;
132 -> 133 ;
134 [label="exp_vida <= 73.795\ngini = 0.5\nsamples = 2\nvalue = [1, 0, 0, 0, 0, 1, 0, 0, 0, 0, 0]\nclass = 2010"] ;
133 -> 134 ;
135 [label="gini = 0.0\nsamples = 1\nvalue = [0, 0, 0, 0, 0, 1, 0, 0, 0, 0, 0]\nclass = 2015"] ;
134 -> 135 ;
136 [label="gini = 0.0\nsamples = 1\nvalue = [1, 0, 0, 0, 0, 0, 0, 0, 0, 0, 0]\nclass = 2010"] ;
134 -> 136 ;
137 [label="cob_vac_bcg <= 58.234\ngini = 0.375\nsamples = 4\nvalue = [0, 0, 0, 3, 0, 0, 0, 0, 0, 1, 0]\nclass = 2013"] ;
133 -> 137 ;
138 [label="gini = 0.0\nsamples = 2\nvalue = [0, 0, 0, 2, 0, 0, 0, 0, 0, 0, 0]\nclass = 2013"] ;
137 -> 138 ;
139 [label="cob_vac_bcg <= 59.277\ngini = 0.5\nsamples = 2\nvalue = [0, 0, 0, 1, 0, 0, 0, 0, 0, 1, 0]\nclass = 2013"] ;
137 -> 139 ;
140 [label="gini = 0.0\nsamples = 1\nvalue = [0, 0, 0, 0, 0, 0, 0, 0, 0, 1, 0]\nclass = 2019"] ;
139 -> 140 ;
141 [label="gini = 0.0\nsamples = 1\nvalue = [0, 0, 0, 1, 0, 0, 0, 0, 0, 0, 0]\nclass = 2013"] ;
139 -> 141 ;
142 [label="cob_vac_bcg <= 67.984\ngini = 0.56\nsamples = 5\nvalue = [0, 0, 0, 1, 0, 0, 0, 0, 3, 0, 1]\nclass = 2018"] ;
132 -> 142 ;
143 [label="gini = 0.0\nsamples = 3\nvalue = [0, 0, 0, 0, 0, 0, 0, 0, 3, 0, 0]\nclass = 2018"] ;
142 -> 143 ;
144 [label="cob_vac_bcg <= 69.365\ngini = 0.5\nsamples = 2\nvalue = [0, 0, 0, 1, 0, 0, 0, 0, 0, 0, 1]\nclass = 2013"] ;
142 -> 144 ;
145 [label="gini = 0.0\nsamples = 1\nvalue = [0, 0, 0, 0, 0, 0, 0, 0, 0, 0, 1]\nclass = 2020"] ;
144 -> 145 ;
146 [label="gini = 0.0\nsamples = 1\nvalue = [0, 0, 0, 1, 0, 0, 0, 0, 0, 0, 0]\nclass = 2013"] ;
144 -> 146 ;
147 [label="cob_vac_bcg <= 71.435\ngini = 0.797\nsamples = 16\nvalue = [1, 0, 0, 1, 1, 4, 2, 2, 0, 5, 0]\nclass = 2019"] ;
87 -> 147 ;
148 [label="gini = 0.0\nsamples = 2\nvalue = [0, 0, 0, 0, 0, 2, 0, 0, 0, 0, 0]\nclass = 2015"] ;
147 -> 148 ;
149 [label="cob_vac_bcg <= 72.297\ngini = 0.796\nsamples = 14\nvalue = [1, 0, 0, 1, 1, 2, 2, 2, 0, 5, 0]\nclass = 2019"] ;
147 -> 149 ;
150 [label="gini = 0.0\nsamples = 1\nvalue = [0, 0, 0, 0, 0, 0, 1, 0, 0, 0, 0]\nclass = 2016"] ;
149 -> 150 ;
151 [label="cob_vac_bcg <= 75.129\ngini = 0.781\nsamples = 13\nvalue = [1, 0, 0, 1, 1, 2, 1, 2, 0, 5, 0]\nclass = 2019"] ;
149 -> 151 ;
152 [label="idhm <= 0.676\ngini = 0.444\nsamples = 3\nvalue = [0, 0, 0, 0, 1, 0, 0, 0, 0, 2, 0]\nclass = 2019"] ;
151 -> 152 ;
153 [label="gini = 0.0\nsamples = 2\nvalue = [0, 0, 0, 0, 0, 0, 0, 0, 0, 2, 0]\nclass = 2019"] ;
152 -> 153 ;
154 [label="gini = 0.0\nsamples = 1\nvalue = [0, 0, 0, 0, 1, 0, 0, 0, 0, 0, 0]\nclass = 2014"] ;
152 -> 154 ;
155 [label="exp_vida <= 73.13\ngini = 0.8\nsamples = 10\nvalue = [1, 0, 0, 1, 0, 2, 1, 2, 0, 3, 0]\nclass = 2019"] ;
151 -> 155 ;
156 [label="cob_vac_bcg <= 76.548\ngini = 0.5\nsamples = 2\nvalue = [1, 0, 0, 1, 0, 0, 0, 0, 0, 0, 0]\nclass = 2010"] ;
155 -> 156 ;
157 [label="gini = 0.0\nsamples = 1\nvalue = [1, 0, 0, 0, 0, 0, 0, 0, 0, 0, 0]\nclass = 2010"] ;
156 -> 157 ;
158 [label="gini = 0.0\nsamples = 1\nvalue = [0, 0, 0, 1, 0, 0, 0, 0, 0, 0, 0]\nclass = 2013"] ;
156 -> 158 ;
159 [label="cob_vac_bcg <= 75.274\ngini = 0.719\nsamples = 8\nvalue = [0, 0, 0, 0, 0, 2, 1, 2, 0, 3, 0]\nclass = 2019"] ;
155 -> 159 ;
160 [label="gini = 0.0\nsamples = 1\nvalue = [0, 0, 0, 0, 0, 0, 0, 1, 0, 0, 0]\nclass = 2017"] ;
159 -> 160 ;
161 [label="exp_vida <= 73.85\ngini = 0.694\nsamples = 7\nvalue = [0, 0, 0, 0, 0, 2, 1, 1, 0, 3, 0]\nclass = 2019"] ;
159 -> 161 ;
162 [label="idhm <= 0.691\ngini = 0.611\nsamples = 6\nvalue = [0, 0, 0, 0, 0, 2, 1, 0, 0, 3, 0]\nclass = 2019"] ;
161 -> 162 ;
163 [label="cob_vac_bcg <= 77.153\ngini = 0.444\nsamples = 3\nvalue = [0, 0, 0, 0, 0, 2, 0, 0, 0, 1, 0]\nclass = 2015"] ;
162 -> 163 ;
164 [label="gini = 0.0\nsamples = 2\nvalue = [0, 0, 0, 0, 0, 2, 0, 0, 0, 0, 0]\nclass = 2015"] ;
163 -> 164 ;
165 [label="gini = 0.0\nsamples = 1\nvalue = [0, 0, 0, 0, 0, 0, 0, 0, 0, 1, 0]\nclass = 2019"] ;
163 -> 165 ;
166 [label="cob_vac_bcg <= 77.256\ngini = 0.444\nsamples = 3\nvalue = [0, 0, 0, 0, 0, 0, 1, 0, 0, 2, 0]\nclass = 2019"] ;
162 -> 166 ;
167 [label="gini = 0.0\nsamples = 2\nvalue = [0, 0, 0, 0, 0, 0, 0, 0, 0, 2, 0]\nclass = 2019"] ;
166 -> 167 ;
168 [label="gini = 0.0\nsamples = 1\nvalue = [0, 0, 0, 0, 0, 0, 1, 0, 0, 0, 0]\nclass = 2016"] ;
166 -> 168 ;
169 [label="gini = 0.0\nsamples = 1\nvalue = [0, 0, 0, 0, 0, 0, 0, 1, 0, 0, 0]\nclass = 2017"] ;
161 -> 169 ;
170 [label="exp_vida <= 74.295\ngini = 0.881\nsamples = 104\nvalue = [6, 2, 5, 5, 6, 15, 14, 15, 10, 7, 19]\nclass = 2020"] ;
86 -> 170 ;
171 [label="cob_vac_bcg <= 76.714\ngini = 0.81\nsamples = 17\nvalue = [1, 2, 2, 0, 0, 0, 1, 4, 2, 0, 5]\nclass = 2020"] ;
170 -> 171 ;
172 [label="cob_vac_bcg <= 61.818\ngini = 0.833\nsamples = 12\nvalue = [1, 2, 2, 0, 0, 0, 1, 1, 2, 0, 3]\nclass = 2020"] ;
171 -> 172 ;
173 [label="cob_vac_bcg <= 48.738\ngini = 0.75\nsamples = 8\nvalue = [0, 1, 2, 0, 0, 0, 0, 1, 1, 0, 3]\nclass = 2020"] ;
172 -> 173 ;
174 [label="cob_vac_bcg <= 43.657\ngini = 0.667\nsamples = 3\nvalue = [0, 1, 1, 0, 0, 0, 0, 0, 1, 0, 0]\nclass = 2011"] ;
173 -> 174 ;
175 [label="gini = 0.0\nsamples = 1\nvalue = [0, 0, 0, 0, 0, 0, 0, 0, 1, 0, 0]\nclass = 2018"] ;
174 -> 175 ;
176 [label="exp_vida <= 74.05\ngini = 0.5\nsamples = 2\nvalue = [0, 1, 1, 0, 0, 0, 0, 0, 0, 0, 0]\nclass = 2011"] ;
174 -> 176 ;
177 [label="gini = 0.0\nsamples = 1\nvalue = [0, 0, 1, 0, 0, 0, 0, 0, 0, 0, 0]\nclass = 2012"] ;
176 -> 177 ;
178 [label="gini = 0.0\nsamples = 1\nvalue = [0, 1, 0, 0, 0, 0, 0, 0, 0, 0, 0]\nclass = 2011"] ;
176 -> 178 ;
179 [label="idhm <= 0.681\ngini = 0.56\nsamples = 5\nvalue = [0, 0, 1, 0, 0, 0, 0, 1, 0, 0, 3]\nclass = 2020"] ;
173 -> 179 ;
180 [label="cob_vac_bcg <= 55.453\ngini = 0.375\nsamples = 4\nvalue = [0, 0, 1, 0, 0, 0, 0, 0, 0, 0, 3]\nclass = 2020"] ;
179 -> 180 ;
181 [label="gini = 0.0\nsamples = 2\nvalue = [0, 0, 0, 0, 0, 0, 0, 0, 0, 0, 2]\nclass = 2020"] ;
180 -> 181 ;
182 [label="exp_vida <= 74.2\ngini = 0.5\nsamples = 2\nvalue = [0, 0, 1, 0, 0, 0, 0, 0, 0, 0, 1]\nclass = 2012"] ;
180 -> 182 ;
183 [label="gini = 0.0\nsamples = 1\nvalue = [0, 0, 1, 0, 0, 0, 0, 0, 0, 0, 0]\nclass = 2012"] ;
182 -> 183 ;
184 [label="gini = 0.0\nsamples = 1\nvalue = [0, 0, 0, 0, 0, 0, 0, 0, 0, 0, 1]\nclass = 2020"] ;
182 -> 184 ;
185 [label="gini = 0.0\nsamples = 1\nvalue = [0, 0, 0, 0, 0, 0, 0, 1, 0, 0, 0]\nclass = 2017"] ;
179 -> 185 ;
186 [label="cob_vac_bcg <= 68.678\ngini = 0.75\nsamples = 4\nvalue = [1, 1, 0, 0, 0, 0, 1, 0, 1, 0, 0]\nclass = 2010"] ;
172 -> 186 ;
187 [label="gini = 0.0\nsamples = 1\nvalue = [1, 0, 0, 0, 0, 0, 0, 0, 0, 0, 0]\nclass = 2010"] ;
186 -> 187 ;
188 [label="idhm <= 0.654\ngini = 0.667\nsamples = 3\nvalue = [0, 1, 0, 0, 0, 0, 1, 0, 1, 0, 0]\nclass = 2011"] ;
186 -> 188 ;
189 [label="gini = 0.0\nsamples = 1\nvalue = [0, 0, 0, 0, 0, 0, 1, 0, 0, 0, 0]\nclass = 2016"] ;
188 -> 189 ;
190 [label="cob_vac_bcg <= 73.778\ngini = 0.5\nsamples = 2\nvalue = [0, 1, 0, 0, 0, 0, 0, 0, 1, 0, 0]\nclass = 2011"] ;
188 -> 190 ;
191 [label="gini = 0.0\nsamples = 1\nvalue = [0, 0, 0, 0, 0, 0, 0, 0, 1, 0, 0]\nclass = 2018"] ;
190 -> 191 ;
192 [label="gini = 0.0\nsamples = 1\nvalue = [0, 1, 0, 0, 0, 0, 0, 0, 0, 0, 0]\nclass = 2011"] ;
190 -> 192 ;
193 [label="idhm <= 0.679\ngini = 0.48\nsamples = 5\nvalue = [0, 0, 0, 0, 0, 0, 0, 3, 0, 0, 2]\nclass = 2017"] ;
171 -> 193 ;
194 [label="cob_vac_bcg <= 78.038\ngini = 0.375\nsamples = 4\nvalue = [0, 0, 0, 0, 0, 0, 0, 3, 0, 0, 1]\nclass = 2017"] ;
193 -> 194 ;
195 [label="gini = 0.0\nsamples = 2\nvalue = [0, 0, 0, 0, 0, 0, 0, 2, 0, 0, 0]\nclass = 2017"] ;
194 -> 195 ;
196 [label="cob_vac_bcg <= 78.174\ngini = 0.5\nsamples = 2\nvalue = [0, 0, 0, 0, 0, 0, 0, 1, 0, 0, 1]\nclass = 2017"] ;
194 -> 196 ;
197 [label="gini = 0.0\nsamples = 1\nvalue = [0, 0, 0, 0, 0, 0, 0, 0, 0, 0, 1]\nclass = 2020"] ;
196 -> 197 ;
198 [label="gini = 0.0\nsamples = 1\nvalue = [0, 0, 0, 0, 0, 0, 0, 1, 0, 0, 0]\nclass = 2017"] ;
196 -> 198 ;
199 [label="gini = 0.0\nsamples = 1\nvalue = [0, 0, 0, 0, 0, 0, 0, 0, 0, 0, 1]\nclass = 2020"] ;
193 -> 199 ;
200 [label="cob_vac_bcg <= 76.268\ngini = 0.879\nsamples = 87\nvalue = [5, 0, 3, 5, 6, 15, 13, 11, 8, 7, 14]\nclass = 2015"] ;
170 -> 200 ;
201 [label="exp_vida <= 75.145\ngini = 0.874\nsamples = 72\nvalue = [3, 0, 3, 4, 5, 12, 9, 10, 5, 7, 14]\nclass = 2020"] ;
200 -> 201 ;
202 [label="cob_vac_bcg <= 74.734\ngini = 0.851\nsamples = 31\nvalue = [0, 0, 1, 1, 1, 2, 5, 5, 5, 6, 5]\nclass = 2019"] ;
201 -> 202 ;
203 [label="cob_vac_bcg <= 72.831\ngini = 0.849\nsamples = 29\nvalue = [0, 0, 1, 1, 1, 2, 5, 3, 5, 6, 5]\nclass = 2019"] ;
202 -> 203 ;
204 [label="cob_vac_bcg <= 72.085\ngini = 0.849\nsamples = 26\nvalue = [0, 0, 1, 1, 1, 2, 3, 3, 4, 6, 5]\nclass = 2019"] ;
203 -> 204 ;
205 [label="exp_vida <= 74.43\ngini = 0.837\nsamples = 24\nvalue = [0, 0, 1, 1, 1, 1, 3, 2, 4, 6, 5]\nclass = 2019"] ;
204 -> 205 ;
206 [label="cob_vac_bcg <= 59.742\ngini = 0.776\nsamples = 7\nvalue = [0, 0, 0, 1, 0, 1, 0, 1, 2, 2, 0]\nclass = 2018"] ;
205 -> 206 ;
207 [label="gini = 0.0\nsamples = 1\nvalue = [0, 0, 0, 0, 0, 1, 0, 0, 0, 0, 0]\nclass = 2015"] ;
206 -> 207 ;
208 [label="cob_vac_bcg <= 64.474\ngini = 0.722\nsamples = 6\nvalue = [0, 0, 0, 1, 0, 0, 0, 1, 2, 2, 0]\nclass = 2018"] ;
206 -> 208 ;
209 [label="gini = 0.0\nsamples = 1\nvalue = [0, 0, 0, 0, 0, 0, 0, 0, 1, 0, 0]\nclass = 2018"] ;
208 -> 209 ;
210 [label="cob_vac_bcg <= 71.656\ngini = 0.72\nsamples = 5\nvalue = [0, 0, 0, 1, 0, 0, 0, 1, 1, 2, 0]\nclass = 2019"] ;
208 -> 210 ;
211 [label="cob_vac_bcg <= 68.804\ngini = 0.625\nsamples = 4\nvalue = [0, 0, 0, 1, 0, 0, 0, 1, 0, 2, 0]\nclass = 2019"] ;
210 -> 211 ;
212 [label="gini = 0.0\nsamples = 1\nvalue = [0, 0, 0, 0, 0, 0, 0, 0, 0, 1, 0]\nclass = 2019"] ;
211 -> 212 ;
213 [label="idhm <= 0.695\ngini = 0.667\nsamples = 3\nvalue = [0, 0, 0, 1, 0, 0, 0, 1, 0, 1, 0]\nclass = 2013"] ;
211 -> 213 ;
214 [label="gini = 0.0\nsamples = 1\nvalue = [0, 0, 0, 0, 0, 0, 0, 1, 0, 0, 0]\nclass = 2017"] ;
213 -> 214 ;
215 [label="cob_vac_bcg <= 70.675\ngini = 0.5\nsamples = 2\nvalue = [0, 0, 0, 1, 0, 0, 0, 0, 0, 1, 0]\nclass = 2013"] ;
213 -> 215 ;
216 [label="gini = 0.0\nsamples = 1\nvalue = [0, 0, 0, 1, 0, 0, 0, 0, 0, 0, 0]\nclass = 2013"] ;
215 -> 216 ;
217 [label="gini = 0.0\nsamples = 1\nvalue = [0, 0, 0, 0, 0, 0, 0, 0, 0, 1, 0]\nclass = 2019"] ;
215 -> 217 ;
218 [label="gini = 0.0\nsamples = 1\nvalue = [0, 0, 0, 0, 0, 0, 0, 0, 1, 0, 0]\nclass = 2018"] ;
210 -> 218 ;
219 [label="cob_vac_bcg <= 45.605\ngini = 0.803\nsamples = 17\nvalue = [0, 0, 1, 0, 1, 0, 3, 1, 2, 4, 5]\nclass = 2020"] ;
205 -> 219 ;
220 [label="idhm <= 0.688\ngini = 0.5\nsamples = 2\nvalue = [0, 0, 0, 0, 0, 0, 0, 1, 0, 1, 0]\nclass = 2017"] ;
219 -> 220 ;
221 [label="gini = 0.0\nsamples = 1\nvalue = [0, 0, 0, 0, 0, 0, 0, 0, 0, 1, 0]\nclass = 2019"] ;
220 -> 221 ;
222 [label="gini = 0.0\nsamples = 1\nvalue = [0, 0, 0, 0, 0, 0, 0, 1, 0, 0, 0]\nclass = 2017"] ;
220 -> 222 ;
223 [label="exp_vida <= 74.78\ngini = 0.782\nsamples = 15\nvalue = [0, 0, 1, 0, 1, 0, 3, 0, 2, 3, 5]\nclass = 2020"] ;
219 -> 223 ;
224 [label="idhm <= 0.661\ngini = 0.375\nsamples = 4\nvalue = [0, 0, 0, 0, 0, 0, 1, 0, 0, 0, 3]\nclass = 2020"] ;
223 -> 224 ;
225 [label="gini = 0.0\nsamples = 1\nvalue = [0, 0, 0, 0, 0, 0, 1, 0, 0, 0, 0]\nclass = 2016"] ;
224 -> 225 ;
226 [label="gini = 0.0\nsamples = 3\nvalue = [0, 0, 0, 0, 0, 0, 0, 0, 0, 0, 3]\nclass = 2020"] ;
224 -> 226 ;
227 [label="cob_vac_bcg <= 58.845\ngini = 0.81\nsamples = 11\nvalue = [0, 0, 1, 0, 1, 0, 2, 0, 2, 3, 2]\nclass = 2019"] ;
223 -> 227 ;
228 [label="cob_vac_bcg <= 49.991\ngini = 0.667\nsamples = 3\nvalue = [0, 0, 1, 0, 1, 0, 0, 0, 1, 0, 0]\nclass = 2012"] ;
227 -> 228 ;
229 [label="gini = 0.0\nsamples = 1\nvalue = [0, 0, 0, 0, 0, 0, 0, 0, 1, 0, 0]\nclass = 2018"] ;
228 -> 229 ;
230 [label="cob_vac_bcg <= 55.553\ngini = 0.5\nsamples = 2\nvalue = [0, 0, 1, 0, 1, 0, 0, 0, 0, 0, 0]\nclass = 2012"] ;
228 -> 230 ;
231 [label="gini = 0.0\nsamples = 1\nvalue = [0, 0, 1, 0, 0, 0, 0, 0, 0, 0, 0]\nclass = 2012"] ;
230 -> 231 ;
232 [label="gini = 0.0\nsamples = 1\nvalue = [0, 0, 0, 0, 1, 0, 0, 0, 0, 0, 0]\nclass = 2014"] ;
230 -> 232 ;
233 [label="exp_vida <= 75.06\ngini = 0.719\nsamples = 8\nvalue = [0, 0, 0, 0, 0, 0, 2, 0, 1, 3, 2]\nclass = 2019"] ;
227 -> 233 ;
234 [label="idhm <= 0.695\ngini = 0.625\nsamples = 4\nvalue = [0, 0, 0, 0, 0, 0, 2, 0, 1, 1, 0]\nclass = 2016"] ;
233 -> 234 ;
235 [label="exp_vida <= 74.915\ngini = 0.5\nsamples = 2\nvalue = [0, 0, 0, 0, 0, 0, 0, 0, 1, 1, 0]\nclass = 2018"] ;
234 -> 235 ;
236 [label="gini = 0.0\nsamples = 1\nvalue = [0, 0, 0, 0, 0, 0, 0, 0, 0, 1, 0]\nclass = 2019"] ;
235 -> 236 ;
237 [label="gini = 0.0\nsamples = 1\nvalue = [0, 0, 0, 0, 0, 0, 0, 0, 1, 0, 0]\nclass = 2018"] ;
235 -> 237 ;
238 [label="gini = 0.0\nsamples = 2\nvalue = [0, 0, 0, 0, 0, 0, 2, 0, 0, 0, 0]\nclass = 2016"] ;
234 -> 238 ;
239 [label="cob_vac_bcg <= 60.488\ngini = 0.5\nsamples = 4\nvalue = [0, 0, 0, 0, 0, 0, 0, 0, 0, 2, 2]\nclass = 2019"] ;
233 -> 239 ;
240 [label="gini = 0.0\nsamples = 1\nvalue = [0, 0, 0, 0, 0, 0, 0, 0, 0, 0, 1]\nclass = 2020"] ;
239 -> 240 ;
241 [label="idhm <= 0.718\ngini = 0.444\nsamples = 3\nvalue = [0, 0, 0, 0, 0, 0, 0, 0, 0, 2, 1]\nclass = 2019"] ;
239 -> 241 ;
242 [label="gini = 0.0\nsamples = 1\nvalue = [0, 0, 0, 0, 0, 0, 0, 0, 0, 1, 0]\nclass = 2019"] ;
241 -> 242 ;
243 [label="cob_vac_bcg <= 71.384\ngini = 0.5\nsamples = 2\nvalue = [0, 0, 0, 0, 0, 0, 0, 0, 0, 1, 1]\nclass = 2019"] ;
241 -> 243 ;
244 [label="gini = 0.0\nsamples = 1\nvalue = [0, 0, 0, 0, 0, 0, 0, 0, 0, 0, 1]\nclass = 2020"] ;
243 -> 244 ;
245 [label="gini = 0.0\nsamples = 1\nvalue = [0, 0, 0, 0, 0, 0, 0, 0, 0, 1, 0]\nclass = 2019"] ;
243 -> 245 ;
246 [label="cob_vac_bcg <= 72.398\ngini = 0.5\nsamples = 2\nvalue = [0, 0, 0, 0, 0, 1, 0, 1, 0, 0, 0]\nclass = 2015"] ;
204 -> 246 ;
247 [label="gini = 0.0\nsamples = 1\nvalue = [0, 0, 0, 0, 0, 1, 0, 0, 0, 0, 0]\nclass = 2015"] ;
246 -> 247 ;
248 [label="gini = 0.0\nsamples = 1\nvalue = [0, 0, 0, 0, 0, 0, 0, 1, 0, 0, 0]\nclass = 2017"] ;
246 -> 248 ;
249 [label="idhm <= 0.716\ngini = 0.444\nsamples = 3\nvalue = [0, 0, 0, 0, 0, 0, 2, 0, 1, 0, 0]\nclass = 2016"] ;
203 -> 249 ;
250 [label="gini = 0.0\nsamples = 2\nvalue = [0, 0, 0, 0, 0, 0, 2, 0, 0, 0, 0]\nclass = 2016"] ;
249 -> 250 ;
251 [label="gini = 0.0\nsamples = 1\nvalue = [0, 0, 0, 0, 0, 0, 0, 0, 1, 0, 0]\nclass = 2018"] ;
249 -> 251 ;
252 [label="gini = 0.0\nsamples = 2\nvalue = [0, 0, 0, 0, 0, 0, 0, 2, 0, 0, 0]\nclass = 2017"] ;
202 -> 252 ;
253 [label="cob_vac_bcg <= 48.888\ngini = 0.845\nsamples = 41\nvalue = [3, 0, 2, 3, 4, 10, 4, 5, 0, 1, 9]\nclass = 2015"] ;
201 -> 253 ;
254 [label="gini = 0.0\nsamples = 2\nvalue = [0, 0, 0, 0, 0, 2, 0, 0, 0, 0, 0]\nclass = 2015"] ;
253 -> 254 ;
255 [label="cob_vac_bcg <= 69.259\ngini = 0.852\nsamples = 39\nvalue = [3, 0, 2, 3, 4, 8, 4, 5, 0, 1, 9]\nclass = 2020"] ;
253 -> 255 ;
256 [label="exp_vida <= 75.625\ngini = 0.864\nsamples = 25\nvalue = [3, 0, 1, 3, 4, 3, 3, 4, 0, 0, 4]\nclass = 2014"] ;
255 -> 256 ;
257 [label="cob_vac_bcg <= 53.971\ngini = 0.827\nsamples = 14\nvalue = [1, 0, 1, 3, 4, 1, 1, 1, 0, 0, 2]\nclass = 2014"] ;
256 -> 257 ;
258 [label="exp_vida <= 75.395\ngini = 0.8\nsamples = 5\nvalue = [0, 0, 1, 1, 0, 0, 1, 1, 0, 0, 1]\nclass = 2012"] ;
257 -> 258 ;
259 [label="cob_vac_bcg <= 51.246\ngini = 0.75\nsamples = 4\nvalue = [0, 0, 1, 0, 0, 0, 1, 1, 0, 0, 1]\nclass = 2012"] ;
258 -> 259 ;
260 [label="gini = 0.0\nsamples = 1\nvalue = [0, 0, 0, 0, 0, 0, 0, 0, 0, 0, 1]\nclass = 2020"] ;
259 -> 260 ;
261 [label="cob_vac_bcg <= 52.408\ngini = 0.667\nsamples = 3\nvalue = [0, 0, 1, 0, 0, 0, 1, 1, 0, 0, 0]\nclass = 2012"] ;
259 -> 261 ;
262 [label="gini = 0.0\nsamples = 1\nvalue = [0, 0, 1, 0, 0, 0, 0, 0, 0, 0, 0]\nclass = 2012"] ;
261 -> 262 ;
263 [label="cob_vac_bcg <= 53.32\ngini = 0.5\nsamples = 2\nvalue = [0, 0, 0, 0, 0, 0, 1, 1, 0, 0, 0]\nclass = 2016"] ;
261 -> 263 ;
264 [label="gini = 0.0\nsamples = 1\nvalue = [0, 0, 0, 0, 0, 0, 0, 1, 0, 0, 0]\nclass = 2017"] ;
263 -> 264 ;
265 [label="gini = 0.0\nsamples = 1\nvalue = [0, 0, 0, 0, 0, 0, 1, 0, 0, 0, 0]\nclass = 2016"] ;
263 -> 265 ;
266 [label="gini = 0.0\nsamples = 1\nvalue = [0, 0, 0, 1, 0, 0, 0, 0, 0, 0, 0]\nclass = 2013"] ;
258 -> 266 ;
267 [label="cob_vac_bcg <= 63.662\ngini = 0.716\nsamples = 9\nvalue = [1, 0, 0, 2, 4, 1, 0, 0, 0, 0, 1]\nclass = 2014"] ;
257 -> 267 ;
268 [label="idhm <= 0.725\ngini = 0.656\nsamples = 8\nvalue = [1, 0, 0, 2, 4, 1, 0, 0, 0, 0, 0]\nclass = 2014"] ;
267 -> 268 ;
269 [label="idhm <= 0.715\ngini = 0.612\nsamples = 7\nvalue = [1, 0, 0, 1, 4, 1, 0, 0, 0, 0, 0]\nclass = 2014"] ;
268 -> 269 ;
270 [label="exp_vida <= 75.53\ngini = 0.375\nsamples = 4\nvalue = [0, 0, 0, 1, 3, 0, 0, 0, 0, 0, 0]\nclass = 2014"] ;
269 -> 270 ;
271 [label="gini = 0.0\nsamples = 2\nvalue = [0, 0, 0, 0, 2, 0, 0, 0, 0, 0, 0]\nclass = 2014"] ;
270 -> 271 ;
272 [label="cob_vac_bcg <= 59.132\ngini = 0.5\nsamples = 2\nvalue = [0, 0, 0, 1, 1, 0, 0, 0, 0, 0, 0]\nclass = 2013"] ;
270 -> 272 ;
273 [label="gini = 0.0\nsamples = 1\nvalue = [0, 0, 0, 0, 1, 0, 0, 0, 0, 0, 0]\nclass = 2014"] ;
272 -> 273 ;
274 [label="gini = 0.0\nsamples = 1\nvalue = [0, 0, 0, 1, 0, 0, 0, 0, 0, 0, 0]\nclass = 2013"] ;
272 -> 274 ;
275 [label="cob_vac_bcg <= 55.268\ngini = 0.667\nsamples = 3\nvalue = [1, 0, 0, 0, 1, 1, 0, 0, 0, 0, 0]\nclass = 2010"] ;
269 -> 275 ;
276 [label="gini = 0.0\nsamples = 1\nvalue = [1, 0, 0, 0, 0, 0, 0, 0, 0, 0, 0]\nclass = 2010"] ;
275 -> 276 ;
277 [label="cob_vac_bcg <= 59.877\ngini = 0.5\nsamples = 2\nvalue = [0, 0, 0, 0, 1, 1, 0, 0, 0, 0, 0]\nclass = 2014"] ;
275 -> 277 ;
278 [label="gini = 0.0\nsamples = 1\nvalue = [0, 0, 0, 0, 0, 1, 0, 0, 0, 0, 0]\nclass = 2015"] ;
277 -> 278 ;
279 [label="gini = 0.0\nsamples = 1\nvalue = [0, 0, 0, 0, 1, 0, 0, 0, 0, 0, 0]\nclass = 2014"] ;
277 -> 279 ;
280 [label="gini = 0.0\nsamples = 1\nvalue = [0, 0, 0, 1, 0, 0, 0, 0, 0, 0, 0]\nclass = 2013"] ;
268 -> 280 ;
281 [label="gini = 0.0\nsamples = 1\nvalue = [0, 0, 0, 0, 0, 0, 0, 0, 0, 0, 1]\nclass = 2020"] ;
267 -> 281 ;
282 [label="cob_vac_bcg <= 51.299\ngini = 0.793\nsamples = 11\nvalue = [2, 0, 0, 0, 0, 2, 2, 3, 0, 0, 2]\nclass = 2017"] ;
256 -> 282 ;
283 [label="gini = 0.0\nsamples = 1\nvalue = [1, 0, 0, 0, 0, 0, 0, 0, 0, 0, 0]\nclass = 2010"] ;
282 -> 283 ;
284 [label="cob_vac_bcg <= 68.07\ngini = 0.78\nsamples = 10\nvalue = [1, 0, 0, 0, 0, 2, 2, 3, 0, 0, 2]\nclass = 2017"] ;
282 -> 284 ;
285 [label="cob_vac_bcg <= 54.875\ngini = 0.741\nsamples = 9\nvalue = [0, 0, 0, 0, 0, 2, 2, 3, 0, 0, 2]\nclass = 2017"] ;
284 -> 285 ;
286 [label="gini = 0.0\nsamples = 1\nvalue = [0, 0, 0, 0, 0, 0, 1, 0, 0, 0, 0]\nclass = 2016"] ;
285 -> 286 ;
287 [label="idhm <= 0.714\ngini = 0.719\nsamples = 8\nvalue = [0, 0, 0, 0, 0, 2, 1, 3, 0, 0, 2]\nclass = 2017"] ;
285 -> 287 ;
288 [label="idhm <= 0.703\ngini = 0.5\nsamples = 2\nvalue = [0, 0, 0, 0, 0, 1, 1, 0, 0, 0, 0]\nclass = 2015"] ;
287 -> 288 ;
289 [label="gini = 0.0\nsamples = 1\nvalue = [0, 0, 0, 0, 0, 1, 0, 0, 0, 0, 0]\nclass = 2015"] ;
288 -> 289 ;
290 [label="gini = 0.0\nsamples = 1\nvalue = [0, 0, 0, 0, 0, 0, 1, 0, 0, 0, 0]\nclass = 2016"] ;
288 -> 290 ;
291 [label="cob_vac_bcg <= 58.594\ngini = 0.611\nsamples = 6\nvalue = [0, 0, 0, 0, 0, 1, 0, 3, 0, 0, 2]\nclass = 2017"] ;
287 -> 291 ;
292 [label="gini = 0.0\nsamples = 1\nvalue = [0, 0, 0, 0, 0, 1, 0, 0, 0, 0, 0]\nclass = 2015"] ;
291 -> 292 ;
293 [label="cob_vac_bcg <= 62.567\ngini = 0.48\nsamples = 5\nvalue = [0, 0, 0, 0, 0, 0, 0, 3, 0, 0, 2]\nclass = 2017"] ;
291 -> 293 ;
294 [label="cob_vac_bcg <= 59.302\ngini = 0.444\nsamples = 3\nvalue = [0, 0, 0, 0, 0, 0, 0, 1, 0, 0, 2]\nclass = 2020"] ;
293 -> 294 ;
295 [label="gini = 0.0\nsamples = 1\nvalue = [0, 0, 0, 0, 0, 0, 0, 1, 0, 0, 0]\nclass = 2017"] ;
294 -> 295 ;
296 [label="gini = 0.0\nsamples = 2\nvalue = [0, 0, 0, 0, 0, 0, 0, 0, 0, 0, 2]\nclass = 2020"] ;
294 -> 296 ;
297 [label="gini = 0.0\nsamples = 2\nvalue = [0, 0, 0, 0, 0, 0, 0, 2, 0, 0, 0]\nclass = 2017"] ;
293 -> 297 ;
298 [label="gini = 0.0\nsamples = 1\nvalue = [1, 0, 0, 0, 0, 0, 0, 0, 0, 0, 0]\nclass = 2010"] ;
284 -> 298 ;
299 [label="idhm <= 0.71\ngini = 0.724\nsamples = 14\nvalue = [0, 0, 1, 0, 0, 5, 1, 1, 0, 1, 5]\nclass = 2015"] ;
255 -> 299 ;
300 [label="exp_vida <= 75.625\ngini = 0.625\nsamples = 4\nvalue = [0, 0, 1, 0, 0, 0, 0, 1, 0, 0, 2]\nclass = 2020"] ;
299 -> 300 ;
301 [label="idhm <= 0.69\ngini = 0.444\nsamples = 3\nvalue = [0, 0, 0, 0, 0, 0, 0, 1, 0, 0, 2]\nclass = 2020"] ;
300 -> 301 ;
302 [label="gini = 0.0\nsamples = 1\nvalue = [0, 0, 0, 0, 0, 0, 0, 0, 0, 0, 1]\nclass = 2020"] ;
301 -> 302 ;
303 [label="cob_vac_bcg <= 73.615\ngini = 0.5\nsamples = 2\nvalue = [0, 0, 0, 0, 0, 0, 0, 1, 0, 0, 1]\nclass = 2017"] ;
301 -> 303 ;
304 [label="gini = 0.0\nsamples = 1\nvalue = [0, 0, 0, 0, 0, 0, 0, 1, 0, 0, 0]\nclass = 2017"] ;
303 -> 304 ;
305 [label="gini = 0.0\nsamples = 1\nvalue = [0, 0, 0, 0, 0, 0, 0, 0, 0, 0, 1]\nclass = 2020"] ;
303 -> 305 ;
306 [label="gini = 0.0\nsamples = 1\nvalue = [0, 0, 1, 0, 0, 0, 0, 0, 0, 0, 0]\nclass = 2012"] ;
300 -> 306 ;
307 [label="cob_vac_bcg <= 75.284\ngini = 0.64\nsamples = 10\nvalue = [0, 0, 0, 0, 0, 5, 1, 0, 0, 1, 3]\nclass = 2015"] ;
299 -> 307 ;
308 [label="idhm <= 0.799\ngini = 0.568\nsamples = 9\nvalue = [0, 0, 0, 0, 0, 5, 1, 0, 0, 0, 3]\nclass = 2015"] ;
307 -> 308 ;
309 [label="cob_vac_bcg <= 74.005\ngini = 0.531\nsamples = 8\nvalue = [0, 0, 0, 0, 0, 5, 1, 0, 0, 0, 2]\nclass = 2015"] ;
308 -> 309 ;
310 [label="cob_vac_bcg <= 71.796\ngini = 0.449\nsamples = 7\nvalue = [0, 0, 0, 0, 0, 5, 1, 0, 0, 0, 1]\nclass = 2015"] ;
309 -> 310 ;
311 [label="cob_vac_bcg <= 71.314\ngini = 0.625\nsamples = 4\nvalue = [0, 0, 0, 0, 0, 2, 1, 0, 0, 0, 1]\nclass = 2015"] ;
310 -> 311 ;
312 [label="cob_vac_bcg <= 69.929\ngini = 0.444\nsamples = 3\nvalue = [0, 0, 0, 0, 0, 2, 0, 0, 0, 0, 1]\nclass = 2015"] ;
311 -> 312 ;
313 [label="gini = 0.0\nsamples = 1\nvalue = [0, 0, 0, 0, 0, 1, 0, 0, 0, 0, 0]\nclass = 2015"] ;
312 -> 313 ;
314 [label="exp_vida <= 75.425\ngini = 0.5\nsamples = 2\nvalue = [0, 0, 0, 0, 0, 1, 0, 0, 0, 0, 1]\nclass = 2015"] ;
312 -> 314 ;
315 [label="gini = 0.0\nsamples = 1\nvalue = [0, 0, 0, 0, 0, 1, 0, 0, 0, 0, 0]\nclass = 2015"] ;
314 -> 315 ;
316 [label="gini = 0.0\nsamples = 1\nvalue = [0, 0, 0, 0, 0, 0, 0, 0, 0, 0, 1]\nclass = 2020"] ;
314 -> 316 ;
317 [label="gini = 0.0\nsamples = 1\nvalue = [0, 0, 0, 0, 0, 0, 1, 0, 0, 0, 0]\nclass = 2016"] ;
311 -> 317 ;
318 [label="gini = 0.0\nsamples = 3\nvalue = [0, 0, 0, 0, 0, 3, 0, 0, 0, 0, 0]\nclass = 2015"] ;
310 -> 318 ;
319 [label="gini = 0.0\nsamples = 1\nvalue = [0, 0, 0, 0, 0, 0, 0, 0, 0, 0, 1]\nclass = 2020"] ;
309 -> 319 ;
320 [label="gini = 0.0\nsamples = 1\nvalue = [0, 0, 0, 0, 0, 0, 0, 0, 0, 0, 1]\nclass = 2020"] ;
308 -> 320 ;
321 [label="gini = 0.0\nsamples = 1\nvalue = [0, 0, 0, 0, 0, 0, 0, 0, 0, 1, 0]\nclass = 2019"] ;
307 -> 321 ;
322 [label="exp_vida <= 74.905\ngini = 0.818\nsamples = 15\nvalue = [2, 0, 0, 1, 1, 3, 4, 1, 3, 0, 0]\nclass = 2016"] ;
200 -> 322 ;
323 [label="gini = 0.0\nsamples = 3\nvalue = [0, 0, 0, 0, 0, 3, 0, 0, 0, 0, 0]\nclass = 2015"] ;
322 -> 323 ;
324 [label="cob_vac_bcg <= 76.621\ngini = 0.778\nsamples = 12\nvalue = [2, 0, 0, 1, 1, 0, 4, 1, 3, 0, 0]\nclass = 2016"] ;
322 -> 324 ;
325 [label="gini = 0.0\nsamples = 2\nvalue = [0, 0, 0, 0, 0, 0, 2, 0, 0, 0, 0]\nclass = 2016"] ;
324 -> 325 ;
326 [label="exp_vida <= 75.885\ngini = 0.8\nsamples = 10\nvalue = [2, 0, 0, 1, 1, 0, 2, 1, 3, 0, 0]\nclass = 2018"] ;
324 -> 326 ;
327 [label="exp_vida <= 75.425\ngini = 0.778\nsamples = 6\nvalue = [0, 0, 0, 1, 1, 0, 2, 1, 1, 0, 0]\nclass = 2016"] ;
326 -> 327 ;
328 [label="cob_vac_bcg <= 76.995\ngini = 0.75\nsamples = 4\nvalue = [0, 0, 0, 1, 1, 0, 0, 1, 1, 0, 0]\nclass = 2013"] ;
327 -> 328 ;
329 [label="gini = 0.0\nsamples = 1\nvalue = [0, 0, 0, 0, 0, 0, 0, 0, 1, 0, 0]\nclass = 2018"] ;
328 -> 329 ;
330 [label="exp_vida <= 75.125\ngini = 0.667\nsamples = 3\nvalue = [0, 0, 0, 1, 1, 0, 0, 1, 0, 0, 0]\nclass = 2013"] ;
328 -> 330 ;
331 [label="gini = 0.0\nsamples = 1\nvalue = [0, 0, 0, 1, 0, 0, 0, 0, 0, 0, 0]\nclass = 2013"] ;
330 -> 331 ;
332 [label="cob_vac_bcg <= 77.57\ngini = 0.5\nsamples = 2\nvalue = [0, 0, 0, 0, 1, 0, 0, 1, 0, 0, 0]\nclass = 2014"] ;
330 -> 332 ;
333 [label="gini = 0.0\nsamples = 1\nvalue = [0, 0, 0, 0, 0, 0, 0, 1, 0, 0, 0]\nclass = 2017"] ;
332 -> 333 ;
334 [label="gini = 0.0\nsamples = 1\nvalue = [0, 0, 0, 0, 1, 0, 0, 0, 0, 0, 0]\nclass = 2014"] ;
332 -> 334 ;
335 [label="gini = 0.0\nsamples = 2\nvalue = [0, 0, 0, 0, 0, 0, 2, 0, 0, 0, 0]\nclass = 2016"] ;
327 -> 335 ;
336 [label="idhm <= 0.742\ngini = 0.5\nsamples = 4\nvalue = [2, 0, 0, 0, 0, 0, 0, 0, 2, 0, 0]\nclass = 2010"] ;
326 -> 336 ;
337 [label="cob_vac_bcg <= 77.188\ngini = 0.444\nsamples = 3\nvalue = [1, 0, 0, 0, 0, 0, 0, 0, 2, 0, 0]\nclass = 2018"] ;
336 -> 337 ;
338 [label="gini = 0.0\nsamples = 1\nvalue = [0, 0, 0, 0, 0, 0, 0, 0, 1, 0, 0]\nclass = 2018"] ;
337 -> 338 ;
339 [label="cob_vac_bcg <= 77.448\ngini = 0.5\nsamples = 2\nvalue = [1, 0, 0, 0, 0, 0, 0, 0, 1, 0, 0]\nclass = 2010"] ;
337 -> 339 ;
340 [label="gini = 0.0\nsamples = 1\nvalue = [1, 0, 0, 0, 0, 0, 0, 0, 0, 0, 0]\nclass = 2010"] ;
339 -> 340 ;
341 [label="gini = 0.0\nsamples = 1\nvalue = [0, 0, 0, 0, 0, 0, 0, 0, 1, 0, 0]\nclass = 2018"] ;
339 -> 341 ;
342 [label="gini = 0.0\nsamples = 1\nvalue = [1, 0, 0, 0, 0, 0, 0, 0, 0, 0, 0]\nclass = 2010"] ;
336 -> 342 ;
343 [label="cob_vac_bcg <= 78.465\ngini = 0.805\nsamples = 13\nvalue = [0, 1, 3, 1, 2, 0, 1, 0, 1, 0, 4]\nclass = 2020"] ;
85 -> 343 ;
344 [label="gini = 0.0\nsamples = 2\nvalue = [0, 0, 0, 0, 0, 0, 0, 0, 0, 0, 2]\nclass = 2020"] ;
343 -> 344 ;
345 [label="exp_vida <= 75.19\ngini = 0.826\nsamples = 11\nvalue = [0, 1, 3, 1, 2, 0, 1, 0, 1, 0, 2]\nclass = 2012"] ;
343 -> 345 ;
346 [label="exp_vida <= 73.305\ngini = 0.765\nsamples = 9\nvalue = [0, 1, 3, 0, 2, 0, 1, 0, 0, 0, 2]\nclass = 2012"] ;
345 -> 346 ;
347 [label="gini = 0.0\nsamples = 1\nvalue = [0, 0, 0, 0, 0, 0, 1, 0, 0, 0, 0]\nclass = 2016"] ;
346 -> 347 ;
348 [label="idhm <= 0.721\ngini = 0.719\nsamples = 8\nvalue = [0, 1, 3, 0, 2, 0, 0, 0, 0, 0, 2]\nclass = 2012"] ;
346 -> 348 ;
349 [label="exp_vida <= 74.295\ngini = 0.694\nsamples = 7\nvalue = [0, 1, 3, 0, 1, 0, 0, 0, 0, 0, 2]\nclass = 2012"] ;
348 -> 349 ;
350 [label="cob_vac_bcg <= 79.088\ngini = 0.72\nsamples = 5\nvalue = [0, 1, 1, 0, 1, 0, 0, 0, 0, 0, 2]\nclass = 2020"] ;
349 -> 350 ;
351 [label="idhm <= 0.685\ngini = 0.444\nsamples = 3\nvalue = [0, 1, 0, 0, 0, 0, 0, 0, 0, 0, 2]\nclass = 2020"] ;
350 -> 351 ;
352 [label="gini = 0.0\nsamples = 2\nvalue = [0, 0, 0, 0, 0, 0, 0, 0, 0, 0, 2]\nclass = 2020"] ;
351 -> 352 ;
353 [label="gini = 0.0\nsamples = 1\nvalue = [0, 1, 0, 0, 0, 0, 0, 0, 0, 0, 0]\nclass = 2011"] ;
351 -> 353 ;
354 [label="idhm <= 0.667\ngini = 0.5\nsamples = 2\nvalue = [0, 0, 1, 0, 1, 0, 0, 0, 0, 0, 0]\nclass = 2012"] ;
350 -> 354 ;
355 [label="gini = 0.0\nsamples = 1\nvalue = [0, 0, 0, 0, 1, 0, 0, 0, 0, 0, 0]\nclass = 2014"] ;
354 -> 355 ;
356 [label="gini = 0.0\nsamples = 1\nvalue = [0, 0, 1, 0, 0, 0, 0, 0, 0, 0, 0]\nclass = 2012"] ;
354 -> 356 ;
357 [label="gini = 0.0\nsamples = 2\nvalue = [0, 0, 2, 0, 0, 0, 0, 0, 0, 0, 0]\nclass = 2012"] ;
349 -> 357 ;
358 [label="gini = 0.0\nsamples = 1\nvalue = [0, 0, 0, 0, 1, 0, 0, 0, 0, 0, 0]\nclass = 2014"] ;
348 -> 358 ;
359 [label="cob_vac_bcg <= 79.038\ngini = 0.5\nsamples = 2\nvalue = [0, 0, 0, 1, 0, 0, 0, 0, 1, 0, 0]\nclass = 2013"] ;
345 -> 359 ;
360 [label="gini = 0.0\nsamples = 1\nvalue = [0, 0, 0, 1, 0, 0, 0, 0, 0, 0, 0]\nclass = 2013"] ;
359 -> 360 ;
361 [label="gini = 0.0\nsamples = 1\nvalue = [0, 0, 0, 0, 0, 0, 0, 0, 1, 0, 0]\nclass = 2018"] ;
359 -> 361 ;
362 [label="gini = 0.0\nsamples = 2\nvalue = [0, 0, 0, 2, 0, 0, 0, 0, 0, 0, 0]\nclass = 2013"] ;
84 -> 362 ;
363 [label="cob_vac_bcg <= 81.518\ngini = 0.881\nsamples = 90\nvalue = [4, 9, 10, 4, 4, 4, 10, 9, 6, 20, 10]\nclass = 2019"] ;
83 -> 363 ;
364 [label="idhm <= 0.659\ngini = 0.633\nsamples = 14\nvalue = [1, 1, 1, 0, 1, 0, 0, 0, 0, 8, 2]\nclass = 2019"] ;
363 -> 364 ;
365 [label="exp_vida <= 74.445\ngini = 0.667\nsamples = 3\nvalue = [1, 0, 1, 0, 1, 0, 0, 0, 0, 0, 0]\nclass = 2010"] ;
364 -> 365 ;
366 [label="idhm <= 0.633\ngini = 0.5\nsamples = 2\nvalue = [0, 0, 1, 0, 1, 0, 0, 0, 0, 0, 0]\nclass = 2012"] ;
365 -> 366 ;
367 [label="gini = 0.0\nsamples = 1\nvalue = [0, 0, 1, 0, 0, 0, 0, 0, 0, 0, 0]\nclass = 2012"] ;
366 -> 367 ;
368 [label="gini = 0.0\nsamples = 1\nvalue = [0, 0, 0, 0, 1, 0, 0, 0, 0, 0, 0]\nclass = 2014"] ;
366 -> 368 ;
369 [label="gini = 0.0\nsamples = 1\nvalue = [1, 0, 0, 0, 0, 0, 0, 0, 0, 0, 0]\nclass = 2010"] ;
365 -> 369 ;
370 [label="exp_vida <= 73.625\ngini = 0.43\nsamples = 11\nvalue = [0, 1, 0, 0, 0, 0, 0, 0, 0, 8, 2]\nclass = 2019"] ;
364 -> 370 ;
371 [label="cob_vac_bcg <= 80.679\ngini = 0.5\nsamples = 2\nvalue = [0, 1, 0, 0, 0, 0, 0, 0, 0, 0, 1]\nclass = 2011"] ;
370 -> 371 ;
372 [label="gini = 0.0\nsamples = 1\nvalue = [0, 1, 0, 0, 0, 0, 0, 0, 0, 0, 0]\nclass = 2011"] ;
371 -> 372 ;
373 [label="gini = 0.0\nsamples = 1\nvalue = [0, 0, 0, 0, 0, 0, 0, 0, 0, 0, 1]\nclass = 2020"] ;
371 -> 373 ;
374 [label="idhm <= 0.726\ngini = 0.198\nsamples = 9\nvalue = [0, 0, 0, 0, 0, 0, 0, 0, 0, 8, 1]\nclass = 2019"] ;
370 -> 374 ;
375 [label="gini = 0.0\nsamples = 7\nvalue = [0, 0, 0, 0, 0, 0, 0, 0, 0, 7, 0]\nclass = 2019"] ;
374 -> 375 ;
376 [label="idhm <= 0.77\ngini = 0.5\nsamples = 2\nvalue = [0, 0, 0, 0, 0, 0, 0, 0, 0, 1, 1]\nclass = 2019"] ;
374 -> 376 ;
377 [label="gini = 0.0\nsamples = 1\nvalue = [0, 0, 0, 0, 0, 0, 0, 0, 0, 0, 1]\nclass = 2020"] ;
376 -> 377 ;
378 [label="gini = 0.0\nsamples = 1\nvalue = [0, 0, 0, 0, 0, 0, 0, 0, 0, 1, 0]\nclass = 2019"] ;
376 -> 378 ;
379 [label="cob_vac_bcg <= 83.846\ngini = 0.893\nsamples = 76\nvalue = [3, 8, 9, 4, 3, 4, 10, 9, 6, 12, 8]\nclass = 2019"] ;
363 -> 379 ;
380 [label="cob_vac_bcg <= 82.173\ngini = 0.877\nsamples = 25\nvalue = [3, 5, 0, 1, 2, 2, 2, 4, 1, 2, 3]\nclass = 2011"] ;
379 -> 380 ;
381 [label="exp_vida <= 73.95\ngini = 0.781\nsamples = 8\nvalue = [0, 2, 0, 1, 0, 0, 2, 0, 1, 2, 0]\nclass = 2011"] ;
380 -> 381 ;
382 [label="idhm <= 0.68\ngini = 0.72\nsamples = 5\nvalue = [0, 2, 0, 1, 0, 0, 1, 0, 1, 0, 0]\nclass = 2011"] ;
381 -> 382 ;
383 [label="idhm <= 0.667\ngini = 0.444\nsamples = 3\nvalue = [0, 2, 0, 0, 0, 0, 1, 0, 0, 0, 0]\nclass = 2011"] ;
382 -> 383 ;
384 [label="gini = 0.0\nsamples = 1\nvalue = [0, 0, 0, 0, 0, 0, 1, 0, 0, 0, 0]\nclass = 2016"] ;
383 -> 384 ;
385 [label="gini = 0.0\nsamples = 2\nvalue = [0, 2, 0, 0, 0, 0, 0, 0, 0, 0, 0]\nclass = 2011"] ;
383 -> 385 ;
386 [label="exp_vida <= 73.38\ngini = 0.5\nsamples = 2\nvalue = [0, 0, 0, 1, 0, 0, 0, 0, 1, 0, 0]\nclass = 2013"] ;
382 -> 386 ;
387 [label="gini = 0.0\nsamples = 1\nvalue = [0, 0, 0, 1, 0, 0, 0, 0, 0, 0, 0]\nclass = 2013"] ;
386 -> 387 ;
388 [label="gini = 0.0\nsamples = 1\nvalue = [0, 0, 0, 0, 0, 0, 0, 0, 1, 0, 0]\nclass = 2018"] ;
386 -> 388 ;
389 [label="exp_vida <= 75.84\ngini = 0.444\nsamples = 3\nvalue = [0, 0, 0, 0, 0, 0, 1, 0, 0, 2, 0]\nclass = 2019"] ;
381 -> 389 ;
390 [label="gini = 0.0\nsamples = 2\nvalue = [0, 0, 0, 0, 0, 0, 0, 0, 0, 2, 0]\nclass = 2019"] ;
389 -> 390 ;
391 [label="gini = 0.0\nsamples = 1\nvalue = [0, 0, 0, 0, 0, 0, 1, 0, 0, 0, 0]\nclass = 2016"] ;
389 -> 391 ;
392 [label="idhm <= 0.675\ngini = 0.824\nsamples = 17\nvalue = [3, 3, 0, 0, 2, 2, 0, 4, 0, 0, 3]\nclass = 2017"] ;
380 -> 392 ;
393 [label="exp_vida <= 74.12\ngini = 0.444\nsamples = 3\nvalue = [0, 2, 0, 0, 0, 0, 0, 0, 0, 0, 1]\nclass = 2011"] ;
392 -> 393 ;
394 [label="gini = 0.0\nsamples = 1\nvalue = [0, 0, 0, 0, 0, 0, 0, 0, 0, 0, 1]\nclass = 2020"] ;
393 -> 394 ;
395 [label="gini = 0.0\nsamples = 2\nvalue = [0, 2, 0, 0, 0, 0, 0, 0, 0, 0, 0]\nclass = 2011"] ;
393 -> 395 ;
396 [label="idhm <= 0.68\ngini = 0.806\nsamples = 14\nvalue = [3, 1, 0, 0, 2, 2, 0, 4, 0, 0, 2]\nclass = 2017"] ;
392 -> 396 ;
397 [label="gini = 0.0\nsamples = 2\nvalue = [0, 0, 0, 0, 0, 0, 0, 2, 0, 0, 0]\nclass = 2017"] ;
396 -> 397 ;
398 [label="cob_vac_bcg <= 82.417\ngini = 0.819\nsamples = 12\nvalue = [3, 1, 0, 0, 2, 2, 0, 2, 0, 0, 2]\nclass = 2010"] ;
396 -> 398 ;
399 [label="idhm <= 0.757\ngini = 0.444\nsamples = 3\nvalue = [0, 0, 0, 0, 2, 1, 0, 0, 0, 0, 0]\nclass = 2014"] ;
398 -> 399 ;
400 [label="gini = 0.0\nsamples = 2\nvalue = [0, 0, 0, 0, 2, 0, 0, 0, 0, 0, 0]\nclass = 2014"] ;
399 -> 400 ;
401 [label="gini = 0.0\nsamples = 1\nvalue = [0, 0, 0, 0, 0, 1, 0, 0, 0, 0, 0]\nclass = 2015"] ;
399 -> 401 ;
402 [label="idhm <= 0.722\ngini = 0.765\nsamples = 9\nvalue = [3, 1, 0, 0, 0, 1, 0, 2, 0, 0, 2]\nclass = 2010"] ;
398 -> 402 ;
403 [label="exp_vida <= 73.55\ngini = 0.611\nsamples = 6\nvalue = [3, 0, 0, 0, 0, 1, 0, 0, 0, 0, 2]\nclass = 2010"] ;
402 -> 403 ;
404 [label="idhm <= 0.689\ngini = 0.5\nsamples = 2\nvalue = [0, 0, 0, 0, 0, 1, 0, 0, 0, 0, 1]\nclass = 2015"] ;
403 -> 404 ;
405 [label="gini = 0.0\nsamples = 1\nvalue = [0, 0, 0, 0, 0, 1, 0, 0, 0, 0, 0]\nclass = 2015"] ;
404 -> 405 ;
406 [label="gini = 0.0\nsamples = 1\nvalue = [0, 0, 0, 0, 0, 0, 0, 0, 0, 0, 1]\nclass = 2020"] ;
404 -> 406 ;
407 [label="exp_vida <= 75.795\ngini = 0.375\nsamples = 4\nvalue = [3, 0, 0, 0, 0, 0, 0, 0, 0, 0, 1]\nclass = 2010"] ;
403 -> 407 ;
408 [label="gini = 0.0\nsamples = 3\nvalue = [3, 0, 0, 0, 0, 0, 0, 0, 0, 0, 0]\nclass = 2010"] ;
407 -> 408 ;
409 [label="gini = 0.0\nsamples = 1\nvalue = [0, 0, 0, 0, 0, 0, 0, 0, 0, 0, 1]\nclass = 2020"] ;
407 -> 409 ;
410 [label="exp_vida <= 75.605\ngini = 0.444\nsamples = 3\nvalue = [0, 1, 0, 0, 0, 0, 0, 2, 0, 0, 0]\nclass = 2017"] ;
402 -> 410 ;
411 [label="gini = 0.0\nsamples = 2\nvalue = [0, 0, 0, 0, 0, 0, 0, 2, 0, 0, 0]\nclass = 2017"] ;
410 -> 411 ;
412 [label="gini = 0.0\nsamples = 1\nvalue = [0, 1, 0, 0, 0, 0, 0, 0, 0, 0, 0]\nclass = 2011"] ;
410 -> 412 ;
413 [label="idhm <= 0.731\ngini = 0.868\nsamples = 51\nvalue = [0, 3, 9, 3, 1, 2, 8, 5, 5, 10, 5]\nclass = 2019"] ;
379 -> 413 ;
414 [label="idhm <= 0.667\ngini = 0.872\nsamples = 42\nvalue = [0, 3, 7, 3, 1, 2, 8, 5, 5, 6, 2]\nclass = 2016"] ;
413 -> 414 ;
415 [label="idhm <= 0.655\ngini = 0.792\nsamples = 12\nvalue = [0, 1, 1, 0, 0, 0, 1, 4, 3, 1, 1]\nclass = 2017"] ;
414 -> 415 ;
416 [label="idhm <= 0.653\ngini = 0.5\nsamples = 2\nvalue = [0, 1, 0, 0, 0, 0, 0, 0, 0, 0, 1]\nclass = 2011"] ;
415 -> 416 ;
417 [label="gini = 0.0\nsamples = 1\nvalue = [0, 0, 0, 0, 0, 0, 0, 0, 0, 0, 1]\nclass = 2020"] ;
416 -> 417 ;
418 [label="gini = 0.0\nsamples = 1\nvalue = [0, 1, 0, 0, 0, 0, 0, 0, 0, 0, 0]\nclass = 2011"] ;
416 -> 418 ;
419 [label="cob_vac_bcg <= 86.155\ngini = 0.72\nsamples = 10\nvalue = [0, 0, 1, 0, 0, 0, 1, 4, 3, 1, 0]\nclass = 2017"] ;
415 -> 419 ;
420 [label="cob_vac_bcg <= 85.367\ngini = 0.72\nsamples = 5\nvalue = [0, 0, 1, 0, 0, 0, 1, 2, 0, 1, 0]\nclass = 2017"] ;
419 -> 420 ;
421 [label="cob_vac_bcg <= 84.958\ngini = 0.444\nsamples = 3\nvalue = [0, 0, 0, 0, 0, 0, 0, 2, 0, 1, 0]\nclass = 2017"] ;
420 -> 421 ;
422 [label="gini = 0.0\nsamples = 1\nvalue = [0, 0, 0, 0, 0, 0, 0, 0, 0, 1, 0]\nclass = 2019"] ;
421 -> 422 ;
423 [label="gini = 0.0\nsamples = 2\nvalue = [0, 0, 0, 0, 0, 0, 0, 2, 0, 0, 0]\nclass = 2017"] ;
421 -> 423 ;
424 [label="exp_vida <= 73.75\ngini = 0.5\nsamples = 2\nvalue = [0, 0, 1, 0, 0, 0, 1, 0, 0, 0, 0]\nclass = 2012"] ;
420 -> 424 ;
425 [label="gini = 0.0\nsamples = 1\nvalue = [0, 0, 0, 0, 0, 0, 1, 0, 0, 0, 0]\nclass = 2016"] ;
424 -> 425 ;
426 [label="gini = 0.0\nsamples = 1\nvalue = [0, 0, 1, 0, 0, 0, 0, 0, 0, 0, 0]\nclass = 2012"] ;
424 -> 426 ;
427 [label="cob_vac_bcg <= 87.644\ngini = 0.48\nsamples = 5\nvalue = [0, 0, 0, 0, 0, 0, 0, 2, 3, 0, 0]\nclass = 2018"] ;
419 -> 427 ;
428 [label="gini = 0.0\nsamples = 3\nvalue = [0, 0, 0, 0, 0, 0, 0, 0, 3, 0, 0]\nclass = 2018"] ;
427 -> 428 ;
429 [label="gini = 0.0\nsamples = 2\nvalue = [0, 0, 0, 0, 0, 0, 0, 2, 0, 0, 0]\nclass = 2017"] ;
427 -> 429 ;
430 [label="cob_vac_bcg <= 85.896\ngini = 0.851\nsamples = 30\nvalue = [0, 2, 6, 3, 1, 2, 7, 1, 2, 5, 1]\nclass = 2016"] ;
414 -> 430 ;
431 [label="exp_vida <= 74.935\ngini = 0.75\nsamples = 12\nvalue = [0, 0, 4, 3, 0, 1, 3, 0, 1, 0, 0]\nclass = 2012"] ;
430 -> 431 ;
432 [label="idhm <= 0.672\ngini = 0.56\nsamples = 5\nvalue = [0, 0, 0, 1, 0, 1, 3, 0, 0, 0, 0]\nclass = 2016"] ;
431 -> 432 ;
433 [label="gini = 0.0\nsamples = 1\nvalue = [0, 0, 0, 0, 0, 1, 0, 0, 0, 0, 0]\nclass = 2015"] ;
432 -> 433 ;
434 [label="idhm <= 0.683\ngini = 0.375\nsamples = 4\nvalue = [0, 0, 0, 1, 0, 0, 3, 0, 0, 0, 0]\nclass = 2016"] ;
432 -> 434 ;
435 [label="gini = 0.0\nsamples = 3\nvalue = [0, 0, 0, 0, 0, 0, 3, 0, 0, 0, 0]\nclass = 2016"] ;
434 -> 435 ;
436 [label="gini = 0.0\nsamples = 1\nvalue = [0, 0, 0, 1, 0, 0, 0, 0, 0, 0, 0]\nclass = 2013"] ;
434 -> 436 ;
437 [label="cob_vac_bcg <= 84.46\ngini = 0.571\nsamples = 7\nvalue = [0, 0, 4, 2, 0, 0, 0, 0, 1, 0, 0]\nclass = 2012"] ;
431 -> 437 ;
438 [label="gini = 0.0\nsamples = 1\nvalue = [0, 0, 0, 0, 0, 0, 0, 0, 1, 0, 0]\nclass = 2018"] ;
437 -> 438 ;
439 [label="idhm <= 0.72\ngini = 0.444\nsamples = 6\nvalue = [0, 0, 4, 2, 0, 0, 0, 0, 0, 0, 0]\nclass = 2012"] ;
437 -> 439 ;
440 [label="gini = 0.0\nsamples = 3\nvalue = [0, 0, 3, 0, 0, 0, 0, 0, 0, 0, 0]\nclass = 2012"] ;
439 -> 440 ;
441 [label="cob_vac_bcg <= 85.187\ngini = 0.444\nsamples = 3\nvalue = [0, 0, 1, 2, 0, 0, 0, 0, 0, 0, 0]\nclass = 2013"] ;
439 -> 441 ;
442 [label="gini = 0.0\nsamples = 1\nvalue = [0, 0, 1, 0, 0, 0, 0, 0, 0, 0, 0]\nclass = 2012"] ;
441 -> 442 ;
443 [label="gini = 0.0\nsamples = 2\nvalue = [0, 0, 0, 2, 0, 0, 0, 0, 0, 0, 0]\nclass = 2013"] ;
441 -> 443 ;
444 [label="cob_vac_bcg <= 88.489\ngini = 0.833\nsamples = 18\nvalue = [0, 2, 2, 0, 1, 1, 4, 1, 1, 5, 1]\nclass = 2019"] ;
430 -> 444 ;
445 [label="cob_vac_bcg <= 86.419\ngini = 0.816\nsamples = 14\nvalue = [0, 2, 1, 0, 1, 1, 1, 1, 1, 5, 1]\nclass = 2019"] ;
444 -> 445 ;
446 [label="exp_vida <= 74.155\ngini = 0.667\nsamples = 3\nvalue = [0, 0, 0, 0, 1, 0, 0, 1, 0, 0, 1]\nclass = 2014"] ;
445 -> 446 ;
447 [label="gini = 0.0\nsamples = 1\nvalue = [0, 0, 0, 0, 1, 0, 0, 0, 0, 0, 0]\nclass = 2014"] ;
446 -> 447 ;
448 [label="idhm <= 0.688\ngini = 0.5\nsamples = 2\nvalue = [0, 0, 0, 0, 0, 0, 0, 1, 0, 0, 1]\nclass = 2017"] ;
446 -> 448 ;
449 [label="gini = 0.0\nsamples = 1\nvalue = [0, 0, 0, 0, 0, 0, 0, 1, 0, 0, 0]\nclass = 2017"] ;
448 -> 449 ;
450 [label="gini = 0.0\nsamples = 1\nvalue = [0, 0, 0, 0, 0, 0, 0, 0, 0, 0, 1]\nclass = 2020"] ;
448 -> 450 ;
451 [label="cob_vac_bcg <= 86.587\ngini = 0.727\nsamples = 11\nvalue = [0, 2, 1, 0, 0, 1, 1, 0, 1, 5, 0]\nclass = 2019"] ;
445 -> 451 ;
452 [label="gini = 0.0\nsamples = 3\nvalue = [0, 0, 0, 0, 0, 0, 0, 0, 0, 3, 0]\nclass = 2019"] ;
451 -> 452 ;
453 [label="cob_vac_bcg <= 87.163\ngini = 0.812\nsamples = 8\nvalue = [0, 2, 1, 0, 0, 1, 1, 0, 1, 2, 0]\nclass = 2011"] ;
451 -> 453 ;
454 [label="idhm <= 0.681\ngini = 0.444\nsamples = 3\nvalue = [0, 2, 0, 0, 0, 1, 0, 0, 0, 0, 0]\nclass = 2011"] ;
453 -> 454 ;
455 [label="gini = 0.0\nsamples = 1\nvalue = [0, 0, 0, 0, 0, 1, 0, 0, 0, 0, 0]\nclass = 2015"] ;
454 -> 455 ;
456 [label="gini = 0.0\nsamples = 2\nvalue = [0, 2, 0, 0, 0, 0, 0, 0, 0, 0, 0]\nclass = 2011"] ;
454 -> 456 ;
457 [label="idhm <= 0.69\ngini = 0.72\nsamples = 5\nvalue = [0, 0, 1, 0, 0, 0, 1, 0, 1, 2, 0]\nclass = 2019"] ;
453 -> 457 ;
458 [label="gini = 0.0\nsamples = 2\nvalue = [0, 0, 0, 0, 0, 0, 0, 0, 0, 2, 0]\nclass = 2019"] ;
457 -> 458 ;
459 [label="idhm <= 0.701\ngini = 0.667\nsamples = 3\nvalue = [0, 0, 1, 0, 0, 0, 1, 0, 1, 0, 0]\nclass = 2012"] ;
457 -> 459 ;
460 [label="gini = 0.0\nsamples = 1\nvalue = [0, 0, 1, 0, 0, 0, 0, 0, 0, 0, 0]\nclass = 2012"] ;
459 -> 460 ;
461 [label="cob_vac_bcg <= 87.754\ngini = 0.5\nsamples = 2\nvalue = [0, 0, 0, 0, 0, 0, 1, 0, 1, 0, 0]\nclass = 2016"] ;
459 -> 461 ;
462 [label="gini = 0.0\nsamples = 1\nvalue = [0, 0, 0, 0, 0, 0, 1, 0, 0, 0, 0]\nclass = 2016"] ;
461 -> 462 ;
463 [label="gini = 0.0\nsamples = 1\nvalue = [0, 0, 0, 0, 0, 0, 0, 0, 1, 0, 0]\nclass = 2018"] ;
461 -> 463 ;
464 [label="exp_vida <= 73.93\ngini = 0.375\nsamples = 4\nvalue = [0, 0, 1, 0, 0, 0, 3, 0, 0, 0, 0]\nclass = 2016"] ;
444 -> 464 ;
465 [label="gini = 0.0\nsamples = 1\nvalue = [0, 0, 1, 0, 0, 0, 0, 0, 0, 0, 0]\nclass = 2012"] ;
464 -> 465 ;
466 [label="gini = 0.0\nsamples = 3\nvalue = [0, 0, 0, 0, 0, 0, 3, 0, 0, 0, 0]\nclass = 2016"] ;
464 -> 466 ;
467 [label="exp_vida <= 75.405\ngini = 0.642\nsamples = 9\nvalue = [0, 0, 2, 0, 0, 0, 0, 0, 0, 4, 3]\nclass = 2019"] ;
413 -> 467 ;
468 [label="cob_vac_bcg <= 84.835\ngini = 0.56\nsamples = 5\nvalue = [0, 0, 1, 0, 0, 0, 0, 0, 0, 1, 3]\nclass = 2020"] ;
467 -> 468 ;
469 [label="gini = 0.0\nsamples = 1\nvalue = [0, 0, 0, 0, 0, 0, 0, 0, 0, 1, 0]\nclass = 2019"] ;
468 -> 469 ;
470 [label="cob_vac_bcg <= 87.675\ngini = 0.375\nsamples = 4\nvalue = [0, 0, 1, 0, 0, 0, 0, 0, 0, 0, 3]\nclass = 2020"] ;
468 -> 470 ;
471 [label="exp_vida <= 75.205\ngini = 0.5\nsamples = 2\nvalue = [0, 0, 1, 0, 0, 0, 0, 0, 0, 0, 1]\nclass = 2012"] ;
470 -> 471 ;
472 [label="gini = 0.0\nsamples = 1\nvalue = [0, 0, 0, 0, 0, 0, 0, 0, 0, 0, 1]\nclass = 2020"] ;
471 -> 472 ;
473 [label="gini = 0.0\nsamples = 1\nvalue = [0, 0, 1, 0, 0, 0, 0, 0, 0, 0, 0]\nclass = 2012"] ;
471 -> 473 ;
474 [label="gini = 0.0\nsamples = 2\nvalue = [0, 0, 0, 0, 0, 0, 0, 0, 0, 0, 2]\nclass = 2020"] ;
470 -> 474 ;
475 [label="exp_vida <= 76.63\ngini = 0.375\nsamples = 4\nvalue = [0, 0, 1, 0, 0, 0, 0, 0, 0, 3, 0]\nclass = 2019"] ;
467 -> 475 ;
476 [label="gini = 0.0\nsamples = 3\nvalue = [0, 0, 0, 0, 0, 0, 0, 0, 0, 3, 0]\nclass = 2019"] ;
475 -> 476 ;
477 [label="gini = 0.0\nsamples = 1\nvalue = [0, 0, 1, 0, 0, 0, 0, 0, 0, 0, 0]\nclass = 2012"] ;
475 -> 477 ;
478 [label="cob_vac_bcg <= 90.446\ngini = 0.907\nsamples = 375\nvalue = [38, 41, 38, 32, 40, 37, 28, 35, 35, 30, 21]\nclass = 2011"] ;
82 -> 478 ;
479 [label="cob_vac_bcg <= 90.19\ngini = 0.444\nsamples = 3\nvalue = [0, 2, 0, 0, 1, 0, 0, 0, 0, 0, 0]\nclass = 2011"] ;
478 -> 479 ;
480 [label="gini = 0.0\nsamples = 1\nvalue = [0, 0, 0, 0, 1, 0, 0, 0, 0, 0, 0]\nclass = 2014"] ;
479 -> 480 ;
481 [label="gini = 0.0\nsamples = 2\nvalue = [0, 2, 0, 0, 0, 0, 0, 0, 0, 0, 0]\nclass = 2011"] ;
479 -> 481 ;
482 [label="cob_vac_bcg <= 90.781\ngini = 0.907\nsamples = 372\nvalue = [38, 39, 38, 32, 39, 37, 28, 35, 35, 30, 21]\nclass = 2011"] ;
478 -> 482 ;
483 [label="cob_vac_bcg <= 90.616\ngini = 0.625\nsamples = 4\nvalue = [0, 0, 2, 0, 0, 0, 0, 1, 0, 0, 1]\nclass = 2012"] ;
482 -> 483 ;
484 [label="cob_vac_bcg <= 90.483\ngini = 0.5\nsamples = 2\nvalue = [0, 0, 0, 0, 0, 0, 0, 1, 0, 0, 1]\nclass = 2017"] ;
483 -> 484 ;
485 [label="gini = 0.0\nsamples = 1\nvalue = [0, 0, 0, 0, 0, 0, 0, 0, 0, 0, 1]\nclass = 2020"] ;
484 -> 485 ;
486 [label="gini = 0.0\nsamples = 1\nvalue = [0, 0, 0, 0, 0, 0, 0, 1, 0, 0, 0]\nclass = 2017"] ;
484 -> 486 ;
487 [label="gini = 0.0\nsamples = 2\nvalue = [0, 0, 2, 0, 0, 0, 0, 0, 0, 0, 0]\nclass = 2012"] ;
483 -> 487 ;
488 [label="cob_vac_bcg <= 91.281\ngini = 0.907\nsamples = 368\nvalue = [38, 39, 36, 32, 39, 37, 28, 34, 35, 30, 20]\nclass = 2011"] ;
482 -> 488 ;
489 [label="idhm <= 0.695\ngini = 0.667\nsamples = 6\nvalue = [3, 1, 0, 0, 0, 0, 0, 0, 1, 0, 1]\nclass = 2010"] ;
488 -> 489 ;
490 [label="exp_vida <= 73.3\ngini = 0.667\nsamples = 3\nvalue = [0, 1, 0, 0, 0, 0, 0, 0, 1, 0, 1]\nclass = 2011"] ;
489 -> 490 ;
491 [label="gini = 0.0\nsamples = 1\nvalue = [0, 0, 0, 0, 0, 0, 0, 0, 1, 0, 0]\nclass = 2018"] ;
490 -> 491 ;
492 [label="exp_vida <= 73.815\ngini = 0.5\nsamples = 2\nvalue = [0, 1, 0, 0, 0, 0, 0, 0, 0, 0, 1]\nclass = 2011"] ;
490 -> 492 ;
493 [label="gini = 0.0\nsamples = 1\nvalue = [0, 0, 0, 0, 0, 0, 0, 0, 0, 0, 1]\nclass = 2020"] ;
492 -> 493 ;
494 [label="gini = 0.0\nsamples = 1\nvalue = [0, 1, 0, 0, 0, 0, 0, 0, 0, 0, 0]\nclass = 2011"] ;
492 -> 494 ;
495 [label="gini = 0.0\nsamples = 3\nvalue = [3, 0, 0, 0, 0, 0, 0, 0, 0, 0, 0]\nclass = 2010"] ;
489 -> 495 ;
496 [label="cob_vac_bcg <= 93.405\ngini = 0.907\nsamples = 362\nvalue = [35, 38, 36, 32, 39, 37, 28, 34, 34, 30, 19]\nclass = 2014"] ;
488 -> 496 ;
497 [label="exp_vida <= 73.925\ngini = 0.861\nsamples = 29\nvalue = [0, 5, 5, 1, 5, 1, 4, 4, 2, 2, 0]\nclass = 2011"] ;
496 -> 497 ;
498 [label="cob_vac_bcg <= 91.829\ngini = 0.805\nsamples = 13\nvalue = [0, 2, 0, 1, 4, 0, 1, 3, 1, 1, 0]\nclass = 2014"] ;
497 -> 498 ;
499 [label="exp_vida <= 73.355\ngini = 0.56\nsamples = 5\nvalue = [0, 1, 0, 0, 3, 0, 0, 0, 1, 0, 0]\nclass = 2014"] ;
498 -> 499 ;
500 [label="gini = 0.0\nsamples = 1\nvalue = [0, 0, 0, 0, 0, 0, 0, 0, 1, 0, 0]\nclass = 2018"] ;
499 -> 500 ;
501 [label="idhm <= 0.669\ngini = 0.375\nsamples = 4\nvalue = [0, 1, 0, 0, 3, 0, 0, 0, 0, 0, 0]\nclass = 2014"] ;
499 -> 501 ;
502 [label="gini = 0.0\nsamples = 2\nvalue = [0, 0, 0, 0, 2, 0, 0, 0, 0, 0, 0]\nclass = 2014"] ;
501 -> 502 ;
503 [label="cob_vac_bcg <= 91.744\ngini = 0.5\nsamples = 2\nvalue = [0, 1, 0, 0, 1, 0, 0, 0, 0, 0, 0]\nclass = 2011"] ;
501 -> 503 ;
504 [label="gini = 0.0\nsamples = 1\nvalue = [0, 1, 0, 0, 0, 0, 0, 0, 0, 0, 0]\nclass = 2011"] ;
503 -> 504 ;
505 [label="gini = 0.0\nsamples = 1\nvalue = [0, 0, 0, 0, 1, 0, 0, 0, 0, 0, 0]\nclass = 2014"] ;
503 -> 505 ;
506 [label="exp_vida <= 73.76\ngini = 0.781\nsamples = 8\nvalue = [0, 1, 0, 1, 1, 0, 1, 3, 0, 1, 0]\nclass = 2017"] ;
498 -> 506 ;
507 [label="cob_vac_bcg <= 93.29\ngini = 0.735\nsamples = 7\nvalue = [0, 1, 0, 1, 1, 0, 1, 3, 0, 0, 0]\nclass = 2017"] ;
506 -> 507 ;
508 [label="cob_vac_bcg <= 93.126\ngini = 0.667\nsamples = 6\nvalue = [0, 0, 0, 1, 1, 0, 1, 3, 0, 0, 0]\nclass = 2017"] ;
507 -> 508 ;
509 [label="cob_vac_bcg <= 92.474\ngini = 0.75\nsamples = 4\nvalue = [0, 0, 0, 1, 1, 0, 1, 1, 0, 0, 0]\nclass = 2013"] ;
508 -> 509 ;
510 [label="gini = 0.0\nsamples = 1\nvalue = [0, 0, 0, 0, 0, 0, 0, 1, 0, 0, 0]\nclass = 2017"] ;
509 -> 510 ;
511 [label="exp_vida <= 73.305\ngini = 0.667\nsamples = 3\nvalue = [0, 0, 0, 1, 1, 0, 1, 0, 0, 0, 0]\nclass = 2013"] ;
509 -> 511 ;
512 [label="gini = 0.0\nsamples = 1\nvalue = [0, 0, 0, 0, 1, 0, 0, 0, 0, 0, 0]\nclass = 2014"] ;
511 -> 512 ;
513 [label="cob_vac_bcg <= 92.836\ngini = 0.5\nsamples = 2\nvalue = [0, 0, 0, 1, 0, 0, 1, 0, 0, 0, 0]\nclass = 2013"] ;
511 -> 513 ;
514 [label="gini = 0.0\nsamples = 1\nvalue = [0, 0, 0, 1, 0, 0, 0, 0, 0, 0, 0]\nclass = 2013"] ;
513 -> 514 ;
515 [label="gini = 0.0\nsamples = 1\nvalue = [0, 0, 0, 0, 0, 0, 1, 0, 0, 0, 0]\nclass = 2016"] ;
513 -> 515 ;
516 [label="gini = 0.0\nsamples = 2\nvalue = [0, 0, 0, 0, 0, 0, 0, 2, 0, 0, 0]\nclass = 2017"] ;
508 -> 516 ;
517 [label="gini = 0.0\nsamples = 1\nvalue = [0, 1, 0, 0, 0, 0, 0, 0, 0, 0, 0]\nclass = 2011"] ;
507 -> 517 ;
518 [label="gini = 0.0\nsamples = 1\nvalue = [0, 0, 0, 0, 0, 0, 0, 0, 0, 1, 0]\nclass = 2019"] ;
506 -> 518 ;
519 [label="cob_vac_bcg <= 92.531\ngini = 0.812\nsamples = 16\nvalue = [0, 3, 5, 0, 1, 1, 3, 1, 1, 1, 0]\nclass = 2012"] ;
497 -> 519 ;
520 [label="exp_vida <= 74.095\ngini = 0.571\nsamples = 7\nvalue = [0, 1, 4, 0, 0, 0, 2, 0, 0, 0, 0]\nclass = 2012"] ;
519 -> 520 ;
521 [label="gini = 0.0\nsamples = 1\nvalue = [0, 0, 0, 0, 0, 0, 1, 0, 0, 0, 0]\nclass = 2016"] ;
520 -> 521 ;
522 [label="cob_vac_bcg <= 91.989\ngini = 0.5\nsamples = 6\nvalue = [0, 1, 4, 0, 0, 0, 1, 0, 0, 0, 0]\nclass = 2012"] ;
520 -> 522 ;
523 [label="exp_vida <= 75.445\ngini = 0.5\nsamples = 2\nvalue = [0, 1, 1, 0, 0, 0, 0, 0, 0, 0, 0]\nclass = 2011"] ;
522 -> 523 ;
524 [label="gini = 0.0\nsamples = 1\nvalue = [0, 0, 1, 0, 0, 0, 0, 0, 0, 0, 0]\nclass = 2012"] ;
523 -> 524 ;
525 [label="gini = 0.0\nsamples = 1\nvalue = [0, 1, 0, 0, 0, 0, 0, 0, 0, 0, 0]\nclass = 2011"] ;
523 -> 525 ;
526 [label="cob_vac_bcg <= 92.345\ngini = 0.375\nsamples = 4\nvalue = [0, 0, 3, 0, 0, 0, 1, 0, 0, 0, 0]\nclass = 2012"] ;
522 -> 526 ;
527 [label="exp_vida <= 74.69\ngini = 0.5\nsamples = 2\nvalue = [0, 0, 1, 0, 0, 0, 1, 0, 0, 0, 0]\nclass = 2012"] ;
526 -> 527 ;
528 [label="gini = 0.0\nsamples = 1\nvalue = [0, 0, 1, 0, 0, 0, 0, 0, 0, 0, 0]\nclass = 2012"] ;
527 -> 528 ;
529 [label="gini = 0.0\nsamples = 1\nvalue = [0, 0, 0, 0, 0, 0, 1, 0, 0, 0, 0]\nclass = 2016"] ;
527 -> 529 ;
530 [label="gini = 0.0\nsamples = 2\nvalue = [0, 0, 2, 0, 0, 0, 0, 0, 0, 0, 0]\nclass = 2012"] ;
526 -> 530 ;
531 [label="idhm <= 0.67\ngini = 0.864\nsamples = 9\nvalue = [0, 2, 1, 0, 1, 1, 1, 1, 1, 1, 0]\nclass = 2011"] ;
519 -> 531 ;
532 [label="exp_vida <= 74.61\ngini = 0.5\nsamples = 2\nvalue = [0, 0, 0, 0, 1, 0, 0, 0, 1, 0, 0]\nclass = 2014"] ;
531 -> 532 ;
533 [label="gini = 0.0\nsamples = 1\nvalue = [0, 0, 0, 0, 1, 0, 0, 0, 0, 0, 0]\nclass = 2014"] ;
532 -> 533 ;
534 [label="gini = 0.0\nsamples = 1\nvalue = [0, 0, 0, 0, 0, 0, 0, 0, 1, 0, 0]\nclass = 2018"] ;
532 -> 534 ;
535 [label="cob_vac_bcg <= 92.626\ngini = 0.816\nsamples = 7\nvalue = [0, 2, 1, 0, 0, 1, 1, 1, 0, 1, 0]\nclass = 2011"] ;
531 -> 535 ;
536 [label="gini = 0.0\nsamples = 1\nvalue = [0, 0, 0, 0, 0, 0, 0, 0, 0, 1, 0]\nclass = 2019"] ;
535 -> 536 ;
537 [label="cob_vac_bcg <= 93.402\ngini = 0.778\nsamples = 6\nvalue = [0, 2, 1, 0, 0, 1, 1, 1, 0, 0, 0]\nclass = 2011"] ;
535 -> 537 ;
538 [label="exp_vida <= 74.92\ngini = 0.72\nsamples = 5\nvalue = [0, 2, 1, 0, 0, 1, 0, 1, 0, 0, 0]\nclass = 2011"] ;
537 -> 538 ;
539 [label="gini = 0.0\nsamples = 1\nvalue = [0, 1, 0, 0, 0, 0, 0, 0, 0, 0, 0]\nclass = 2011"] ;
538 -> 539 ;
540 [label="cob_vac_bcg <= 92.799\ngini = 0.75\nsamples = 4\nvalue = [0, 1, 1, 0, 0, 1, 0, 1, 0, 0, 0]\nclass = 2011"] ;
538 -> 540 ;
541 [label="gini = 0.0\nsamples = 1\nvalue = [0, 1, 0, 0, 0, 0, 0, 0, 0, 0, 0]\nclass = 2011"] ;
540 -> 541 ;
542 [label="cob_vac_bcg <= 92.958\ngini = 0.667\nsamples = 3\nvalue = [0, 0, 1, 0, 0, 1, 0, 1, 0, 0, 0]\nclass = 2012"] ;
540 -> 542 ;
543 [label="gini = 0.0\nsamples = 1\nvalue = [0, 0, 0, 0, 0, 0, 0, 1, 0, 0, 0]\nclass = 2017"] ;
542 -> 543 ;
544 [label="exp_vida <= 75.885\ngini = 0.5\nsamples = 2\nvalue = [0, 0, 1, 0, 0, 1, 0, 0, 0, 0, 0]\nclass = 2012"] ;
542 -> 544 ;
545 [label="gini = 0.0\nsamples = 1\nvalue = [0, 0, 1, 0, 0, 0, 0, 0, 0, 0, 0]\nclass = 2012"] ;
544 -> 545 ;
546 [label="gini = 0.0\nsamples = 1\nvalue = [0, 0, 0, 0, 0, 1, 0, 0, 0, 0, 0]\nclass = 2015"] ;
544 -> 546 ;
547 [label="gini = 0.0\nsamples = 1\nvalue = [0, 0, 0, 0, 0, 0, 1, 0, 0, 0, 0]\nclass = 2016"] ;
537 -> 547 ;
548 [label="cob_vac_bcg <= 94.625\ngini = 0.907\nsamples = 333\nvalue = [35, 33, 31, 31, 34, 36, 24, 30, 32, 28, 19]\nclass = 2015"] ;
496 -> 548 ;
549 [label="cob_vac_bcg <= 94.165\ngini = 0.741\nsamples = 9\nvalue = [3, 1, 0, 0, 1, 1, 0, 0, 3, 0, 0]\nclass = 2010"] ;
548 -> 549 ;
550 [label="exp_vida <= 75.495\ngini = 0.735\nsamples = 7\nvalue = [3, 1, 0, 0, 1, 1, 0, 0, 1, 0, 0]\nclass = 2010"] ;
549 -> 550 ;
551 [label="cob_vac_bcg <= 93.49\ngini = 0.56\nsamples = 5\nvalue = [3, 0, 0, 0, 0, 1, 0, 0, 1, 0, 0]\nclass = 2010"] ;
550 -> 551 ;
552 [label="exp_vida <= 73.915\ngini = 0.5\nsamples = 2\nvalue = [0, 0, 0, 0, 0, 1, 0, 0, 1, 0, 0]\nclass = 2015"] ;
551 -> 552 ;
553 [label="gini = 0.0\nsamples = 1\nvalue = [0, 0, 0, 0, 0, 1, 0, 0, 0, 0, 0]\nclass = 2015"] ;
552 -> 553 ;
554 [label="gini = 0.0\nsamples = 1\nvalue = [0, 0, 0, 0, 0, 0, 0, 0, 1, 0, 0]\nclass = 2018"] ;
552 -> 554 ;
555 [label="gini = 0.0\nsamples = 3\nvalue = [3, 0, 0, 0, 0, 0, 0, 0, 0, 0, 0]\nclass = 2010"] ;
551 -> 555 ;
556 [label="exp_vida <= 76.24\ngini = 0.5\nsamples = 2\nvalue = [0, 1, 0, 0, 1, 0, 0, 0, 0, 0, 0]\nclass = 2011"] ;
550 -> 556 ;
557 [label="gini = 0.0\nsamples = 1\nvalue = [0, 1, 0, 0, 0, 0, 0, 0, 0, 0, 0]\nclass = 2011"] ;
556 -> 557 ;
558 [label="gini = 0.0\nsamples = 1\nvalue = [0, 0, 0, 0, 1, 0, 0, 0, 0, 0, 0]\nclass = 2014"] ;
556 -> 558 ;
559 [label="gini = 0.0\nsamples = 2\nvalue = [0, 0, 0, 0, 0, 0, 0, 0, 2, 0, 0]\nclass = 2018"] ;
549 -> 559 ;
560 [label="idhm <= 0.66\ngini = 0.907\nsamples = 324\nvalue = [32, 32, 31, 31, 33, 35, 24, 30, 29, 28, 19]\nclass = 2015"] ;
548 -> 560 ;
561 [label="exp_vida <= 73.66\ngini = 0.895\nsamples = 61\nvalue = [3, 3, 5, 5, 4, 9, 5, 5, 7, 10, 5]\nclass = 2019"] ;
560 -> 561 ;
562 [label="cob_vac_bcg <= 96.304\ngini = 0.847\nsamples = 22\nvalue = [1, 1, 3, 1, 1, 6, 2, 2, 0, 4, 1]\nclass = 2015"] ;
561 -> 562 ;
563 [label="gini = 0.0\nsamples = 1\nvalue = [1, 0, 0, 0, 0, 0, 0, 0, 0, 0, 0]\nclass = 2010"] ;
562 -> 563 ;
564 [label="cob_vac_bcg <= 96.937\ngini = 0.834\nsamples = 21\nvalue = [0, 1, 3, 1, 1, 6, 2, 2, 0, 4, 1]\nclass = 2015"] ;
562 -> 564 ;
565 [label="gini = 0.0\nsamples = 1\nvalue = [0, 0, 0, 0, 0, 0, 0, 0, 0, 1, 0]\nclass = 2019"] ;
564 -> 565 ;
566 [label="cob_vac_bcg <= 97.283\ngini = 0.835\nsamples = 20\nvalue = [0, 1, 3, 1, 1, 6, 2, 2, 0, 3, 1]\nclass = 2015"] ;
564 -> 566 ;
567 [label="gini = 0.0\nsamples = 1\nvalue = [0, 0, 0, 0, 0, 1, 0, 0, 0, 0, 0]\nclass = 2015"] ;
566 -> 567 ;
568 [label="exp_vida <= 72.845\ngini = 0.848\nsamples = 19\nvalue = [0, 1, 3, 1, 1, 5, 2, 2, 0, 3, 1]\nclass = 2015"] ;
566 -> 568 ;
569 [label="gini = 0.0\nsamples = 1\nvalue = [0, 0, 1, 0, 0, 0, 0, 0, 0, 0, 0]\nclass = 2012"] ;
568 -> 569 ;
570 [label="cob_vac_bcg <= 98.711\ngini = 0.846\nsamples = 18\nvalue = [0, 1, 2, 1, 1, 5, 2, 2, 0, 3, 1]\nclass = 2015"] ;
568 -> 570 ;
571 [label="gini = 0.0\nsamples = 1\nvalue = [0, 0, 1, 0, 0, 0, 0, 0, 0, 0, 0]\nclass = 2012"] ;
570 -> 571 ;
572 [label="idhm <= 0.655\ngini = 0.837\nsamples = 17\nvalue = [0, 1, 1, 1, 1, 5, 2, 2, 0, 3, 1]\nclass = 2015"] ;
570 -> 572 ;
573 [label="exp_vida <= 73.2\ngini = 0.86\nsamples = 10\nvalue = [0, 1, 1, 1, 1, 2, 1, 2, 0, 1, 0]\nclass = 2015"] ;
572 -> 573 ;
574 [label="gini = 0.667\nsamples = 3\nvalue = [0, 0, 0, 0, 0, 1, 0, 1, 0, 1, 0]\nclass = 2015"] ;
573 -> 574 ;
575 [label="gini = 0.857\nsamples = 7\nvalue = [0, 1, 1, 1, 1, 1, 1, 1, 0, 0, 0]\nclass = 2011"] ;
573 -> 575 ;
576 [label="exp_vida <= 73.545\ngini = 0.694\nsamples = 7\nvalue = [0, 0, 0, 0, 0, 3, 1, 0, 0, 2, 1]\nclass = 2015"] ;
572 -> 576 ;
577 [label="gini = 0.75\nsamples = 4\nvalue = [0, 0, 0, 0, 0, 1, 1, 0, 0, 1, 1]\nclass = 2015"] ;
576 -> 577 ;
578 [label="exp_vida <= 73.6\ngini = 0.444\nsamples = 3\nvalue = [0, 0, 0, 0, 0, 2, 0, 0, 0, 1, 0]\nclass = 2015"] ;
576 -> 578 ;
579 [label="gini = 0.5\nsamples = 2\nvalue = [0, 0, 0, 0, 0, 1, 0, 0, 0, 1, 0]\nclass = 2015"] ;
578 -> 579 ;
580 [label="gini = 0.0\nsamples = 1\nvalue = [0, 0, 0, 0, 0, 1, 0, 0, 0, 0, 0]\nclass = 2015"] ;
578 -> 580 ;
581 [label="cob_vac_bcg <= 99.338\ngini = 0.892\nsamples = 39\nvalue = [2, 2, 2, 4, 3, 3, 3, 3, 7, 6, 4]\nclass = 2018"] ;
561 -> 581 ;
582 [label="idhm <= 0.646\ngini = 0.776\nsamples = 7\nvalue = [0, 1, 0, 0, 1, 0, 1, 2, 0, 2, 0]\nclass = 2017"] ;
581 -> 582 ;
583 [label="idhm <= 0.627\ngini = 0.5\nsamples = 4\nvalue = [0, 0, 0, 0, 0, 0, 0, 2, 0, 2, 0]\nclass = 2017"] ;
582 -> 583 ;
584 [label="gini = 0.0\nsamples = 1\nvalue = [0, 0, 0, 0, 0, 0, 0, 1, 0, 0, 0]\nclass = 2017"] ;
583 -> 584 ;
585 [label="cob_vac_bcg <= 96.546\ngini = 0.444\nsamples = 3\nvalue = [0, 0, 0, 0, 0, 0, 0, 1, 0, 2, 0]\nclass = 2019"] ;
583 -> 585 ;
586 [label="gini = 0.0\nsamples = 1\nvalue = [0, 0, 0, 0, 0, 0, 0, 1, 0, 0, 0]\nclass = 2017"] ;
585 -> 586 ;
587 [label="gini = 0.0\nsamples = 2\nvalue = [0, 0, 0, 0, 0, 0, 0, 0, 0, 2, 0]\nclass = 2019"] ;
585 -> 587 ;
588 [label="idhm <= 0.65\ngini = 0.667\nsamples = 3\nvalue = [0, 1, 0, 0, 1, 0, 1, 0, 0, 0, 0]\nclass = 2011"] ;
582 -> 588 ;
589 [label="gini = 0.0\nsamples = 1\nvalue = [0, 0, 0, 0, 0, 0, 1, 0, 0, 0, 0]\nclass = 2016"] ;
588 -> 589 ;
590 [label="cob_vac_bcg <= 97.059\ngini = 0.5\nsamples = 2\nvalue = [0, 1, 0, 0, 1, 0, 0, 0, 0, 0, 0]\nclass = 2011"] ;
588 -> 590 ;
591 [label="gini = 0.0\nsamples = 1\nvalue = [0, 0, 0, 0, 1, 0, 0, 0, 0, 0, 0]\nclass = 2014"] ;
590 -> 591 ;
592 [label="gini = 0.0\nsamples = 1\nvalue = [0, 1, 0, 0, 0, 0, 0, 0, 0, 0, 0]\nclass = 2011"] ;
590 -> 592 ;
593 [label="idhm <= 0.646\ngini = 0.879\nsamples = 32\nvalue = [2, 1, 2, 4, 2, 3, 2, 1, 7, 4, 4]\nclass = 2018"] ;
581 -> 593 ;
594 [label="idhm <= 0.627\ngini = 0.75\nsamples = 8\nvalue = [1, 0, 0, 2, 0, 1, 0, 0, 3, 0, 1]\nclass = 2018"] ;
593 -> 594 ;
595 [label="gini = 0.5\nsamples = 2\nvalue = [0, 0, 0, 0, 0, 1, 0, 0, 1, 0, 0]\nclass = 2015"] ;
594 -> 595 ;
596 [label="idhm <= 0.639\ngini = 0.722\nsamples = 6\nvalue = [1, 0, 0, 2, 0, 0, 0, 0, 2, 0, 1]\nclass = 2013"] ;
594 -> 596 ;
597 [label="gini = 0.667\nsamples = 3\nvalue = [0, 0, 0, 1, 0, 0, 0, 0, 1, 0, 1]\nclass = 2013"] ;
596 -> 597 ;
598 [label="gini = 0.667\nsamples = 3\nvalue = [1, 0, 0, 1, 0, 0, 0, 0, 1, 0, 0]\nclass = 2010"] ;
596 -> 598 ;
599 [label="cob_vac_bcg <= 99.686\ngini = 0.889\nsamples = 24\nvalue = [1, 1, 2, 2, 2, 2, 2, 1, 4, 4, 3]\nclass = 2018"] ;
593 -> 599 ;
600 [label="gini = 0.0\nsamples = 1\nvalue = [0, 0, 0, 0, 0, 0, 0, 0, 1, 0, 0]\nclass = 2018"] ;
599 -> 600 ;
601 [label="exp_vida <= 73.745\ngini = 0.892\nsamples = 23\nvalue = [1, 1, 2, 2, 2, 2, 2, 1, 3, 4, 3]\nclass = 2019"] ;
599 -> 601 ;
602 [label="gini = 0.0\nsamples = 1\nvalue = [0, 0, 0, 0, 0, 0, 0, 0, 1, 0, 0]\nclass = 2018"] ;
601 -> 602 ;
603 [label="idhm <= 0.655\ngini = 0.893\nsamples = 22\nvalue = [1, 1, 2, 2, 2, 2, 2, 1, 2, 4, 3]\nclass = 2019"] ;
601 -> 603 ;
604 [label="exp_vida <= 74.465\ngini = 0.9\nsamples = 20\nvalue = [1, 1, 2, 2, 2, 2, 2, 1, 2, 3, 2]\nclass = 2019"] ;
603 -> 604 ;
605 [label="idhm <= 0.653\ngini = 0.888\nsamples = 13\nvalue = [1, 0, 2, 1, 1, 1, 2, 1, 1, 2, 1]\nclass = 2012"] ;
604 -> 605 ;
606 [label="gini = 0.857\nsamples = 7\nvalue = [1, 0, 1, 0, 1, 1, 1, 1, 0, 1, 0]\nclass = 2010"] ;
605 -> 606 ;
607 [label="gini = 0.833\nsamples = 6\nvalue = [0, 0, 1, 1, 0, 0, 1, 0, 1, 1, 1]\nclass = 2012"] ;
605 -> 607 ;
608 [label="gini = 0.857\nsamples = 7\nvalue = [0, 1, 0, 1, 1, 1, 0, 0, 1, 1, 1]\nclass = 2011"] ;
604 -> 608 ;
609 [label="gini = 0.5\nsamples = 2\nvalue = [0, 0, 0, 0, 0, 0, 0, 0, 0, 1, 1]\nclass = 2019"] ;
603 -> 609 ;
610 [label="exp_vida <= 75.58\ngini = 0.905\nsamples = 263\nvalue = [29, 29, 26, 26, 29, 26, 19, 25, 22, 18, 14]\nclass = 2010"] ;
560 -> 610 ;
611 [label="cob_vac_bcg <= 98.557\ngini = 0.901\nsamples = 202\nvalue = [27, 24, 21, 22, 21, 20, 17, 17, 13, 11, 9]\nclass = 2010"] ;
610 -> 611 ;
612 [label="cob_vac_bcg <= 98.297\ngini = 0.869\nsamples = 35\nvalue = [2, 7, 6, 5, 2, 1, 3, 1, 0, 4, 4]\nclass = 2011"] ;
611 -> 612 ;
613 [label="cob_vac_bcg <= 97.562\ngini = 0.874\nsamples = 33\nvalue = [2, 5, 6, 5, 2, 1, 3, 1, 0, 4, 4]\nclass = 2012"] ;
612 -> 613 ;
614 [label="exp_vida <= 75.305\ngini = 0.87\nsamples = 29\nvalue = [2, 5, 6, 3, 2, 1, 3, 1, 0, 2, 4]\nclass = 2012"] ;
613 -> 614 ;
615 [label="exp_vida <= 73.855\ngini = 0.873\nsamples = 26\nvalue = [2, 5, 5, 3, 2, 1, 3, 1, 0, 2, 2]\nclass = 2011"] ;
614 -> 615 ;
616 [label="cob_vac_bcg <= 96.948\ngini = 0.812\nsamples = 8\nvalue = [1, 0, 2, 0, 1, 1, 0, 0, 0, 1, 2]\nclass = 2012"] ;
615 -> 616 ;
617 [label="exp_vida <= 73.55\ngini = 0.776\nsamples = 7\nvalue = [0, 0, 2, 0, 1, 1, 0, 0, 0, 1, 2]\nclass = 2012"] ;
616 -> 617 ;
618 [label="idhm <= 0.693\ngini = 0.667\nsamples = 3\nvalue = [0, 0, 0, 0, 1, 0, 0, 0, 0, 1, 1]\nclass = 2014"] ;
617 -> 618 ;
619 [label="gini = 0.0\nsamples = 1\nvalue = [0, 0, 0, 0, 1, 0, 0, 0, 0, 0, 0]\nclass = 2014"] ;
618 -> 619 ;
620 [label="cob_vac_bcg <= 96.233\ngini = 0.5\nsamples = 2\nvalue = [0, 0, 0, 0, 0, 0, 0, 0, 0, 1, 1]\nclass = 2019"] ;
618 -> 620 ;
621 [label="gini = 0.0\nsamples = 1\nvalue = [0, 0, 0, 0, 0, 0, 0, 0, 0, 1, 0]\nclass = 2019"] ;
620 -> 621 ;
622 [label="gini = 0.0\nsamples = 1\nvalue = [0, 0, 0, 0, 0, 0, 0, 0, 0, 0, 1]\nclass = 2020"] ;
620 -> 622 ;
623 [label="cob_vac_bcg <= 95.187\ngini = 0.625\nsamples = 4\nvalue = [0, 0, 2, 0, 0, 1, 0, 0, 0, 0, 1]\nclass = 2012"] ;
617 -> 623 ;
624 [label="idhm <= 0.672\ngini = 0.5\nsamples = 2\nvalue = [0, 0, 0, 0, 0, 1, 0, 0, 0, 0, 1]\nclass = 2015"] ;
623 -> 624 ;
625 [label="gini = 0.0\nsamples = 1\nvalue = [0, 0, 0, 0, 0, 0, 0, 0, 0, 0, 1]\nclass = 2020"] ;
624 -> 625 ;
626 [label="gini = 0.0\nsamples = 1\nvalue = [0, 0, 0, 0, 0, 1, 0, 0, 0, 0, 0]\nclass = 2015"] ;
624 -> 626 ;
627 [label="gini = 0.0\nsamples = 2\nvalue = [0, 0, 2, 0, 0, 0, 0, 0, 0, 0, 0]\nclass = 2012"] ;
623 -> 627 ;
628 [label="gini = 0.0\nsamples = 1\nvalue = [1, 0, 0, 0, 0, 0, 0, 0, 0, 0, 0]\nclass = 2010"] ;
616 -> 628 ;
629 [label="idhm <= 0.679\ngini = 0.827\nsamples = 18\nvalue = [1, 5, 3, 3, 1, 0, 3, 1, 0, 1, 0]\nclass = 2011"] ;
615 -> 629 ;
630 [label="cob_vac_bcg <= 96.488\ngini = 0.735\nsamples = 7\nvalue = [1, 1, 1, 3, 0, 0, 1, 0, 0, 0, 0]\nclass = 2013"] ;
629 -> 630 ;
631 [label="cob_vac_bcg <= 95.561\ngini = 0.375\nsamples = 4\nvalue = [0, 1, 0, 3, 0, 0, 0, 0, 0, 0, 0]\nclass = 2013"] ;
630 -> 631 ;
632 [label="gini = 0.0\nsamples = 1\nvalue = [0, 1, 0, 0, 0, 0, 0, 0, 0, 0, 0]\nclass = 2011"] ;
631 -> 632 ;
633 [label="gini = 0.0\nsamples = 3\nvalue = [0, 0, 0, 3, 0, 0, 0, 0, 0, 0, 0]\nclass = 2013"] ;
631 -> 633 ;
634 [label="idhm <= 0.664\ngini = 0.667\nsamples = 3\nvalue = [1, 0, 1, 0, 0, 0, 1, 0, 0, 0, 0]\nclass = 2010"] ;
630 -> 634 ;
635 [label="gini = 0.0\nsamples = 1\nvalue = [0, 0, 1, 0, 0, 0, 0, 0, 0, 0, 0]\nclass = 2012"] ;
634 -> 635 ;
636 [label="idhm <= 0.67\ngini = 0.5\nsamples = 2\nvalue = [1, 0, 0, 0, 0, 0, 1, 0, 0, 0, 0]\nclass = 2010"] ;
634 -> 636 ;
637 [label="gini = 0.0\nsamples = 1\nvalue = [1, 0, 0, 0, 0, 0, 0, 0, 0, 0, 0]\nclass = 2010"] ;
636 -> 637 ;
638 [label="gini = 0.0\nsamples = 1\nvalue = [0, 0, 0, 0, 0, 0, 1, 0, 0, 0, 0]\nclass = 2016"] ;
636 -> 638 ;
639 [label="idhm <= 0.738\ngini = 0.777\nsamples = 11\nvalue = [0, 4, 2, 0, 1, 0, 2, 1, 0, 1, 0]\nclass = 2011"] ;
629 -> 639 ;
640 [label="cob_vac_bcg <= 97.214\ngini = 0.656\nsamples = 8\nvalue = [0, 4, 2, 0, 0, 0, 1, 1, 0, 0, 0]\nclass = 2011"] ;
639 -> 640 ;
641 [label="exp_vida <= 74.905\ngini = 0.571\nsamples = 7\nvalue = [0, 4, 2, 0, 0, 0, 0, 1, 0, 0, 0]\nclass = 2011"] ;
640 -> 641 ;
642 [label="idhm <= 0.695\ngini = 0.64\nsamples = 5\nvalue = [0, 2, 2, 0, 0, 0, 0, 1, 0, 0, 0]\nclass = 2011"] ;
641 -> 642 ;
643 [label="cob_vac_bcg <= 96.802\ngini = 0.444\nsamples = 3\nvalue = [0, 2, 1, 0, 0, 0, 0, 0, 0, 0, 0]\nclass = 2011"] ;
642 -> 643 ;
644 [label="gini = 0.0\nsamples = 2\nvalue = [0, 2, 0, 0, 0, 0, 0, 0, 0, 0, 0]\nclass = 2011"] ;
643 -> 644 ;
645 [label="gini = 0.0\nsamples = 1\nvalue = [0, 0, 1, 0, 0, 0, 0, 0, 0, 0, 0]\nclass = 2012"] ;
643 -> 645 ;
646 [label="idhm <= 0.712\ngini = 0.5\nsamples = 2\nvalue = [0, 0, 1, 0, 0, 0, 0, 1, 0, 0, 0]\nclass = 2012"] ;
642 -> 646 ;
647 [label="gini = 0.0\nsamples = 1\nvalue = [0, 0, 0, 0, 0, 0, 0, 1, 0, 0, 0]\nclass = 2017"] ;
646 -> 647 ;
648 [label="gini = 0.0\nsamples = 1\nvalue = [0, 0, 1, 0, 0, 0, 0, 0, 0, 0, 0]\nclass = 2012"] ;
646 -> 648 ;
649 [label="gini = 0.0\nsamples = 2\nvalue = [0, 2, 0, 0, 0, 0, 0, 0, 0, 0, 0]\nclass = 2011"] ;
641 -> 649 ;
650 [label="gini = 0.0\nsamples = 1\nvalue = [0, 0, 0, 0, 0, 0, 1, 0, 0, 0, 0]\nclass = 2016"] ;
640 -> 650 ;
651 [label="idhm <= 0.749\ngini = 0.667\nsamples = 3\nvalue = [0, 0, 0, 0, 1, 0, 1, 0, 0, 1, 0]\nclass = 2014"] ;
639 -> 651 ;
652 [label="cob_vac_bcg <= 95.029\ngini = 0.5\nsamples = 2\nvalue = [0, 0, 0, 0, 0, 0, 1, 0, 0, 1, 0]\nclass = 2016"] ;
651 -> 652 ;
653 [label="gini = 0.0\nsamples = 1\nvalue = [0, 0, 0, 0, 0, 0, 1, 0, 0, 0, 0]\nclass = 2016"] ;
652 -> 653 ;
654 [label="gini = 0.0\nsamples = 1\nvalue = [0, 0, 0, 0, 0, 0, 0, 0, 0, 1, 0]\nclass = 2019"] ;
652 -> 654 ;
655 [label="gini = 0.0\nsamples = 1\nvalue = [0, 0, 0, 0, 1, 0, 0, 0, 0, 0, 0]\nclass = 2014"] ;
651 -> 655 ;
656 [label="idhm <= 0.728\ngini = 0.444\nsamples = 3\nvalue = [0, 0, 1, 0, 0, 0, 0, 0, 0, 0, 2]\nclass = 2020"] ;
614 -> 656 ;
657 [label="gini = 0.0\nsamples = 2\nvalue = [0, 0, 0, 0, 0, 0, 0, 0, 0, 0, 2]\nclass = 2020"] ;
656 -> 657 ;
658 [label="gini = 0.0\nsamples = 1\nvalue = [0, 0, 1, 0, 0, 0, 0, 0, 0, 0, 0]\nclass = 2012"] ;
656 -> 658 ;
659 [label="idhm <= 0.71\ngini = 0.5\nsamples = 4\nvalue = [0, 0, 0, 2, 0, 0, 0, 0, 0, 2, 0]\nclass = 2013"] ;
613 -> 659 ;
660 [label="gini = 0.0\nsamples = 2\nvalue = [0, 0, 0, 0, 0, 0, 0, 0, 0, 2, 0]\nclass = 2019"] ;
659 -> 660 ;
661 [label="gini = 0.0\nsamples = 2\nvalue = [0, 0, 0, 2, 0, 0, 0, 0, 0, 0, 0]\nclass = 2013"] ;
659 -> 661 ;
662 [label="gini = 0.0\nsamples = 2\nvalue = [0, 2, 0, 0, 0, 0, 0, 0, 0, 0, 0]\nclass = 2011"] ;
612 -> 662 ;
663 [label="cob_vac_bcg <= 99.32\ngini = 0.898\nsamples = 167\nvalue = [25, 17, 15, 17, 19, 19, 14, 16, 13, 7, 5]\nclass = 2010"] ;
611 -> 663 ;
664 [label="cob_vac_bcg <= 98.798\ngini = 0.64\nsamples = 5\nvalue = [2, 0, 0, 0, 1, 0, 2, 0, 0, 0, 0]\nclass = 2010"] ;
663 -> 664 ;
665 [label="gini = 0.0\nsamples = 1\nvalue = [0, 0, 0, 0, 1, 0, 0, 0, 0, 0, 0]\nclass = 2014"] ;
664 -> 665 ;
666 [label="idhm <= 0.677\ngini = 0.5\nsamples = 4\nvalue = [2, 0, 0, 0, 0, 0, 2, 0, 0, 0, 0]\nclass = 2010"] ;
664 -> 666 ;
667 [label="gini = 0.0\nsamples = 1\nvalue = [0, 0, 0, 0, 0, 0, 1, 0, 0, 0, 0]\nclass = 2016"] ;
666 -> 667 ;
668 [label="exp_vida <= 73.53\ngini = 0.444\nsamples = 3\nvalue = [2, 0, 0, 0, 0, 0, 1, 0, 0, 0, 0]\nclass = 2010"] ;
666 -> 668 ;
669 [label="gini = 0.0\nsamples = 1\nvalue = [0, 0, 0, 0, 0, 0, 1, 0, 0, 0, 0]\nclass = 2016"] ;
668 -> 669 ;
670 [label="gini = 0.0\nsamples = 2\nvalue = [2, 0, 0, 0, 0, 0, 0, 0, 0, 0, 0]\nclass = 2010"] ;
668 -> 670 ;
671 [label="cob_vac_bcg <= 99.62\ngini = 0.899\nsamples = 162\nvalue = [23, 17, 15, 17, 18, 19, 12, 16, 13, 7, 5]\nclass = 2010"] ;
663 -> 671 ;
672 [label="gini = 0.0\nsamples = 2\nvalue = [0, 0, 0, 0, 0, 0, 0, 0, 2, 0, 0]\nclass = 2018"] ;
671 -> 672 ;
673 [label="exp_vida <= 75.305\ngini = 0.898\nsamples = 160\nvalue = [23, 17, 15, 17, 18, 19, 12, 16, 11, 7, 5]\nclass = 2010"] ;
671 -> 673 ;
674 [label="exp_vida <= 73.85\ngini = 0.895\nsamples = 134\nvalue = [21, 15, 15, 15, 13, 16, 7, 13, 9, 5, 5]\nclass = 2010"] ;
673 -> 674 ;
675 [label="exp_vida <= 73.335\ngini = 0.897\nsamples = 46\nvalue = [5, 5, 5, 4, 3, 3, 4, 6, 7, 2, 2]\nclass = 2018"] ;
674 -> 675 ;
676 [label="idhm <= 0.697\ngini = 0.88\nsamples = 21\nvalue = [4, 3, 3, 1, 1, 3, 2, 1, 1, 1, 1]\nclass = 2010"] ;
675 -> 676 ;
677 [label="idhm <= 0.679\ngini = 0.889\nsamples = 15\nvalue = [2, 1, 1, 1, 1, 3, 2, 1, 1, 1, 1]\nclass = 2015"] ;
676 -> 677 ;
678 [label="exp_vida <= 72.245\ngini = 0.876\nsamples = 11\nvalue = [2, 1, 1, 1, 1, 2, 1, 1, 1, 0, 0]\nclass = 2010"] ;
677 -> 678 ;
679 [label="gini = 0.833\nsamples = 6\nvalue = [1, 1, 0, 0, 1, 1, 1, 0, 1, 0, 0]\nclass = 2010"] ;
678 -> 679 ;
680 [label="gini = 0.8\nsamples = 5\nvalue = [1, 0, 1, 1, 0, 1, 0, 1, 0, 0, 0]\nclass = 2010"] ;
678 -> 680 ;
681 [label="idhm <= 0.688\ngini = 0.75\nsamples = 4\nvalue = [0, 0, 0, 0, 0, 1, 1, 0, 0, 1, 1]\nclass = 2015"] ;
677 -> 681 ;
682 [label="gini = 0.5\nsamples = 2\nvalue = [0, 0, 0, 0, 0, 0, 0, 0, 0, 1, 1]\nclass = 2019"] ;
681 -> 682 ;
683 [label="gini = 0.5\nsamples = 2\nvalue = [0, 0, 0, 0, 0, 1, 1, 0, 0, 0, 0]\nclass = 2015"] ;
681 -> 683 ;
684 [label="exp_vida <= 73.13\ngini = 0.667\nsamples = 6\nvalue = [2, 2, 2, 0, 0, 0, 0, 0, 0, 0, 0]\nclass = 2010"] ;
676 -> 684 ;
685 [label="gini = 0.667\nsamples = 3\nvalue = [1, 1, 1, 0, 0, 0, 0, 0, 0, 0, 0]\nclass = 2010"] ;
684 -> 685 ;
686 [label="gini = 0.667\nsamples = 3\nvalue = [1, 1, 1, 0, 0, 0, 0, 0, 0, 0, 0]\nclass = 2010"] ;
684 -> 686 ;
687 [label="idhm <= 0.686\ngini = 0.858\nsamples = 25\nvalue = [1, 2, 2, 3, 2, 0, 2, 5, 6, 1, 1]\nclass = 2018"] ;
675 -> 687 ;
688 [label="idhm <= 0.674\ngini = 0.836\nsamples = 15\nvalue = [1, 0, 1, 2, 0, 0, 2, 3, 4, 1, 1]\nclass = 2018"] ;
687 -> 688 ;
689 [label="idhm <= 0.667\ngini = 0.667\nsamples = 3\nvalue = [0, 0, 0, 0, 0, 0, 0, 1, 1, 1, 0]\nclass = 2017"] ;
688 -> 689 ;
690 [label="gini = 0.5\nsamples = 2\nvalue = [0, 0, 0, 0, 0, 0, 0, 1, 1, 0, 0]\nclass = 2017"] ;
689 -> 690 ;
691 [label="gini = 0.0\nsamples = 1\nvalue = [0, 0, 0, 0, 0, 0, 0, 0, 0, 1, 0]\nclass = 2019"] ;
689 -> 691 ;
692 [label="exp_vida <= 73.625\ngini = 0.833\nsamples = 12\nvalue = [1, 0, 1, 2, 0, 0, 2, 2, 3, 0, 1]\nclass = 2018"] ;
688 -> 692 ;
693 [label="idhm <= 0.679\ngini = 0.8\nsamples = 10\nvalue = [0, 0, 1, 2, 0, 0, 1, 2, 3, 0, 1]\nclass = 2018"] ;
692 -> 693 ;
694 [label="gini = 0.667\nsamples = 3\nvalue = [0, 0, 0, 1, 0, 0, 0, 0, 1, 0, 1]\nclass = 2013"] ;
693 -> 694 ;
695 [label="exp_vida <= 73.55\ngini = 0.776\nsamples = 7\nvalue = [0, 0, 1, 1, 0, 0, 1, 2, 2, 0, 0]\nclass = 2017"] ;
693 -> 695 ;
696 [label="gini = 0.5\nsamples = 2\nvalue = [0, 0, 0, 0, 0, 0, 0, 1, 1, 0, 0]\nclass = 2017"] ;
695 -> 696 ;
697 [label="gini = 0.8\nsamples = 5\nvalue = [0, 0, 1, 1, 0, 0, 1, 1, 1, 0, 0]\nclass = 2012"] ;
695 -> 697 ;
698 [label="gini = 0.5\nsamples = 2\nvalue = [1, 0, 0, 0, 0, 0, 1, 0, 0, 0, 0]\nclass = 2010"] ;
692 -> 698 ;
699 [label="idhm <= 0.695\ngini = 0.82\nsamples = 10\nvalue = [0, 2, 1, 1, 2, 0, 0, 2, 2, 0, 0]\nclass = 2011"] ;
687 -> 699 ;
700 [label="gini = 0.833\nsamples = 6\nvalue = [0, 1, 1, 1, 1, 0, 0, 1, 1, 0, 0]\nclass = 2011"] ;
699 -> 700 ;
701 [label="gini = 0.75\nsamples = 4\nvalue = [0, 1, 0, 0, 1, 0, 0, 1, 1, 0, 0]\nclass = 2011"] ;
699 -> 701 ;
702 [label="exp_vida <= 75.205\ngini = 0.88\nsamples = 88\nvalue = [16, 10, 10, 11, 10, 13, 3, 7, 2, 3, 3]\nclass = 2010"] ;
674 -> 702 ;
703 [label="exp_vida <= 73.955\ngini = 0.881\nsamples = 83\nvalue = [14, 10, 9, 11, 10, 12, 3, 7, 2, 2, 3]\nclass = 2010"] ;
702 -> 703 ;
704 [label="idhm <= 0.665\ngini = 0.792\nsamples = 12\nvalue = [3, 2, 0, 3, 2, 2, 0, 0, 0, 0, 0]\nclass = 2010"] ;
703 -> 704 ;
705 [label="gini = 0.0\nsamples = 1\nvalue = [0, 1, 0, 0, 0, 0, 0, 0, 0, 0, 0]\nclass = 2011"] ;
704 -> 705 ;
706 [label="idhm <= 0.681\ngini = 0.777\nsamples = 11\nvalue = [3, 1, 0, 3, 2, 2, 0, 0, 0, 0, 0]\nclass = 2010"] ;
704 -> 706 ;
707 [label="exp_vida <= 73.91\ngini = 0.765\nsamples = 9\nvalue = [3, 1, 0, 2, 2, 1, 0, 0, 0, 0, 0]\nclass = 2010"] ;
706 -> 707 ;
708 [label="gini = 0.5\nsamples = 2\nvalue = [1, 0, 0, 1, 0, 0, 0, 0, 0, 0, 0]\nclass = 2010"] ;
707 -> 708 ;
709 [label="exp_vida <= 73.94\ngini = 0.776\nsamples = 7\nvalue = [2, 1, 0, 1, 2, 1, 0, 0, 0, 0, 0]\nclass = 2010"] ;
707 -> 709 ;
710 [label="gini = 0.5\nsamples = 2\nvalue = [1, 0, 0, 0, 1, 0, 0, 0, 0, 0, 0]\nclass = 2010"] ;
709 -> 710 ;
711 [label="gini = 0.8\nsamples = 5\nvalue = [1, 1, 0, 1, 1, 1, 0, 0, 0, 0, 0]\nclass = 2010"] ;
709 -> 711 ;
712 [label="gini = 0.5\nsamples = 2\nvalue = [0, 0, 0, 1, 0, 1, 0, 0, 0, 0, 0]\nclass = 2013"] ;
706 -> 712 ;
713 [label="exp_vida <= 75.065\ngini = 0.887\nsamples = 71\nvalue = [11, 8, 9, 8, 8, 10, 3, 7, 2, 2, 3]\nclass = 2010"] ;
703 -> 713 ;
714 [label="idhm <= 0.703\ngini = 0.887\nsamples = 63\nvalue = [10, 7, 8, 6, 8, 8, 3, 7, 1, 2, 3]\nclass = 2010"] ;
713 -> 714 ;
715 [label="idhm <= 0.688\ngini = 0.879\nsamples = 53\nvalue = [8, 7, 8, 5, 7, 8, 2, 4, 1, 1, 2]\nclass = 2010"] ;
714 -> 715 ;
716 [label="exp_vida <= 74.045\ngini = 0.879\nsamples = 52\nvalue = [8, 7, 7, 5, 7, 8, 2, 4, 1, 1, 2]\nclass = 2010"] ;
715 -> 716 ;
717 [label="idhm <= 0.67\ngini = 0.815\nsamples = 9\nvalue = [1, 2, 1, 1, 0, 2, 0, 2, 0, 0, 0]\nclass = 2011"] ;
716 -> 717 ;
718 [label="gini = 0.75\nsamples = 4\nvalue = [0, 1, 1, 0, 0, 1, 0, 1, 0, 0, 0]\nclass = 2011"] ;
717 -> 718 ;
719 [label="gini = 0.8\nsamples = 5\nvalue = [1, 1, 0, 1, 0, 1, 0, 1, 0, 0, 0]\nclass = 2010"] ;
717 -> 719 ;
720 [label="exp_vida <= 74.67\ngini = 0.878\nsamples = 43\nvalue = [7, 5, 6, 4, 7, 6, 2, 2, 1, 1, 2]\nclass = 2010"] ;
716 -> 720 ;
721 [label="idhm <= 0.669\ngini = 0.876\nsamples = 13\nvalue = [3, 0, 1, 1, 2, 1, 1, 1, 1, 1, 1]\nclass = 2010"] ;
720 -> 721 ;
722 [label="exp_vida <= 74.32\ngini = 0.876\nsamples = 11\nvalue = [2, 0, 1, 1, 2, 1, 1, 1, 1, 1, 0]\nclass = 2010"] ;
721 -> 722 ;
723 [label="gini = 0.8\nsamples = 5\nvalue = [1, 0, 0, 1, 1, 1, 1, 0, 0, 0, 0]\nclass = 2010"] ;
722 -> 723 ;
724 [label="gini = 0.833\nsamples = 6\nvalue = [1, 0, 1, 0, 1, 0, 0, 1, 1, 1, 0]\nclass = 2010"] ;
722 -> 724 ;
725 [label="gini = 0.5\nsamples = 2\nvalue = [1, 0, 0, 0, 0, 0, 0, 0, 0, 0, 1]\nclass = 2010"] ;
721 -> 725 ;
726 [label="exp_vida <= 75.01\ngini = 0.858\nsamples = 30\nvalue = [4, 5, 5, 3, 5, 5, 1, 1, 0, 0, 1]\nclass = 2011"] ;
720 -> 726 ;
727 [label="exp_vida <= 74.72\ngini = 0.831\nsamples = 22\nvalue = [3, 4, 4, 3, 4, 4, 0, 0, 0, 0, 0]\nclass = 2011"] ;
726 -> 727 ;
728 [label="gini = 0.8\nsamples = 5\nvalue = [0, 1, 1, 1, 1, 1, 0, 0, 0, 0, 0]\nclass = 2011"] ;
727 -> 728 ;
729 [label="idhm <= 0.675\ngini = 0.83\nsamples = 17\nvalue = [3, 3, 3, 2, 3, 3, 0, 0, 0, 0, 0]\nclass = 2010"] ;
727 -> 729 ;
730 [label="exp_vida <= 74.86\ngini = 0.833\nsamples = 12\nvalue = [2, 2, 2, 2, 2, 2, 0, 0, 0, 0, 0]\nclass = 2010"] ;
729 -> 730 ;
731 [label="gini = 0.833\nsamples = 6\nvalue = [1, 1, 1, 1, 1, 1, 0, 0, 0, 0, 0]\nclass = 2010"] ;
730 -> 731 ;
732 [label="gini = 0.833\nsamples = 6\nvalue = [1, 1, 1, 1, 1, 1, 0, 0, 0, 0, 0]\nclass = 2010"] ;
730 -> 732 ;
733 [label="gini = 0.8\nsamples = 5\nvalue = [1, 1, 1, 0, 1, 1, 0, 0, 0, 0, 0]\nclass = 2010"] ;
729 -> 733 ;
734 [label="gini = 0.875\nsamples = 8\nvalue = [1, 1, 1, 0, 1, 1, 1, 1, 0, 0, 1]\nclass = 2010"] ;
726 -> 734 ;
735 [label="gini = 0.0\nsamples = 1\nvalue = [0, 0, 1, 0, 0, 0, 0, 0, 0, 0, 0]\nclass = 2012"] ;
715 -> 735 ;
736 [label="idhm <= 0.719\ngini = 0.82\nsamples = 10\nvalue = [2, 0, 0, 1, 1, 0, 1, 3, 0, 1, 1]\nclass = 2017"] ;
714 -> 736 ;
737 [label="idhm <= 0.712\ngini = 0.667\nsamples = 3\nvalue = [0, 0, 0, 0, 0, 0, 0, 1, 0, 1, 1]\nclass = 2017"] ;
736 -> 737 ;
738 [label="gini = 0.5\nsamples = 2\nvalue = [0, 0, 0, 0, 0, 0, 0, 1, 0, 1, 0]\nclass = 2017"] ;
737 -> 738 ;
739 [label="gini = 0.0\nsamples = 1\nvalue = [0, 0, 0, 0, 0, 0, 0, 0, 0, 0, 1]\nclass = 2020"] ;
737 -> 739 ;
740 [label="idhm <= 0.726\ngini = 0.776\nsamples = 7\nvalue = [2, 0, 0, 1, 1, 0, 1, 2, 0, 0, 0]\nclass = 2010"] ;
736 -> 740 ;
741 [label="gini = 0.8\nsamples = 5\nvalue = [1, 0, 0, 1, 1, 0, 1, 1, 0, 0, 0]\nclass = 2010"] ;
740 -> 741 ;
742 [label="gini = 0.5\nsamples = 2\nvalue = [1, 0, 0, 0, 0, 0, 0, 1, 0, 0, 0]\nclass = 2010"] ;
740 -> 742 ;
743 [label="idhm <= 0.727\ngini = 0.812\nsamples = 8\nvalue = [1, 1, 1, 2, 0, 2, 0, 0, 1, 0, 0]\nclass = 2013"] ;
713 -> 743 ;
744 [label="gini = 0.5\nsamples = 2\nvalue = [0, 0, 0, 1, 0, 1, 0, 0, 0, 0, 0]\nclass = 2013"] ;
743 -> 744 ;
745 [label="gini = 0.833\nsamples = 6\nvalue = [1, 1, 1, 1, 0, 1, 0, 0, 1, 0, 0]\nclass = 2010"] ;
743 -> 745 ;
746 [label="idhm <= 0.721\ngini = 0.72\nsamples = 5\nvalue = [2, 0, 1, 0, 0, 1, 0, 0, 0, 1, 0]\nclass = 2010"] ;
702 -> 746 ;
747 [label="gini = 0.0\nsamples = 1\nvalue = [0, 0, 0, 0, 0, 0, 0, 0, 0, 1, 0]\nclass = 2019"] ;
746 -> 747 ;
748 [label="idhm <= 0.741\ngini = 0.625\nsamples = 4\nvalue = [2, 0, 1, 0, 0, 1, 0, 0, 0, 0, 0]\nclass = 2010"] ;
746 -> 748 ;
749 [label="gini = 0.5\nsamples = 2\nvalue = [1, 0, 0, 0, 0, 1, 0, 0, 0, 0, 0]\nclass = 2010"] ;
748 -> 749 ;
750 [label="gini = 0.5\nsamples = 2\nvalue = [1, 0, 1, 0, 0, 0, 0, 0, 0, 0, 0]\nclass = 2010"] ;
748 -> 750 ;
751 [label="cob_vac_bcg <= 99.872\ngini = 0.87\nsamples = 26\nvalue = [2, 2, 0, 2, 5, 3, 5, 3, 2, 2, 0]\nclass = 2014"] ;
673 -> 751 ;
752 [label="gini = 0.0\nsamples = 1\nvalue = [0, 0, 0, 0, 0, 0, 0, 0, 0, 1, 0]\nclass = 2019"] ;
751 -> 752 ;
753 [label="exp_vida <= 75.465\ngini = 0.864\nsamples = 25\nvalue = [2, 2, 0, 2, 5, 3, 5, 3, 2, 1, 0]\nclass = 2014"] ;
751 -> 753 ;
754 [label="exp_vida <= 75.4\ngini = 0.865\nsamples = 17\nvalue = [2, 0, 0, 2, 3, 2, 3, 2, 2, 1, 0]\nclass = 2014"] ;
753 -> 754 ;
755 [label="gini = 0.667\nsamples = 3\nvalue = [0, 0, 0, 0, 1, 0, 1, 0, 1, 0, 0]\nclass = 2014"] ;
754 -> 755 ;
756 [label="idhm <= 0.69\ngini = 0.867\nsamples = 14\nvalue = [2, 0, 0, 2, 2, 2, 2, 2, 1, 1, 0]\nclass = 2010"] ;
754 -> 756 ;
757 [label="gini = 0.833\nsamples = 6\nvalue = [1, 0, 0, 1, 1, 1, 1, 1, 0, 0, 0]\nclass = 2010"] ;
756 -> 757 ;
758 [label="idhm <= 0.727\ngini = 0.875\nsamples = 8\nvalue = [1, 0, 0, 1, 1, 1, 1, 1, 1, 1, 0]\nclass = 2010"] ;
756 -> 758 ;
759 [label="gini = 0.0\nsamples = 1\nvalue = [0, 0, 0, 0, 0, 0, 0, 0, 0, 1, 0]\nclass = 2019"] ;
758 -> 759 ;
760 [label="gini = 0.857\nsamples = 7\nvalue = [1, 0, 0, 1, 1, 1, 1, 1, 1, 0, 0]\nclass = 2010"] ;
758 -> 760 ;
761 [label="idhm <= 0.724\ngini = 0.781\nsamples = 8\nvalue = [0, 2, 0, 0, 2, 1, 2, 1, 0, 0, 0]\nclass = 2011"] ;
753 -> 761 ;
762 [label="gini = 0.75\nsamples = 4\nvalue = [0, 1, 0, 0, 1, 0, 1, 1, 0, 0, 0]\nclass = 2011"] ;
761 -> 762 ;
763 [label="gini = 0.75\nsamples = 4\nvalue = [0, 1, 0, 0, 1, 1, 1, 0, 0, 0, 0]\nclass = 2011"] ;
761 -> 763 ;
764 [label="cob_vac_bcg <= 98.564\ngini = 0.894\nsamples = 61\nvalue = [2, 5, 5, 4, 8, 6, 2, 8, 9, 7, 5]\nclass = 2018"] ;
610 -> 764 ;
765 [label="exp_vida <= 76.155\ngini = 0.806\nsamples = 12\nvalue = [2, 0, 1, 0, 2, 1, 0, 4, 1, 0, 1]\nclass = 2017"] ;
764 -> 765 ;
766 [label="cob_vac_bcg <= 95.143\ngini = 0.688\nsamples = 8\nvalue = [1, 0, 0, 0, 1, 1, 0, 4, 0, 0, 1]\nclass = 2017"] ;
765 -> 766 ;
767 [label="gini = 0.0\nsamples = 1\nvalue = [0, 0, 0, 0, 0, 1, 0, 0, 0, 0, 0]\nclass = 2015"] ;
766 -> 767 ;
768 [label="exp_vida <= 75.635\ngini = 0.612\nsamples = 7\nvalue = [1, 0, 0, 0, 1, 0, 0, 4, 0, 0, 1]\nclass = 2017"] ;
766 -> 768 ;
769 [label="gini = 0.0\nsamples = 1\nvalue = [0, 0, 0, 0, 0, 0, 0, 0, 0, 0, 1]\nclass = 2020"] ;
768 -> 769 ;
770 [label="cob_vac_bcg <= 96.841\ngini = 0.5\nsamples = 6\nvalue = [1, 0, 0, 0, 1, 0, 0, 4, 0, 0, 0]\nclass = 2017"] ;
768 -> 770 ;
771 [label="cob_vac_bcg <= 95.857\ngini = 0.5\nsamples = 2\nvalue = [0, 0, 0, 0, 1, 0, 0, 1, 0, 0, 0]\nclass = 2014"] ;
770 -> 771 ;
772 [label="gini = 0.0\nsamples = 1\nvalue = [0, 0, 0, 0, 0, 0, 0, 1, 0, 0, 0]\nclass = 2017"] ;
771 -> 772 ;
773 [label="gini = 0.0\nsamples = 1\nvalue = [0, 0, 0, 0, 1, 0, 0, 0, 0, 0, 0]\nclass = 2014"] ;
771 -> 773 ;
774 [label="exp_vida <= 75.765\ngini = 0.375\nsamples = 4\nvalue = [1, 0, 0, 0, 0, 0, 0, 3, 0, 0, 0]\nclass = 2017"] ;
770 -> 774 ;
775 [label="exp_vida <= 75.695\ngini = 0.5\nsamples = 2\nvalue = [1, 0, 0, 0, 0, 0, 0, 1, 0, 0, 0]\nclass = 2010"] ;
774 -> 775 ;
776 [label="gini = 0.0\nsamples = 1\nvalue = [0, 0, 0, 0, 0, 0, 0, 1, 0, 0, 0]\nclass = 2017"] ;
775 -> 776 ;
777 [label="gini = 0.0\nsamples = 1\nvalue = [1, 0, 0, 0, 0, 0, 0, 0, 0, 0, 0]\nclass = 2010"] ;
775 -> 777 ;
778 [label="gini = 0.0\nsamples = 2\nvalue = [0, 0, 0, 0, 0, 0, 0, 2, 0, 0, 0]\nclass = 2017"] ;
774 -> 778 ;
779 [label="idhm <= 0.732\ngini = 0.75\nsamples = 4\nvalue = [1, 0, 1, 0, 1, 0, 0, 0, 1, 0, 0]\nclass = 2010"] ;
765 -> 779 ;
780 [label="gini = 0.0\nsamples = 1\nvalue = [0, 0, 0, 0, 1, 0, 0, 0, 0, 0, 0]\nclass = 2014"] ;
779 -> 780 ;
781 [label="cob_vac_bcg <= 95.895\ngini = 0.667\nsamples = 3\nvalue = [1, 0, 1, 0, 0, 0, 0, 0, 1, 0, 0]\nclass = 2010"] ;
779 -> 781 ;
782 [label="gini = 0.0\nsamples = 1\nvalue = [0, 0, 0, 0, 0, 0, 0, 0, 1, 0, 0]\nclass = 2018"] ;
781 -> 782 ;
783 [label="cob_vac_bcg <= 97.126\ngini = 0.5\nsamples = 2\nvalue = [1, 0, 1, 0, 0, 0, 0, 0, 0, 0, 0]\nclass = 2010"] ;
781 -> 783 ;
784 [label="gini = 0.0\nsamples = 1\nvalue = [1, 0, 0, 0, 0, 0, 0, 0, 0, 0, 0]\nclass = 2010"] ;
783 -> 784 ;
785 [label="gini = 0.0\nsamples = 1\nvalue = [0, 0, 1, 0, 0, 0, 0, 0, 0, 0, 0]\nclass = 2012"] ;
783 -> 785 ;
786 [label="cob_vac_bcg <= 99.268\ngini = 0.889\nsamples = 49\nvalue = [0, 5, 4, 4, 6, 5, 2, 4, 8, 7, 4]\nclass = 2018"] ;
764 -> 786 ;
787 [label="gini = 0.0\nsamples = 1\nvalue = [0, 0, 0, 0, 0, 1, 0, 0, 0, 0, 0]\nclass = 2015"] ;
786 -> 787 ;
788 [label="exp_vida <= 75.675\ngini = 0.888\nsamples = 48\nvalue = [0, 5, 4, 4, 6, 4, 2, 4, 8, 7, 4]\nclass = 2018"] ;
786 -> 788 ;
789 [label="idhm <= 0.719\ngini = 0.625\nsamples = 4\nvalue = [0, 0, 0, 0, 0, 0, 0, 1, 2, 1, 0]\nclass = 2018"] ;
788 -> 789 ;
790 [label="cob_vac_bcg <= 99.655\ngini = 0.667\nsamples = 3\nvalue = [0, 0, 0, 0, 0, 0, 0, 1, 1, 1, 0]\nclass = 2017"] ;
789 -> 790 ;
791 [label="gini = 0.0\nsamples = 1\nvalue = [0, 0, 0, 0, 0, 0, 0, 0, 1, 0, 0]\nclass = 2018"] ;
790 -> 791 ;
792 [label="gini = 0.5\nsamples = 2\nvalue = [0, 0, 0, 0, 0, 0, 0, 1, 0, 1, 0]\nclass = 2017"] ;
790 -> 792 ;
793 [label="gini = 0.0\nsamples = 1\nvalue = [0, 0, 0, 0, 0, 0, 0, 0, 1, 0, 0]\nclass = 2018"] ;
789 -> 793 ;
794 [label="exp_vida <= 76.63\ngini = 0.892\nsamples = 44\nvalue = [0, 5, 4, 4, 6, 4, 2, 3, 6, 6, 4]\nclass = 2014"] ;
788 -> 794 ;
795 [label="cob_vac_bcg <= 99.766\ngini = 0.892\nsamples = 43\nvalue = [0, 5, 4, 4, 6, 4, 2, 3, 5, 6, 4]\nclass = 2014"] ;
794 -> 795 ;
796 [label="gini = 0.5\nsamples = 2\nvalue = [0, 0, 0, 0, 0, 0, 0, 0, 0, 1, 1]\nclass = 2019"] ;
795 -> 796 ;
797 [label="exp_vida <= 76.385\ngini = 0.892\nsamples = 41\nvalue = [0, 5, 4, 4, 6, 4, 2, 3, 5, 5, 3]\nclass = 2014"] ;
795 -> 797 ;
798 [label="exp_vida <= 76.315\ngini = 0.89\nsamples = 36\nvalue = [0, 5, 3, 3, 5, 4, 2, 2, 4, 5, 3]\nclass = 2011"] ;
797 -> 798 ;
799 [label="idhm <= 0.727\ngini = 0.888\nsamples = 35\nvalue = [0, 5, 3, 3, 5, 4, 2, 2, 4, 5, 2]\nclass = 2011"] ;
798 -> 799 ;
800 [label="exp_vida <= 75.765\ngini = 0.875\nsamples = 16\nvalue = [0, 2, 1, 3, 2, 1, 0, 1, 2, 2, 2]\nclass = 2013"] ;
799 -> 800 ;
801 [label="gini = 0.8\nsamples = 5\nvalue = [0, 1, 1, 1, 0, 1, 0, 0, 1, 0, 0]\nclass = 2011"] ;
800 -> 801 ;
802 [label="idhm <= 0.703\ngini = 0.843\nsamples = 11\nvalue = [0, 1, 0, 2, 2, 0, 0, 1, 1, 2, 2]\nclass = 2013"] ;
800 -> 802 ;
803 [label="gini = 0.8\nsamples = 5\nvalue = [0, 1, 0, 1, 1, 0, 0, 0, 0, 1, 1]\nclass = 2011"] ;
802 -> 803 ;
804 [label="idhm <= 0.718\ngini = 0.833\nsamples = 6\nvalue = [0, 0, 0, 1, 1, 0, 0, 1, 1, 1, 1]\nclass = 2013"] ;
802 -> 804 ;
805 [label="gini = 0.0\nsamples = 1\nvalue = [0, 0, 0, 0, 0, 0, 0, 1, 0, 0, 0]\nclass = 2017"] ;
804 -> 805 ;
806 [label="gini = 0.8\nsamples = 5\nvalue = [0, 0, 0, 1, 1, 0, 0, 0, 1, 1, 1]\nclass = 2013"] ;
804 -> 806 ;
807 [label="exp_vida <= 76.25\ngini = 0.864\nsamples = 19\nvalue = [0, 3, 2, 0, 3, 3, 2, 1, 2, 3, 0]\nclass = 2011"] ;
799 -> 807 ;
808 [label="idhm <= 0.731\ngini = 0.843\nsamples = 11\nvalue = [0, 2, 1, 0, 2, 2, 1, 0, 1, 2, 0]\nclass = 2011"] ;
807 -> 808 ;
809 [label="gini = 0.857\nsamples = 7\nvalue = [0, 1, 1, 0, 1, 1, 1, 0, 1, 1, 0]\nclass = 2011"] ;
808 -> 809 ;
810 [label="gini = 0.75\nsamples = 4\nvalue = [0, 1, 0, 0, 1, 1, 0, 0, 0, 1, 0]\nclass = 2011"] ;
808 -> 810 ;
811 [label="gini = 0.875\nsamples = 8\nvalue = [0, 1, 1, 0, 1, 1, 1, 1, 1, 1, 0]\nclass = 2011"] ;
807 -> 811 ;
812 [label="gini = 0.0\nsamples = 1\nvalue = [0, 0, 0, 0, 0, 0, 0, 0, 0, 0, 1]\nclass = 2020"] ;
798 -> 812 ;
813 [label="gini = 0.8\nsamples = 5\nvalue = [0, 0, 1, 1, 1, 0, 0, 1, 1, 0, 0]\nclass = 2012"] ;
797 -> 813 ;
814 [label="gini = 0.0\nsamples = 1\nvalue = [0, 0, 0, 0, 0, 0, 0, 0, 1, 0, 0]\nclass = 2018"] ;
794 -> 814 ;
}
