digraph Tree {
node [shape=box, style="rounded", color="black", fontname="helvetica"] ;
edge [fontname="helvetica"] ;
0 [label="cob_vac_bcg <= 51.274\ngini = 0.909\nsamples = 1628\nvalue = [152, 139, 147, 157, 156, 146, 151, 136, 148, 149\n147]\nclass = 2013"] ;
1 [label="cob_vac_bcg <= 20.452\ngini = 0.896\nsamples = 558\nvalue = [21, 30, 51, 74, 76, 53, 80, 62, 35, 42, 34]\nclass = 2016"] ;
0 -> 1 [labeldistance=2.5, labelangle=45, headlabel="True"] ;
2 [label="cob_vac_bcg <= 19.612\ngini = 0.859\nsamples = 81\nvalue = [3, 2, 6, 13, 18, 4, 16, 3, 2, 7, 7]\nclass = 2014"] ;
1 -> 2 ;
3 [label="cob_vac_bcg <= 15.214\ngini = 0.869\nsamples = 72\nvalue = [3, 2, 6, 9, 14, 4, 15, 3, 2, 7, 7]\nclass = 2016"] ;
2 -> 3 ;
4 [label="cob_vac_bcg <= 13.032\ngini = 0.844\nsamples = 48\nvalue = [2, 2, 2, 9, 10, 4, 11, 1, 0, 5, 2]\nclass = 2016"] ;
3 -> 4 ;
5 [label="exp_vida <= 69.915\ngini = 0.838\nsamples = 39\nvalue = [2, 1, 2, 4, 8, 4, 11, 1, 0, 4, 2]\nclass = 2016"] ;
4 -> 5 ;
6 [label="cob_vac_bcg <= 12.645\ngini = 0.692\nsamples = 17\nvalue = [1, 0, 1, 0, 6, 1, 7, 1, 0, 0, 0]\nclass = 2016"] ;
5 -> 6 ;
7 [label="cob_vac_bcg <= 10.596\ngini = 0.656\nsamples = 16\nvalue = [1, 0, 0, 0, 6, 1, 7, 1, 0, 0, 0]\nclass = 2016"] ;
6 -> 7 ;
8 [label="idhm <= 0.569\ngini = 0.694\nsamples = 11\nvalue = [1, 0, 0, 0, 5, 1, 3, 1, 0, 0, 0]\nclass = 2014"] ;
7 -> 8 ;
9 [label="cob_vac_bcg <= 8.131\ngini = 0.611\nsamples = 6\nvalue = [0, 0, 0, 0, 2, 0, 3, 1, 0, 0, 0]\nclass = 2016"] ;
8 -> 9 ;
10 [label="gini = 0.0\nsamples = 2\nvalue = [0, 0, 0, 0, 0, 0, 2, 0, 0, 0, 0]\nclass = 2016"] ;
9 -> 10 ;
11 [label="idhm <= 0.566\ngini = 0.625\nsamples = 4\nvalue = [0, 0, 0, 0, 2, 0, 1, 1, 0, 0, 0]\nclass = 2014"] ;
9 -> 11 ;
12 [label="gini = 0.0\nsamples = 2\nvalue = [0, 0, 0, 0, 2, 0, 0, 0, 0, 0, 0]\nclass = 2014"] ;
11 -> 12 ;
13 [label="gini = 0.5\nsamples = 2\nvalue = [0, 0, 0, 0, 0, 0, 1, 1, 0, 0, 0]\nclass = 2016"] ;
11 -> 13 ;
14 [label="cob_vac_bcg <= 9.447\ngini = 0.56\nsamples = 5\nvalue = [1, 0, 0, 0, 3, 1, 0, 0, 0, 0, 0]\nclass = 2014"] ;
8 -> 14 ;
15 [label="cob_vac_bcg <= 7.372\ngini = 0.375\nsamples = 4\nvalue = [0, 0, 0, 0, 3, 1, 0, 0, 0, 0, 0]\nclass = 2014"] ;
14 -> 15 ;
16 [label="gini = 0.0\nsamples = 2\nvalue = [0, 0, 0, 0, 2, 0, 0, 0, 0, 0, 0]\nclass = 2014"] ;
15 -> 16 ;
17 [label="cob_vac_bcg <= 9.172\ngini = 0.5\nsamples = 2\nvalue = [0, 0, 0, 0, 1, 1, 0, 0, 0, 0, 0]\nclass = 2014"] ;
15 -> 17 ;
18 [label="gini = 0.0\nsamples = 1\nvalue = [0, 0, 0, 0, 0, 1, 0, 0, 0, 0, 0]\nclass = 2015"] ;
17 -> 18 ;
19 [label="gini = 0.0\nsamples = 1\nvalue = [0, 0, 0, 0, 1, 0, 0, 0, 0, 0, 0]\nclass = 2014"] ;
17 -> 19 ;
20 [label="gini = 0.0\nsamples = 1\nvalue = [1, 0, 0, 0, 0, 0, 0, 0, 0, 0, 0]\nclass = 2010"] ;
14 -> 20 ;
21 [label="exp_vida <= 68.205\ngini = 0.32\nsamples = 5\nvalue = [0, 0, 0, 0, 1, 0, 4, 0, 0, 0, 0]\nclass = 2016"] ;
7 -> 21 ;
22 [label="gini = 0.0\nsamples = 3\nvalue = [0, 0, 0, 0, 0, 0, 3, 0, 0, 0, 0]\nclass = 2016"] ;
21 -> 22 ;
23 [label="cob_vac_bcg <= 11.577\ngini = 0.5\nsamples = 2\nvalue = [0, 0, 0, 0, 1, 0, 1, 0, 0, 0, 0]\nclass = 2014"] ;
21 -> 23 ;
24 [label="gini = 0.0\nsamples = 1\nvalue = [0, 0, 0, 0, 0, 0, 1, 0, 0, 0, 0]\nclass = 2016"] ;
23 -> 24 ;
25 [label="gini = 0.0\nsamples = 1\nvalue = [0, 0, 0, 0, 1, 0, 0, 0, 0, 0, 0]\nclass = 2014"] ;
23 -> 25 ;
26 [label="gini = 0.0\nsamples = 1\nvalue = [0, 0, 1, 0, 0, 0, 0, 0, 0, 0, 0]\nclass = 2012"] ;
6 -> 26 ;
27 [label="cob_vac_bcg <= 11.018\ngini = 0.86\nsamples = 22\nvalue = [1, 1, 1, 4, 2, 3, 4, 0, 0, 4, 2]\nclass = 2013"] ;
5 -> 27 ;
28 [label="cob_vac_bcg <= 2.0\ngini = 0.837\nsamples = 17\nvalue = [1, 1, 1, 4, 2, 2, 4, 0, 0, 2, 0]\nclass = 2013"] ;
27 -> 28 ;
29 [label="gini = 0.5\nsamples = 2\nvalue = [1, 0, 1, 0, 0, 0, 0, 0, 0, 0, 0]\nclass = 2010"] ;
28 -> 29 ;
30 [label="cob_vac_bcg <= 6.155\ngini = 0.8\nsamples = 15\nvalue = [0, 1, 0, 4, 2, 2, 4, 0, 0, 2, 0]\nclass = 2013"] ;
28 -> 30 ;
31 [label="cob_vac_bcg <= 4.812\ngini = 0.72\nsamples = 5\nvalue = [0, 1, 0, 1, 2, 0, 1, 0, 0, 0, 0]\nclass = 2014"] ;
30 -> 31 ;
32 [label="idhm <= 0.694\ngini = 0.5\nsamples = 2\nvalue = [0, 0, 0, 1, 0, 0, 1, 0, 0, 0, 0]\nclass = 2013"] ;
31 -> 32 ;
33 [label="gini = 0.0\nsamples = 1\nvalue = [0, 0, 0, 0, 0, 0, 1, 0, 0, 0, 0]\nclass = 2016"] ;
32 -> 33 ;
34 [label="gini = 0.0\nsamples = 1\nvalue = [0, 0, 0, 1, 0, 0, 0, 0, 0, 0, 0]\nclass = 2013"] ;
32 -> 34 ;
35 [label="exp_vida <= 72.75\ngini = 0.444\nsamples = 3\nvalue = [0, 1, 0, 0, 2, 0, 0, 0, 0, 0, 0]\nclass = 2014"] ;
31 -> 35 ;
36 [label="gini = 0.0\nsamples = 1\nvalue = [0, 0, 0, 0, 1, 0, 0, 0, 0, 0, 0]\nclass = 2014"] ;
35 -> 36 ;
37 [label="gini = 0.5\nsamples = 2\nvalue = [0, 1, 0, 0, 1, 0, 0, 0, 0, 0, 0]\nclass = 2011"] ;
35 -> 37 ;
38 [label="exp_vida <= 70.79\ngini = 0.74\nsamples = 10\nvalue = [0, 0, 0, 3, 0, 2, 3, 0, 0, 2, 0]\nclass = 2013"] ;
30 -> 38 ;
39 [label="exp_vida <= 70.205\ngini = 0.56\nsamples = 5\nvalue = [0, 0, 0, 1, 0, 1, 3, 0, 0, 0, 0]\nclass = 2016"] ;
38 -> 39 ;
40 [label="cob_vac_bcg <= 8.586\ngini = 0.667\nsamples = 3\nvalue = [0, 0, 0, 1, 0, 1, 1, 0, 0, 0, 0]\nclass = 2013"] ;
39 -> 40 ;
41 [label="gini = 0.0\nsamples = 1\nvalue = [0, 0, 0, 0, 0, 0, 1, 0, 0, 0, 0]\nclass = 2016"] ;
40 -> 41 ;
42 [label="cob_vac_bcg <= 9.809\ngini = 0.5\nsamples = 2\nvalue = [0, 0, 0, 1, 0, 1, 0, 0, 0, 0, 0]\nclass = 2013"] ;
40 -> 42 ;
43 [label="gini = 0.0\nsamples = 1\nvalue = [0, 0, 0, 1, 0, 0, 0, 0, 0, 0, 0]\nclass = 2013"] ;
42 -> 43 ;
44 [label="gini = 0.0\nsamples = 1\nvalue = [0, 0, 0, 0, 0, 1, 0, 0, 0, 0, 0]\nclass = 2015"] ;
42 -> 44 ;
45 [label="gini = 0.0\nsamples = 2\nvalue = [0, 0, 0, 0, 0, 0, 2, 0, 0, 0, 0]\nclass = 2016"] ;
39 -> 45 ;
46 [label="cob_vac_bcg <= 6.634\ngini = 0.64\nsamples = 5\nvalue = [0, 0, 0, 2, 0, 1, 0, 0, 0, 2, 0]\nclass = 2013"] ;
38 -> 46 ;
47 [label="gini = 0.0\nsamples = 1\nvalue = [0, 0, 0, 0, 0, 1, 0, 0, 0, 0, 0]\nclass = 2015"] ;
46 -> 47 ;
48 [label="cob_vac_bcg <= 7.509\ngini = 0.5\nsamples = 4\nvalue = [0, 0, 0, 2, 0, 0, 0, 0, 0, 2, 0]\nclass = 2013"] ;
46 -> 48 ;
49 [label="gini = 0.0\nsamples = 1\nvalue = [0, 0, 0, 1, 0, 0, 0, 0, 0, 0, 0]\nclass = 2013"] ;
48 -> 49 ;
50 [label="cob_vac_bcg <= 9.459\ngini = 0.444\nsamples = 3\nvalue = [0, 0, 0, 1, 0, 0, 0, 0, 0, 2, 0]\nclass = 2019"] ;
48 -> 50 ;
51 [label="gini = 0.0\nsamples = 2\nvalue = [0, 0, 0, 0, 0, 0, 0, 0, 0, 2, 0]\nclass = 2019"] ;
50 -> 51 ;
52 [label="gini = 0.0\nsamples = 1\nvalue = [0, 0, 0, 1, 0, 0, 0, 0, 0, 0, 0]\nclass = 2013"] ;
50 -> 52 ;
53 [label="idhm <= 0.55\ngini = 0.64\nsamples = 5\nvalue = [0, 0, 0, 0, 0, 1, 0, 0, 0, 2, 2]\nclass = 2019"] ;
27 -> 53 ;
54 [label="gini = 0.0\nsamples = 1\nvalue = [0, 0, 0, 0, 0, 1, 0, 0, 0, 0, 0]\nclass = 2015"] ;
53 -> 54 ;
55 [label="exp_vida <= 70.175\ngini = 0.5\nsamples = 4\nvalue = [0, 0, 0, 0, 0, 0, 0, 0, 0, 2, 2]\nclass = 2019"] ;
53 -> 55 ;
56 [label="gini = 0.0\nsamples = 1\nvalue = [0, 0, 0, 0, 0, 0, 0, 0, 0, 1, 0]\nclass = 2019"] ;
55 -> 56 ;
57 [label="exp_vida <= 70.73\ngini = 0.444\nsamples = 3\nvalue = [0, 0, 0, 0, 0, 0, 0, 0, 0, 1, 2]\nclass = 2020"] ;
55 -> 57 ;
58 [label="gini = 0.5\nsamples = 2\nvalue = [0, 0, 0, 0, 0, 0, 0, 0, 0, 1, 1]\nclass = 2019"] ;
57 -> 58 ;
59 [label="gini = 0.0\nsamples = 1\nvalue = [0, 0, 0, 0, 0, 0, 0, 0, 0, 0, 1]\nclass = 2020"] ;
57 -> 59 ;
60 [label="exp_vida <= 66.52\ngini = 0.617\nsamples = 9\nvalue = [0, 1, 0, 5, 2, 0, 0, 0, 0, 1, 0]\nclass = 2013"] ;
4 -> 60 ;
61 [label="cob_vac_bcg <= 14.436\ngini = 0.5\nsamples = 2\nvalue = [0, 1, 0, 0, 1, 0, 0, 0, 0, 0, 0]\nclass = 2011"] ;
60 -> 61 ;
62 [label="gini = 0.0\nsamples = 1\nvalue = [0, 0, 0, 0, 1, 0, 0, 0, 0, 0, 0]\nclass = 2014"] ;
61 -> 62 ;
63 [label="gini = 0.0\nsamples = 1\nvalue = [0, 1, 0, 0, 0, 0, 0, 0, 0, 0, 0]\nclass = 2011"] ;
61 -> 63 ;
64 [label="idhm <= 0.602\ngini = 0.449\nsamples = 7\nvalue = [0, 0, 0, 5, 1, 0, 0, 0, 0, 1, 0]\nclass = 2013"] ;
60 -> 64 ;
65 [label="exp_vida <= 71.805\ngini = 0.278\nsamples = 6\nvalue = [0, 0, 0, 5, 1, 0, 0, 0, 0, 0, 0]\nclass = 2013"] ;
64 -> 65 ;
66 [label="gini = 0.0\nsamples = 4\nvalue = [0, 0, 0, 4, 0, 0, 0, 0, 0, 0, 0]\nclass = 2013"] ;
65 -> 66 ;
67 [label="cob_vac_bcg <= 13.263\ngini = 0.5\nsamples = 2\nvalue = [0, 0, 0, 1, 1, 0, 0, 0, 0, 0, 0]\nclass = 2013"] ;
65 -> 67 ;
68 [label="gini = 0.0\nsamples = 1\nvalue = [0, 0, 0, 1, 0, 0, 0, 0, 0, 0, 0]\nclass = 2013"] ;
67 -> 68 ;
69 [label="gini = 0.0\nsamples = 1\nvalue = [0, 0, 0, 0, 1, 0, 0, 0, 0, 0, 0]\nclass = 2014"] ;
67 -> 69 ;
70 [label="gini = 0.0\nsamples = 1\nvalue = [0, 0, 0, 0, 0, 0, 0, 0, 0, 1, 0]\nclass = 2019"] ;
64 -> 70 ;
71 [label="exp_vida <= 69.64\ngini = 0.851\nsamples = 24\nvalue = [1, 0, 4, 0, 4, 0, 4, 2, 2, 2, 5]\nclass = 2020"] ;
3 -> 71 ;
72 [label="idhm <= 0.597\ngini = 0.722\nsamples = 12\nvalue = [0, 0, 3, 0, 0, 0, 1, 1, 0, 2, 5]\nclass = 2020"] ;
71 -> 72 ;
73 [label="exp_vida <= 68.54\ngini = 0.678\nsamples = 11\nvalue = [0, 0, 3, 0, 0, 0, 1, 0, 0, 2, 5]\nclass = 2020"] ;
72 -> 73 ;
74 [label="cob_vac_bcg <= 17.351\ngini = 0.716\nsamples = 9\nvalue = [0, 0, 3, 0, 0, 0, 1, 0, 0, 2, 3]\nclass = 2012"] ;
73 -> 74 ;
75 [label="exp_vida <= 67.575\ngini = 0.375\nsamples = 4\nvalue = [0, 0, 1, 0, 0, 0, 0, 0, 0, 0, 3]\nclass = 2020"] ;
74 -> 75 ;
76 [label="gini = 0.0\nsamples = 3\nvalue = [0, 0, 0, 0, 0, 0, 0, 0, 0, 0, 3]\nclass = 2020"] ;
75 -> 76 ;
77 [label="gini = 0.0\nsamples = 1\nvalue = [0, 0, 1, 0, 0, 0, 0, 0, 0, 0, 0]\nclass = 2012"] ;
75 -> 77 ;
78 [label="idhm <= 0.562\ngini = 0.64\nsamples = 5\nvalue = [0, 0, 2, 0, 0, 0, 1, 0, 0, 2, 0]\nclass = 2012"] ;
74 -> 78 ;
79 [label="cob_vac_bcg <= 17.537\ngini = 0.5\nsamples = 4\nvalue = [0, 0, 2, 0, 0, 0, 0, 0, 0, 2, 0]\nclass = 2012"] ;
78 -> 79 ;
80 [label="gini = 0.0\nsamples = 1\nvalue = [0, 0, 1, 0, 0, 0, 0, 0, 0, 0, 0]\nclass = 2012"] ;
79 -> 80 ;
81 [label="cob_vac_bcg <= 17.866\ngini = 0.444\nsamples = 3\nvalue = [0, 0, 1, 0, 0, 0, 0, 0, 0, 2, 0]\nclass = 2019"] ;
79 -> 81 ;
82 [label="gini = 0.0\nsamples = 2\nvalue = [0, 0, 0, 0, 0, 0, 0, 0, 0, 2, 0]\nclass = 2019"] ;
81 -> 82 ;
83 [label="gini = 0.0\nsamples = 1\nvalue = [0, 0, 1, 0, 0, 0, 0, 0, 0, 0, 0]\nclass = 2012"] ;
81 -> 83 ;
84 [label="gini = 0.0\nsamples = 1\nvalue = [0, 0, 0, 0, 0, 0, 1, 0, 0, 0, 0]\nclass = 2016"] ;
78 -> 84 ;
85 [label="gini = 0.0\nsamples = 2\nvalue = [0, 0, 0, 0, 0, 0, 0, 0, 0, 0, 2]\nclass = 2020"] ;
73 -> 85 ;
86 [label="gini = 0.0\nsamples = 1\nvalue = [0, 0, 0, 0, 0, 0, 0, 1, 0, 0, 0]\nclass = 2017"] ;
72 -> 86 ;
87 [label="exp_vida <= 72.235\ngini = 0.778\nsamples = 12\nvalue = [1, 0, 1, 0, 4, 0, 3, 1, 2, 0, 0]\nclass = 2014"] ;
71 -> 87 ;
88 [label="cob_vac_bcg <= 15.908\ngini = 0.741\nsamples = 9\nvalue = [1, 0, 1, 0, 4, 0, 1, 1, 1, 0, 0]\nclass = 2014"] ;
87 -> 88 ;
89 [label="gini = 0.0\nsamples = 1\nvalue = [1, 0, 0, 0, 0, 0, 0, 0, 0, 0, 0]\nclass = 2010"] ;
88 -> 89 ;
90 [label="idhm <= 0.562\ngini = 0.688\nsamples = 8\nvalue = [0, 0, 1, 0, 4, 0, 1, 1, 1, 0, 0]\nclass = 2014"] ;
88 -> 90 ;
91 [label="gini = 0.0\nsamples = 1\nvalue = [0, 0, 0, 0, 0, 0, 0, 0, 1, 0, 0]\nclass = 2018"] ;
90 -> 91 ;
92 [label="exp_vida <= 70.79\ngini = 0.612\nsamples = 7\nvalue = [0, 0, 1, 0, 4, 0, 1, 1, 0, 0, 0]\nclass = 2014"] ;
90 -> 92 ;
93 [label="cob_vac_bcg <= 17.694\ngini = 0.667\nsamples = 3\nvalue = [0, 0, 0, 0, 1, 0, 1, 1, 0, 0, 0]\nclass = 2014"] ;
92 -> 93 ;
94 [label="gini = 0.0\nsamples = 1\nvalue = [0, 0, 0, 0, 0, 0, 0, 1, 0, 0, 0]\nclass = 2017"] ;
93 -> 94 ;
95 [label="cob_vac_bcg <= 18.871\ngini = 0.5\nsamples = 2\nvalue = [0, 0, 0, 0, 1, 0, 1, 0, 0, 0, 0]\nclass = 2014"] ;
93 -> 95 ;
96 [label="gini = 0.0\nsamples = 1\nvalue = [0, 0, 0, 0, 0, 0, 1, 0, 0, 0, 0]\nclass = 2016"] ;
95 -> 96 ;
97 [label="gini = 0.0\nsamples = 1\nvalue = [0, 0, 0, 0, 1, 0, 0, 0, 0, 0, 0]\nclass = 2014"] ;
95 -> 97 ;
98 [label="cob_vac_bcg <= 18.677\ngini = 0.375\nsamples = 4\nvalue = [0, 0, 1, 0, 3, 0, 0, 0, 0, 0, 0]\nclass = 2014"] ;
92 -> 98 ;
99 [label="gini = 0.0\nsamples = 3\nvalue = [0, 0, 0, 0, 3, 0, 0, 0, 0, 0, 0]\nclass = 2014"] ;
98 -> 99 ;
100 [label="gini = 0.0\nsamples = 1\nvalue = [0, 0, 1, 0, 0, 0, 0, 0, 0, 0, 0]\nclass = 2012"] ;
98 -> 100 ;
101 [label="exp_vida <= 74.32\ngini = 0.444\nsamples = 3\nvalue = [0, 0, 0, 0, 0, 0, 2, 0, 1, 0, 0]\nclass = 2016"] ;
87 -> 101 ;
102 [label="gini = 0.0\nsamples = 2\nvalue = [0, 0, 0, 0, 0, 0, 2, 0, 0, 0, 0]\nclass = 2016"] ;
101 -> 102 ;
103 [label="gini = 0.0\nsamples = 1\nvalue = [0, 0, 0, 0, 0, 0, 0, 0, 1, 0, 0]\nclass = 2018"] ;
101 -> 103 ;
104 [label="exp_vida <= 70.175\ngini = 0.593\nsamples = 9\nvalue = [0, 0, 0, 4, 4, 0, 1, 0, 0, 0, 0]\nclass = 2013"] ;
2 -> 104 ;
105 [label="gini = 0.0\nsamples = 3\nvalue = [0, 0, 0, 3, 0, 0, 0, 0, 0, 0, 0]\nclass = 2013"] ;
104 -> 105 ;
106 [label="exp_vida <= 71.55\ngini = 0.5\nsamples = 6\nvalue = [0, 0, 0, 1, 4, 0, 1, 0, 0, 0, 0]\nclass = 2014"] ;
104 -> 106 ;
107 [label="gini = 0.0\nsamples = 4\nvalue = [0, 0, 0, 0, 4, 0, 0, 0, 0, 0, 0]\nclass = 2014"] ;
106 -> 107 ;
108 [label="cob_vac_bcg <= 20.376\ngini = 0.5\nsamples = 2\nvalue = [0, 0, 0, 1, 0, 0, 1, 0, 0, 0, 0]\nclass = 2013"] ;
106 -> 108 ;
109 [label="gini = 0.0\nsamples = 1\nvalue = [0, 0, 0, 0, 0, 0, 1, 0, 0, 0, 0]\nclass = 2016"] ;
108 -> 109 ;
110 [label="gini = 0.0\nsamples = 1\nvalue = [0, 0, 0, 1, 0, 0, 0, 0, 0, 0, 0]\nclass = 2013"] ;
108 -> 110 ;
111 [label="idhm <= 0.584\ngini = 0.898\nsamples = 477\nvalue = [18, 28, 45, 61, 58, 49, 64, 59, 33, 35, 27]\nclass = 2016"] ;
1 -> 111 ;
112 [label="cob_vac_bcg <= 34.965\ngini = 0.9\nsamples = 255\nvalue = [12, 14, 25, 38, 30, 25, 26, 26, 19, 24, 16]\nclass = 2013"] ;
111 -> 112 ;
113 [label="idhm <= 0.535\ngini = 0.891\nsamples = 96\nvalue = [2, 1, 9, 11, 13, 13, 7, 8, 12, 11, 9]\nclass = 2014"] ;
112 -> 113 ;
114 [label="cob_vac_bcg <= 33.066\ngini = 0.735\nsamples = 14\nvalue = [0, 0, 1, 0, 5, 4, 0, 0, 1, 0, 3]\nclass = 2014"] ;
113 -> 114 ;
115 [label="cob_vac_bcg <= 24.667\ngini = 0.68\nsamples = 10\nvalue = [0, 0, 1, 0, 5, 2, 0, 0, 1, 0, 1]\nclass = 2014"] ;
114 -> 115 ;
116 [label="cob_vac_bcg <= 24.426\ngini = 0.5\nsamples = 2\nvalue = [0, 0, 1, 0, 0, 1, 0, 0, 0, 0, 0]\nclass = 2012"] ;
115 -> 116 ;
117 [label="gini = 0.0\nsamples = 1\nvalue = [0, 0, 0, 0, 0, 1, 0, 0, 0, 0, 0]\nclass = 2015"] ;
116 -> 117 ;
118 [label="gini = 0.0\nsamples = 1\nvalue = [0, 0, 1, 0, 0, 0, 0, 0, 0, 0, 0]\nclass = 2012"] ;
116 -> 118 ;
119 [label="idhm <= 0.532\ngini = 0.562\nsamples = 8\nvalue = [0, 0, 0, 0, 5, 1, 0, 0, 1, 0, 1]\nclass = 2014"] ;
115 -> 119 ;
120 [label="idhm <= 0.529\ngini = 0.667\nsamples = 6\nvalue = [0, 0, 0, 0, 3, 1, 0, 0, 1, 0, 1]\nclass = 2014"] ;
119 -> 120 ;
121 [label="exp_vida <= 65.73\ngini = 0.444\nsamples = 3\nvalue = [0, 0, 0, 0, 2, 1, 0, 0, 0, 0, 0]\nclass = 2014"] ;
120 -> 121 ;
122 [label="cob_vac_bcg <= 25.366\ngini = 0.5\nsamples = 2\nvalue = [0, 0, 0, 0, 1, 1, 0, 0, 0, 0, 0]\nclass = 2014"] ;
121 -> 122 ;
123 [label="gini = 0.0\nsamples = 1\nvalue = [0, 0, 0, 0, 1, 0, 0, 0, 0, 0, 0]\nclass = 2014"] ;
122 -> 123 ;
124 [label="gini = 0.0\nsamples = 1\nvalue = [0, 0, 0, 0, 0, 1, 0, 0, 0, 0, 0]\nclass = 2015"] ;
122 -> 124 ;
125 [label="gini = 0.0\nsamples = 1\nvalue = [0, 0, 0, 0, 1, 0, 0, 0, 0, 0, 0]\nclass = 2014"] ;
121 -> 125 ;
126 [label="exp_vida <= 68.455\ngini = 0.667\nsamples = 3\nvalue = [0, 0, 0, 0, 1, 0, 0, 0, 1, 0, 1]\nclass = 2014"] ;
120 -> 126 ;
127 [label="gini = 0.0\nsamples = 1\nvalue = [0, 0, 0, 0, 0, 0, 0, 0, 0, 0, 1]\nclass = 2020"] ;
126 -> 127 ;
128 [label="cob_vac_bcg <= 32.396\ngini = 0.5\nsamples = 2\nvalue = [0, 0, 0, 0, 1, 0, 0, 0, 1, 0, 0]\nclass = 2014"] ;
126 -> 128 ;
129 [label="gini = 0.0\nsamples = 1\nvalue = [0, 0, 0, 0, 0, 0, 0, 0, 1, 0, 0]\nclass = 2018"] ;
128 -> 129 ;
130 [label="gini = 0.0\nsamples = 1\nvalue = [0, 0, 0, 0, 1, 0, 0, 0, 0, 0, 0]\nclass = 2014"] ;
128 -> 130 ;
131 [label="gini = 0.0\nsamples = 2\nvalue = [0, 0, 0, 0, 2, 0, 0, 0, 0, 0, 0]\nclass = 2014"] ;
119 -> 131 ;
132 [label="idhm <= 0.518\ngini = 0.5\nsamples = 4\nvalue = [0, 0, 0, 0, 0, 2, 0, 0, 0, 0, 2]\nclass = 2015"] ;
114 -> 132 ;
133 [label="gini = 0.0\nsamples = 1\nvalue = [0, 0, 0, 0, 0, 0, 0, 0, 0, 0, 1]\nclass = 2020"] ;
132 -> 133 ;
134 [label="exp_vida <= 68.27\ngini = 0.444\nsamples = 3\nvalue = [0, 0, 0, 0, 0, 2, 0, 0, 0, 0, 1]\nclass = 2015"] ;
132 -> 134 ;
135 [label="cob_vac_bcg <= 34.62\ngini = 0.5\nsamples = 2\nvalue = [0, 0, 0, 0, 0, 1, 0, 0, 0, 0, 1]\nclass = 2015"] ;
134 -> 135 ;
136 [label="gini = 0.0\nsamples = 1\nvalue = [0, 0, 0, 0, 0, 0, 0, 0, 0, 0, 1]\nclass = 2020"] ;
135 -> 136 ;
137 [label="gini = 0.0\nsamples = 1\nvalue = [0, 0, 0, 0, 0, 1, 0, 0, 0, 0, 0]\nclass = 2015"] ;
135 -> 137 ;
138 [label="gini = 0.0\nsamples = 1\nvalue = [0, 0, 0, 0, 0, 1, 0, 0, 0, 0, 0]\nclass = 2015"] ;
134 -> 138 ;
139 [label="cob_vac_bcg <= 34.468\ngini = 0.892\nsamples = 82\nvalue = [2, 1, 8, 11, 8, 9, 7, 8, 11, 11, 6]\nclass = 2013"] ;
113 -> 139 ;
140 [label="cob_vac_bcg <= 32.552\ngini = 0.892\nsamples = 76\nvalue = [2, 1, 8, 11, 7, 8, 7, 8, 11, 8, 5]\nclass = 2013"] ;
139 -> 140 ;
141 [label="cob_vac_bcg <= 32.17\ngini = 0.894\nsamples = 66\nvalue = [2, 1, 6, 7, 7, 7, 7, 8, 9, 8, 4]\nclass = 2018"] ;
140 -> 141 ;
142 [label="idhm <= 0.572\ngini = 0.894\nsamples = 64\nvalue = [2, 1, 6, 7, 7, 7, 7, 8, 9, 6, 4]\nclass = 2018"] ;
141 -> 142 ;
143 [label="cob_vac_bcg <= 29.427\ngini = 0.878\nsamples = 42\nvalue = [2, 0, 2, 5, 4, 1, 6, 6, 7, 6, 3]\nclass = 2018"] ;
142 -> 143 ;
144 [label="exp_vida <= 69.5\ngini = 0.845\nsamples = 31\nvalue = [0, 0, 2, 5, 3, 0, 3, 4, 7, 6, 1]\nclass = 2018"] ;
143 -> 144 ;
145 [label="cob_vac_bcg <= 25.636\ngini = 0.753\nsamples = 18\nvalue = [0, 0, 0, 3, 2, 0, 0, 1, 7, 4, 1]\nclass = 2018"] ;
144 -> 145 ;
146 [label="exp_vida <= 68.205\ngini = 0.765\nsamples = 9\nvalue = [0, 0, 0, 3, 0, 0, 0, 1, 2, 2, 1]\nclass = 2013"] ;
145 -> 146 ;
147 [label="cob_vac_bcg <= 25.288\ngini = 0.48\nsamples = 5\nvalue = [0, 0, 0, 3, 0, 0, 0, 0, 0, 2, 0]\nclass = 2013"] ;
146 -> 147 ;
148 [label="idhm <= 0.56\ngini = 0.444\nsamples = 3\nvalue = [0, 0, 0, 1, 0, 0, 0, 0, 0, 2, 0]\nclass = 2019"] ;
147 -> 148 ;
149 [label="gini = 0.0\nsamples = 1\nvalue = [0, 0, 0, 0, 0, 0, 0, 0, 0, 1, 0]\nclass = 2019"] ;
148 -> 149 ;
150 [label="cob_vac_bcg <= 24.564\ngini = 0.5\nsamples = 2\nvalue = [0, 0, 0, 1, 0, 0, 0, 0, 0, 1, 0]\nclass = 2013"] ;
148 -> 150 ;
151 [label="gini = 0.0\nsamples = 1\nvalue = [0, 0, 0, 1, 0, 0, 0, 0, 0, 0, 0]\nclass = 2013"] ;
150 -> 151 ;
152 [label="gini = 0.0\nsamples = 1\nvalue = [0, 0, 0, 0, 0, 0, 0, 0, 0, 1, 0]\nclass = 2019"] ;
150 -> 152 ;
153 [label="gini = 0.0\nsamples = 2\nvalue = [0, 0, 0, 2, 0, 0, 0, 0, 0, 0, 0]\nclass = 2013"] ;
147 -> 153 ;
154 [label="cob_vac_bcg <= 23.609\ngini = 0.625\nsamples = 4\nvalue = [0, 0, 0, 0, 0, 0, 0, 1, 2, 0, 1]\nclass = 2018"] ;
146 -> 154 ;
155 [label="idhm <= 0.542\ngini = 0.5\nsamples = 2\nvalue = [0, 0, 0, 0, 0, 0, 0, 1, 0, 0, 1]\nclass = 2017"] ;
154 -> 155 ;
156 [label="gini = 0.0\nsamples = 1\nvalue = [0, 0, 0, 0, 0, 0, 0, 1, 0, 0, 0]\nclass = 2017"] ;
155 -> 156 ;
157 [label="gini = 0.0\nsamples = 1\nvalue = [0, 0, 0, 0, 0, 0, 0, 0, 0, 0, 1]\nclass = 2020"] ;
155 -> 157 ;
158 [label="gini = 0.0\nsamples = 2\nvalue = [0, 0, 0, 0, 0, 0, 0, 0, 2, 0, 0]\nclass = 2018"] ;
154 -> 158 ;
159 [label="idhm <= 0.559\ngini = 0.593\nsamples = 9\nvalue = [0, 0, 0, 0, 2, 0, 0, 0, 5, 2, 0]\nclass = 2018"] ;
145 -> 159 ;
160 [label="gini = 0.0\nsamples = 3\nvalue = [0, 0, 0, 0, 0, 0, 0, 0, 3, 0, 0]\nclass = 2018"] ;
159 -> 160 ;
161 [label="cob_vac_bcg <= 26.681\ngini = 0.667\nsamples = 6\nvalue = [0, 0, 0, 0, 2, 0, 0, 0, 2, 2, 0]\nclass = 2014"] ;
159 -> 161 ;
162 [label="gini = 0.0\nsamples = 2\nvalue = [0, 0, 0, 0, 0, 0, 0, 0, 2, 0, 0]\nclass = 2018"] ;
161 -> 162 ;
163 [label="cob_vac_bcg <= 27.214\ngini = 0.5\nsamples = 4\nvalue = [0, 0, 0, 0, 2, 0, 0, 0, 0, 2, 0]\nclass = 2014"] ;
161 -> 163 ;
164 [label="gini = 0.0\nsamples = 1\nvalue = [0, 0, 0, 0, 1, 0, 0, 0, 0, 0, 0]\nclass = 2014"] ;
163 -> 164 ;
165 [label="cob_vac_bcg <= 28.436\ngini = 0.444\nsamples = 3\nvalue = [0, 0, 0, 0, 1, 0, 0, 0, 0, 2, 0]\nclass = 2019"] ;
163 -> 165 ;
166 [label="gini = 0.0\nsamples = 1\nvalue = [0, 0, 0, 0, 0, 0, 0, 0, 0, 1, 0]\nclass = 2019"] ;
165 -> 166 ;
167 [label="gini = 0.5\nsamples = 2\nvalue = [0, 0, 0, 0, 1, 0, 0, 0, 0, 1, 0]\nclass = 2014"] ;
165 -> 167 ;
168 [label="exp_vida <= 69.675\ngini = 0.817\nsamples = 13\nvalue = [0, 0, 2, 2, 1, 0, 3, 3, 0, 2, 0]\nclass = 2016"] ;
144 -> 168 ;
169 [label="gini = 0.0\nsamples = 3\nvalue = [0, 0, 0, 0, 0, 0, 3, 0, 0, 0, 0]\nclass = 2016"] ;
168 -> 169 ;
170 [label="exp_vida <= 70.25\ngini = 0.78\nsamples = 10\nvalue = [0, 0, 2, 2, 1, 0, 0, 3, 0, 2, 0]\nclass = 2017"] ;
168 -> 170 ;
171 [label="cob_vac_bcg <= 23.38\ngini = 0.64\nsamples = 5\nvalue = [0, 0, 2, 0, 1, 0, 0, 2, 0, 0, 0]\nclass = 2012"] ;
170 -> 171 ;
172 [label="idhm <= 0.552\ngini = 0.5\nsamples = 2\nvalue = [0, 0, 0, 0, 1, 0, 0, 1, 0, 0, 0]\nclass = 2014"] ;
171 -> 172 ;
173 [label="gini = 0.0\nsamples = 1\nvalue = [0, 0, 0, 0, 0, 0, 0, 1, 0, 0, 0]\nclass = 2017"] ;
172 -> 173 ;
174 [label="gini = 0.0\nsamples = 1\nvalue = [0, 0, 0, 0, 1, 0, 0, 0, 0, 0, 0]\nclass = 2014"] ;
172 -> 174 ;
175 [label="cob_vac_bcg <= 26.51\ngini = 0.444\nsamples = 3\nvalue = [0, 0, 2, 0, 0, 0, 0, 1, 0, 0, 0]\nclass = 2012"] ;
171 -> 175 ;
176 [label="gini = 0.0\nsamples = 2\nvalue = [0, 0, 2, 0, 0, 0, 0, 0, 0, 0, 0]\nclass = 2012"] ;
175 -> 176 ;
177 [label="gini = 0.0\nsamples = 1\nvalue = [0, 0, 0, 0, 0, 0, 0, 1, 0, 0, 0]\nclass = 2017"] ;
175 -> 177 ;
178 [label="idhm <= 0.569\ngini = 0.64\nsamples = 5\nvalue = [0, 0, 0, 2, 0, 0, 0, 1, 0, 2, 0]\nclass = 2013"] ;
170 -> 178 ;
179 [label="cob_vac_bcg <= 25.852\ngini = 0.444\nsamples = 3\nvalue = [0, 0, 0, 1, 0, 0, 0, 0, 0, 2, 0]\nclass = 2019"] ;
178 -> 179 ;
180 [label="gini = 0.0\nsamples = 1\nvalue = [0, 0, 0, 0, 0, 0, 0, 0, 0, 1, 0]\nclass = 2019"] ;
179 -> 180 ;
181 [label="cob_vac_bcg <= 27.051\ngini = 0.5\nsamples = 2\nvalue = [0, 0, 0, 1, 0, 0, 0, 0, 0, 1, 0]\nclass = 2013"] ;
179 -> 181 ;
182 [label="gini = 0.0\nsamples = 1\nvalue = [0, 0, 0, 1, 0, 0, 0, 0, 0, 0, 0]\nclass = 2013"] ;
181 -> 182 ;
183 [label="gini = 0.0\nsamples = 1\nvalue = [0, 0, 0, 0, 0, 0, 0, 0, 0, 1, 0]\nclass = 2019"] ;
181 -> 183 ;
184 [label="cob_vac_bcg <= 25.438\ngini = 0.5\nsamples = 2\nvalue = [0, 0, 0, 1, 0, 0, 0, 1, 0, 0, 0]\nclass = 2013"] ;
178 -> 184 ;
185 [label="gini = 0.0\nsamples = 1\nvalue = [0, 0, 0, 1, 0, 0, 0, 0, 0, 0, 0]\nclass = 2013"] ;
184 -> 185 ;
186 [label="gini = 0.0\nsamples = 1\nvalue = [0, 0, 0, 0, 0, 0, 0, 1, 0, 0, 0]\nclass = 2017"] ;
184 -> 186 ;
187 [label="exp_vida <= 69.765\ngini = 0.81\nsamples = 11\nvalue = [2, 0, 0, 0, 1, 1, 3, 2, 0, 0, 2]\nclass = 2016"] ;
143 -> 187 ;
188 [label="exp_vida <= 67.4\ngini = 0.75\nsamples = 8\nvalue = [0, 0, 0, 0, 1, 1, 3, 2, 0, 0, 1]\nclass = 2016"] ;
187 -> 188 ;
189 [label="cob_vac_bcg <= 29.87\ngini = 0.5\nsamples = 2\nvalue = [0, 0, 0, 0, 1, 0, 0, 1, 0, 0, 0]\nclass = 2014"] ;
188 -> 189 ;
190 [label="gini = 0.0\nsamples = 1\nvalue = [0, 0, 0, 0, 0, 0, 0, 1, 0, 0, 0]\nclass = 2017"] ;
189 -> 190 ;
191 [label="gini = 0.0\nsamples = 1\nvalue = [0, 0, 0, 0, 1, 0, 0, 0, 0, 0, 0]\nclass = 2014"] ;
189 -> 191 ;
192 [label="cob_vac_bcg <= 31.584\ngini = 0.667\nsamples = 6\nvalue = [0, 0, 0, 0, 0, 1, 3, 1, 0, 0, 1]\nclass = 2016"] ;
188 -> 192 ;
193 [label="idhm <= 0.558\ngini = 0.56\nsamples = 5\nvalue = [0, 0, 0, 0, 0, 1, 3, 0, 0, 0, 1]\nclass = 2016"] ;
192 -> 193 ;
194 [label="gini = 0.0\nsamples = 2\nvalue = [0, 0, 0, 0, 0, 0, 2, 0, 0, 0, 0]\nclass = 2016"] ;
193 -> 194 ;
195 [label="idhm <= 0.563\ngini = 0.667\nsamples = 3\nvalue = [0, 0, 0, 0, 0, 1, 1, 0, 0, 0, 1]\nclass = 2015"] ;
193 -> 195 ;
196 [label="gini = 0.0\nsamples = 1\nvalue = [0, 0, 0, 0, 0, 0, 0, 0, 0, 0, 1]\nclass = 2020"] ;
195 -> 196 ;
197 [label="cob_vac_bcg <= 31.307\ngini = 0.5\nsamples = 2\nvalue = [0, 0, 0, 0, 0, 1, 1, 0, 0, 0, 0]\nclass = 2015"] ;
195 -> 197 ;
198 [label="gini = 0.0\nsamples = 1\nvalue = [0, 0, 0, 0, 0, 1, 0, 0, 0, 0, 0]\nclass = 2015"] ;
197 -> 198 ;
199 [label="gini = 0.0\nsamples = 1\nvalue = [0, 0, 0, 0, 0, 0, 1, 0, 0, 0, 0]\nclass = 2016"] ;
197 -> 199 ;
200 [label="gini = 0.0\nsamples = 1\nvalue = [0, 0, 0, 0, 0, 0, 0, 1, 0, 0, 0]\nclass = 2017"] ;
192 -> 200 ;
201 [label="idhm <= 0.562\ngini = 0.444\nsamples = 3\nvalue = [2, 0, 0, 0, 0, 0, 0, 0, 0, 0, 1]\nclass = 2010"] ;
187 -> 201 ;
202 [label="gini = 0.0\nsamples = 2\nvalue = [2, 0, 0, 0, 0, 0, 0, 0, 0, 0, 0]\nclass = 2010"] ;
201 -> 202 ;
203 [label="gini = 0.0\nsamples = 1\nvalue = [0, 0, 0, 0, 0, 0, 0, 0, 0, 0, 1]\nclass = 2020"] ;
201 -> 203 ;
204 [label="exp_vida <= 70.17\ngini = 0.843\nsamples = 22\nvalue = [0, 1, 4, 2, 3, 6, 1, 2, 2, 0, 1]\nclass = 2015"] ;
142 -> 204 ;
205 [label="exp_vida <= 67.53\ngini = 0.773\nsamples = 16\nvalue = [0, 1, 4, 1, 1, 6, 0, 1, 1, 0, 1]\nclass = 2015"] ;
204 -> 205 ;
206 [label="gini = 0.0\nsamples = 2\nvalue = [0, 0, 0, 0, 0, 2, 0, 0, 0, 0, 0]\nclass = 2015"] ;
205 -> 206 ;
207 [label="cob_vac_bcg <= 30.721\ngini = 0.806\nsamples = 14\nvalue = [0, 1, 4, 1, 1, 4, 0, 1, 1, 0, 1]\nclass = 2012"] ;
205 -> 207 ;
208 [label="cob_vac_bcg <= 28.599\ngini = 0.75\nsamples = 12\nvalue = [0, 0, 4, 1, 1, 4, 0, 1, 1, 0, 0]\nclass = 2012"] ;
207 -> 208 ;
209 [label="exp_vida <= 70.11\ngini = 0.76\nsamples = 10\nvalue = [0, 0, 2, 1, 1, 4, 0, 1, 1, 0, 0]\nclass = 2015"] ;
208 -> 209 ;
210 [label="exp_vida <= 68.4\ngini = 0.667\nsamples = 6\nvalue = [0, 0, 0, 1, 1, 3, 0, 0, 1, 0, 0]\nclass = 2015"] ;
209 -> 210 ;
211 [label="cob_vac_bcg <= 25.326\ngini = 0.667\nsamples = 3\nvalue = [0, 0, 0, 1, 1, 1, 0, 0, 0, 0, 0]\nclass = 2013"] ;
210 -> 211 ;
212 [label="gini = 0.0\nsamples = 1\nvalue = [0, 0, 0, 1, 0, 0, 0, 0, 0, 0, 0]\nclass = 2013"] ;
211 -> 212 ;
213 [label="cob_vac_bcg <= 26.477\ngini = 0.5\nsamples = 2\nvalue = [0, 0, 0, 0, 1, 1, 0, 0, 0, 0, 0]\nclass = 2014"] ;
211 -> 213 ;
214 [label="gini = 0.0\nsamples = 1\nvalue = [0, 0, 0, 0, 0, 1, 0, 0, 0, 0, 0]\nclass = 2015"] ;
213 -> 214 ;
215 [label="gini = 0.0\nsamples = 1\nvalue = [0, 0, 0, 0, 1, 0, 0, 0, 0, 0, 0]\nclass = 2014"] ;
213 -> 215 ;
216 [label="cob_vac_bcg <= 23.809\ngini = 0.444\nsamples = 3\nvalue = [0, 0, 0, 0, 0, 2, 0, 0, 1, 0, 0]\nclass = 2015"] ;
210 -> 216 ;
217 [label="gini = 0.0\nsamples = 1\nvalue = [0, 0, 0, 0, 0, 1, 0, 0, 0, 0, 0]\nclass = 2015"] ;
216 -> 217 ;
218 [label="cob_vac_bcg <= 26.198\ngini = 0.5\nsamples = 2\nvalue = [0, 0, 0, 0, 0, 1, 0, 0, 1, 0, 0]\nclass = 2015"] ;
216 -> 218 ;
219 [label="gini = 0.0\nsamples = 1\nvalue = [0, 0, 0, 0, 0, 0, 0, 0, 1, 0, 0]\nclass = 2018"] ;
218 -> 219 ;
220 [label="gini = 0.0\nsamples = 1\nvalue = [0, 0, 0, 0, 0, 1, 0, 0, 0, 0, 0]\nclass = 2015"] ;
218 -> 220 ;
221 [label="cob_vac_bcg <= 26.617\ngini = 0.625\nsamples = 4\nvalue = [0, 0, 2, 0, 0, 1, 0, 1, 0, 0, 0]\nclass = 2012"] ;
209 -> 221 ;
222 [label="exp_vida <= 70.15\ngini = 0.444\nsamples = 3\nvalue = [0, 0, 2, 0, 0, 1, 0, 0, 0, 0, 0]\nclass = 2012"] ;
221 -> 222 ;
223 [label="gini = 0.0\nsamples = 1\nvalue = [0, 0, 1, 0, 0, 0, 0, 0, 0, 0, 0]\nclass = 2012"] ;
222 -> 223 ;
224 [label="cob_vac_bcg <= 25.236\ngini = 0.5\nsamples = 2\nvalue = [0, 0, 1, 0, 0, 1, 0, 0, 0, 0, 0]\nclass = 2012"] ;
222 -> 224 ;
225 [label="gini = 0.0\nsamples = 1\nvalue = [0, 0, 0, 0, 0, 1, 0, 0, 0, 0, 0]\nclass = 2015"] ;
224 -> 225 ;
226 [label="gini = 0.0\nsamples = 1\nvalue = [0, 0, 1, 0, 0, 0, 0, 0, 0, 0, 0]\nclass = 2012"] ;
224 -> 226 ;
227 [label="gini = 0.0\nsamples = 1\nvalue = [0, 0, 0, 0, 0, 0, 0, 1, 0, 0, 0]\nclass = 2017"] ;
221 -> 227 ;
228 [label="gini = 0.0\nsamples = 2\nvalue = [0, 0, 2, 0, 0, 0, 0, 0, 0, 0, 0]\nclass = 2012"] ;
208 -> 228 ;
229 [label="cob_vac_bcg <= 31.296\ngini = 0.5\nsamples = 2\nvalue = [0, 1, 0, 0, 0, 0, 0, 0, 0, 0, 1]\nclass = 2011"] ;
207 -> 229 ;
230 [label="gini = 0.0\nsamples = 1\nvalue = [0, 1, 0, 0, 0, 0, 0, 0, 0, 0, 0]\nclass = 2011"] ;
229 -> 230 ;
231 [label="gini = 0.0\nsamples = 1\nvalue = [0, 0, 0, 0, 0, 0, 0, 0, 0, 0, 1]\nclass = 2020"] ;
229 -> 231 ;
232 [label="cob_vac_bcg <= 28.134\ngini = 0.778\nsamples = 6\nvalue = [0, 0, 0, 1, 2, 0, 1, 1, 1, 0, 0]\nclass = 2014"] ;
204 -> 232 ;
233 [label="idhm <= 0.577\ngini = 0.444\nsamples = 3\nvalue = [0, 0, 0, 1, 2, 0, 0, 0, 0, 0, 0]\nclass = 2014"] ;
232 -> 233 ;
234 [label="gini = 0.0\nsamples = 1\nvalue = [0, 0, 0, 0, 1, 0, 0, 0, 0, 0, 0]\nclass = 2014"] ;
233 -> 234 ;
235 [label="cob_vac_bcg <= 27.554\ngini = 0.5\nsamples = 2\nvalue = [0, 0, 0, 1, 1, 0, 0, 0, 0, 0, 0]\nclass = 2013"] ;
233 -> 235 ;
236 [label="gini = 0.0\nsamples = 1\nvalue = [0, 0, 0, 1, 0, 0, 0, 0, 0, 0, 0]\nclass = 2013"] ;
235 -> 236 ;
237 [label="gini = 0.0\nsamples = 1\nvalue = [0, 0, 0, 0, 1, 0, 0, 0, 0, 0, 0]\nclass = 2014"] ;
235 -> 237 ;
238 [label="cob_vac_bcg <= 29.203\ngini = 0.667\nsamples = 3\nvalue = [0, 0, 0, 0, 0, 0, 1, 1, 1, 0, 0]\nclass = 2016"] ;
232 -> 238 ;
239 [label="gini = 0.0\nsamples = 1\nvalue = [0, 0, 0, 0, 0, 0, 0, 1, 0, 0, 0]\nclass = 2017"] ;
238 -> 239 ;
240 [label="exp_vida <= 70.825\ngini = 0.5\nsamples = 2\nvalue = [0, 0, 0, 0, 0, 0, 1, 0, 1, 0, 0]\nclass = 2016"] ;
238 -> 240 ;
241 [label="gini = 0.0\nsamples = 1\nvalue = [0, 0, 0, 0, 0, 0, 0, 0, 1, 0, 0]\nclass = 2018"] ;
240 -> 241 ;
242 [label="gini = 0.0\nsamples = 1\nvalue = [0, 0, 0, 0, 0, 0, 1, 0, 0, 0, 0]\nclass = 2016"] ;
240 -> 242 ;
243 [label="gini = 0.0\nsamples = 2\nvalue = [0, 0, 0, 0, 0, 0, 0, 0, 0, 2, 0]\nclass = 2019"] ;
141 -> 243 ;
244 [label="exp_vida <= 69.905\ngini = 0.74\nsamples = 10\nvalue = [0, 0, 2, 4, 0, 1, 0, 0, 2, 0, 1]\nclass = 2013"] ;
140 -> 244 ;
245 [label="cob_vac_bcg <= 33.542\ngini = 0.612\nsamples = 7\nvalue = [0, 0, 1, 4, 0, 1, 0, 0, 0, 0, 1]\nclass = 2013"] ;
244 -> 245 ;
246 [label="idhm <= 0.552\ngini = 0.667\nsamples = 3\nvalue = [0, 0, 1, 1, 0, 1, 0, 0, 0, 0, 0]\nclass = 2012"] ;
245 -> 246 ;
247 [label="gini = 0.0\nsamples = 1\nvalue = [0, 0, 1, 0, 0, 0, 0, 0, 0, 0, 0]\nclass = 2012"] ;
246 -> 247 ;
248 [label="idhm <= 0.567\ngini = 0.5\nsamples = 2\nvalue = [0, 0, 0, 1, 0, 1, 0, 0, 0, 0, 0]\nclass = 2013"] ;
246 -> 248 ;
249 [label="gini = 0.0\nsamples = 1\nvalue = [0, 0, 0, 0, 0, 1, 0, 0, 0, 0, 0]\nclass = 2015"] ;
248 -> 249 ;
250 [label="gini = 0.0\nsamples = 1\nvalue = [0, 0, 0, 1, 0, 0, 0, 0, 0, 0, 0]\nclass = 2013"] ;
248 -> 250 ;
251 [label="cob_vac_bcg <= 34.212\ngini = 0.375\nsamples = 4\nvalue = [0, 0, 0, 3, 0, 0, 0, 0, 0, 0, 1]\nclass = 2013"] ;
245 -> 251 ;
252 [label="idhm <= 0.551\ngini = 0.5\nsamples = 2\nvalue = [0, 0, 0, 1, 0, 0, 0, 0, 0, 0, 1]\nclass = 2013"] ;
251 -> 252 ;
253 [label="gini = 0.0\nsamples = 1\nvalue = [0, 0, 0, 1, 0, 0, 0, 0, 0, 0, 0]\nclass = 2013"] ;
252 -> 253 ;
254 [label="gini = 0.0\nsamples = 1\nvalue = [0, 0, 0, 0, 0, 0, 0, 0, 0, 0, 1]\nclass = 2020"] ;
252 -> 254 ;
255 [label="gini = 0.0\nsamples = 2\nvalue = [0, 0, 0, 2, 0, 0, 0, 0, 0, 0, 0]\nclass = 2013"] ;
251 -> 255 ;
256 [label="idhm <= 0.577\ngini = 0.444\nsamples = 3\nvalue = [0, 0, 1, 0, 0, 0, 0, 0, 2, 0, 0]\nclass = 2018"] ;
244 -> 256 ;
257 [label="gini = 0.0\nsamples = 2\nvalue = [0, 0, 0, 0, 0, 0, 0, 0, 2, 0, 0]\nclass = 2018"] ;
256 -> 257 ;
258 [label="gini = 0.0\nsamples = 1\nvalue = [0, 0, 1, 0, 0, 0, 0, 0, 0, 0, 0]\nclass = 2012"] ;
256 -> 258 ;
259 [label="idhm <= 0.555\ngini = 0.667\nsamples = 6\nvalue = [0, 0, 0, 0, 1, 1, 0, 0, 0, 3, 1]\nclass = 2019"] ;
139 -> 259 ;
260 [label="idhm <= 0.547\ngini = 0.667\nsamples = 3\nvalue = [0, 0, 0, 0, 1, 1, 0, 0, 0, 0, 1]\nclass = 2014"] ;
259 -> 260 ;
261 [label="gini = 0.0\nsamples = 1\nvalue = [0, 0, 0, 0, 0, 0, 0, 0, 0, 0, 1]\nclass = 2020"] ;
260 -> 261 ;
262 [label="cob_vac_bcg <= 34.749\ngini = 0.5\nsamples = 2\nvalue = [0, 0, 0, 0, 1, 1, 0, 0, 0, 0, 0]\nclass = 2014"] ;
260 -> 262 ;
263 [label="gini = 0.0\nsamples = 1\nvalue = [0, 0, 0, 0, 1, 0, 0, 0, 0, 0, 0]\nclass = 2014"] ;
262 -> 263 ;
264 [label="gini = 0.0\nsamples = 1\nvalue = [0, 0, 0, 0, 0, 1, 0, 0, 0, 0, 0]\nclass = 2015"] ;
262 -> 264 ;
265 [label="gini = 0.0\nsamples = 3\nvalue = [0, 0, 0, 0, 0, 0, 0, 0, 0, 3, 0]\nclass = 2019"] ;
259 -> 265 ;
266 [label="cob_vac_bcg <= 43.613\ngini = 0.896\nsamples = 159\nvalue = [10, 13, 16, 27, 17, 12, 19, 18, 7, 13, 7]\nclass = 2013"] ;
112 -> 266 ;
267 [label="exp_vida <= 68.215\ngini = 0.886\nsamples = 74\nvalue = [2, 11, 7, 11, 10, 5, 10, 5, 2, 8, 3]\nclass = 2011"] ;
266 -> 267 ;
268 [label="idhm <= 0.551\ngini = 0.858\nsamples = 23\nvalue = [2, 3, 1, 2, 1, 0, 5, 5, 1, 2, 1]\nclass = 2016"] ;
267 -> 268 ;
269 [label="idhm <= 0.498\ngini = 0.755\nsamples = 14\nvalue = [0, 1, 1, 2, 0, 0, 4, 5, 1, 0, 0]\nclass = 2017"] ;
268 -> 269 ;
270 [label="gini = 0.0\nsamples = 1\nvalue = [0, 0, 1, 0, 0, 0, 0, 0, 0, 0, 0]\nclass = 2012"] ;
269 -> 270 ;
271 [label="cob_vac_bcg <= 40.669\ngini = 0.722\nsamples = 13\nvalue = [0, 1, 0, 2, 0, 0, 4, 5, 1, 0, 0]\nclass = 2017"] ;
269 -> 271 ;
272 [label="cob_vac_bcg <= 37.335\ngini = 0.64\nsamples = 10\nvalue = [0, 0, 0, 2, 0, 0, 4, 4, 0, 0, 0]\nclass = 2016"] ;
271 -> 272 ;
273 [label="exp_vida <= 66.745\ngini = 0.444\nsamples = 3\nvalue = [0, 0, 0, 1, 0, 0, 0, 2, 0, 0, 0]\nclass = 2017"] ;
272 -> 273 ;
274 [label="cob_vac_bcg <= 36.113\ngini = 0.5\nsamples = 2\nvalue = [0, 0, 0, 1, 0, 0, 0, 1, 0, 0, 0]\nclass = 2013"] ;
273 -> 274 ;
275 [label="gini = 0.0\nsamples = 1\nvalue = [0, 0, 0, 1, 0, 0, 0, 0, 0, 0, 0]\nclass = 2013"] ;
274 -> 275 ;
276 [label="gini = 0.0\nsamples = 1\nvalue = [0, 0, 0, 0, 0, 0, 0, 1, 0, 0, 0]\nclass = 2017"] ;
274 -> 276 ;
277 [label="gini = 0.0\nsamples = 1\nvalue = [0, 0, 0, 0, 0, 0, 0, 1, 0, 0, 0]\nclass = 2017"] ;
273 -> 277 ;
278 [label="exp_vida <= 66.155\ngini = 0.571\nsamples = 7\nvalue = [0, 0, 0, 1, 0, 0, 4, 2, 0, 0, 0]\nclass = 2016"] ;
272 -> 278 ;
279 [label="gini = 0.0\nsamples = 2\nvalue = [0, 0, 0, 0, 0, 0, 2, 0, 0, 0, 0]\nclass = 2016"] ;
278 -> 279 ;
280 [label="cob_vac_bcg <= 38.385\ngini = 0.64\nsamples = 5\nvalue = [0, 0, 0, 1, 0, 0, 2, 2, 0, 0, 0]\nclass = 2016"] ;
278 -> 280 ;
281 [label="gini = 0.0\nsamples = 2\nvalue = [0, 0, 0, 0, 0, 0, 2, 0, 0, 0, 0]\nclass = 2016"] ;
280 -> 281 ;
282 [label="cob_vac_bcg <= 38.907\ngini = 0.444\nsamples = 3\nvalue = [0, 0, 0, 1, 0, 0, 0, 2, 0, 0, 0]\nclass = 2017"] ;
280 -> 282 ;
283 [label="gini = 0.0\nsamples = 1\nvalue = [0, 0, 0, 1, 0, 0, 0, 0, 0, 0, 0]\nclass = 2013"] ;
282 -> 283 ;
284 [label="gini = 0.0\nsamples = 2\nvalue = [0, 0, 0, 0, 0, 0, 0, 2, 0, 0, 0]\nclass = 2017"] ;
282 -> 284 ;
285 [label="idhm <= 0.527\ngini = 0.667\nsamples = 3\nvalue = [0, 1, 0, 0, 0, 0, 0, 1, 1, 0, 0]\nclass = 2011"] ;
271 -> 285 ;
286 [label="gini = 0.0\nsamples = 1\nvalue = [0, 1, 0, 0, 0, 0, 0, 0, 0, 0, 0]\nclass = 2011"] ;
285 -> 286 ;
287 [label="exp_vida <= 66.76\ngini = 0.5\nsamples = 2\nvalue = [0, 0, 0, 0, 0, 0, 0, 1, 1, 0, 0]\nclass = 2017"] ;
285 -> 287 ;
288 [label="gini = 0.0\nsamples = 1\nvalue = [0, 0, 0, 0, 0, 0, 0, 1, 0, 0, 0]\nclass = 2017"] ;
287 -> 288 ;
289 [label="gini = 0.0\nsamples = 1\nvalue = [0, 0, 0, 0, 0, 0, 0, 0, 1, 0, 0]\nclass = 2018"] ;
287 -> 289 ;
290 [label="idhm <= 0.559\ngini = 0.815\nsamples = 9\nvalue = [2, 2, 0, 0, 1, 0, 1, 0, 0, 2, 1]\nclass = 2010"] ;
268 -> 290 ;
291 [label="cob_vac_bcg <= 37.519\ngini = 0.444\nsamples = 3\nvalue = [2, 0, 0, 0, 1, 0, 0, 0, 0, 0, 0]\nclass = 2010"] ;
290 -> 291 ;
292 [label="gini = 0.0\nsamples = 1\nvalue = [0, 0, 0, 0, 1, 0, 0, 0, 0, 0, 0]\nclass = 2014"] ;
291 -> 292 ;
293 [label="gini = 0.0\nsamples = 2\nvalue = [2, 0, 0, 0, 0, 0, 0, 0, 0, 0, 0]\nclass = 2010"] ;
291 -> 293 ;
294 [label="exp_vida <= 66.36\ngini = 0.722\nsamples = 6\nvalue = [0, 2, 0, 0, 0, 0, 1, 0, 0, 2, 1]\nclass = 2011"] ;
290 -> 294 ;
295 [label="gini = 0.0\nsamples = 1\nvalue = [0, 0, 0, 0, 0, 0, 0, 0, 0, 0, 1]\nclass = 2020"] ;
294 -> 295 ;
296 [label="idhm <= 0.575\ngini = 0.64\nsamples = 5\nvalue = [0, 2, 0, 0, 0, 0, 1, 0, 0, 2, 0]\nclass = 2011"] ;
294 -> 296 ;
297 [label="exp_vida <= 67.7\ngini = 0.5\nsamples = 4\nvalue = [0, 2, 0, 0, 0, 0, 0, 0, 0, 2, 0]\nclass = 2011"] ;
296 -> 297 ;
298 [label="cob_vac_bcg <= 39.063\ngini = 0.444\nsamples = 3\nvalue = [0, 1, 0, 0, 0, 0, 0, 0, 0, 2, 0]\nclass = 2019"] ;
297 -> 298 ;
299 [label="gini = 0.0\nsamples = 1\nvalue = [0, 0, 0, 0, 0, 0, 0, 0, 0, 1, 0]\nclass = 2019"] ;
298 -> 299 ;
300 [label="cob_vac_bcg <= 41.831\ngini = 0.5\nsamples = 2\nvalue = [0, 1, 0, 0, 0, 0, 0, 0, 0, 1, 0]\nclass = 2011"] ;
298 -> 300 ;
301 [label="gini = 0.0\nsamples = 1\nvalue = [0, 1, 0, 0, 0, 0, 0, 0, 0, 0, 0]\nclass = 2011"] ;
300 -> 301 ;
302 [label="gini = 0.0\nsamples = 1\nvalue = [0, 0, 0, 0, 0, 0, 0, 0, 0, 1, 0]\nclass = 2019"] ;
300 -> 302 ;
303 [label="gini = 0.0\nsamples = 1\nvalue = [0, 1, 0, 0, 0, 0, 0, 0, 0, 0, 0]\nclass = 2011"] ;
297 -> 303 ;
304 [label="gini = 0.0\nsamples = 1\nvalue = [0, 0, 0, 0, 0, 0, 1, 0, 0, 0, 0]\nclass = 2016"] ;
296 -> 304 ;
305 [label="cob_vac_bcg <= 37.228\ngini = 0.864\nsamples = 51\nvalue = [0, 8, 6, 9, 9, 5, 5, 0, 1, 6, 2]\nclass = 2013"] ;
267 -> 305 ;
306 [label="exp_vida <= 69.6\ngini = 0.76\nsamples = 11\nvalue = [0, 2, 1, 2, 0, 0, 2, 0, 0, 4, 0]\nclass = 2019"] ;
305 -> 306 ;
307 [label="exp_vida <= 68.555\ngini = 0.656\nsamples = 8\nvalue = [0, 0, 1, 1, 0, 0, 2, 0, 0, 4, 0]\nclass = 2019"] ;
306 -> 307 ;
308 [label="exp_vida <= 68.425\ngini = 0.5\nsamples = 2\nvalue = [0, 0, 1, 1, 0, 0, 0, 0, 0, 0, 0]\nclass = 2012"] ;
307 -> 308 ;
309 [label="gini = 0.0\nsamples = 1\nvalue = [0, 0, 0, 1, 0, 0, 0, 0, 0, 0, 0]\nclass = 2013"] ;
308 -> 309 ;
310 [label="gini = 0.0\nsamples = 1\nvalue = [0, 0, 1, 0, 0, 0, 0, 0, 0, 0, 0]\nclass = 2012"] ;
308 -> 310 ;
311 [label="cob_vac_bcg <= 35.935\ngini = 0.444\nsamples = 6\nvalue = [0, 0, 0, 0, 0, 0, 2, 0, 0, 4, 0]\nclass = 2019"] ;
307 -> 311 ;
312 [label="gini = 0.0\nsamples = 2\nvalue = [0, 0, 0, 0, 0, 0, 0, 0, 0, 2, 0]\nclass = 2019"] ;
311 -> 312 ;
313 [label="exp_vida <= 68.815\ngini = 0.5\nsamples = 4\nvalue = [0, 0, 0, 0, 0, 0, 2, 0, 0, 2, 0]\nclass = 2016"] ;
311 -> 313 ;
314 [label="gini = 0.0\nsamples = 1\nvalue = [0, 0, 0, 0, 0, 0, 0, 0, 0, 1, 0]\nclass = 2019"] ;
313 -> 314 ;
315 [label="exp_vida <= 69.5\ngini = 0.444\nsamples = 3\nvalue = [0, 0, 0, 0, 0, 0, 2, 0, 0, 1, 0]\nclass = 2016"] ;
313 -> 315 ;
316 [label="gini = 0.0\nsamples = 2\nvalue = [0, 0, 0, 0, 0, 0, 2, 0, 0, 0, 0]\nclass = 2016"] ;
315 -> 316 ;
317 [label="gini = 0.0\nsamples = 1\nvalue = [0, 0, 0, 0, 0, 0, 0, 0, 0, 1, 0]\nclass = 2019"] ;
315 -> 317 ;
318 [label="idhm <= 0.572\ngini = 0.444\nsamples = 3\nvalue = [0, 2, 0, 1, 0, 0, 0, 0, 0, 0, 0]\nclass = 2011"] ;
306 -> 318 ;
319 [label="gini = 0.0\nsamples = 2\nvalue = [0, 2, 0, 0, 0, 0, 0, 0, 0, 0, 0]\nclass = 2011"] ;
318 -> 319 ;
320 [label="gini = 0.0\nsamples = 1\nvalue = [0, 0, 0, 1, 0, 0, 0, 0, 0, 0, 0]\nclass = 2013"] ;
318 -> 320 ;
321 [label="idhm <= 0.579\ngini = 0.854\nsamples = 40\nvalue = [0, 6, 5, 7, 9, 5, 3, 0, 1, 2, 2]\nclass = 2014"] ;
305 -> 321 ;
322 [label="idhm <= 0.528\ngini = 0.847\nsamples = 37\nvalue = [0, 4, 5, 7, 9, 5, 2, 0, 1, 2, 2]\nclass = 2014"] ;
321 -> 322 ;
323 [label="cob_vac_bcg <= 40.915\ngini = 0.64\nsamples = 5\nvalue = [0, 0, 2, 2, 0, 0, 0, 0, 0, 0, 1]\nclass = 2012"] ;
322 -> 323 ;
324 [label="cob_vac_bcg <= 39.15\ngini = 0.5\nsamples = 4\nvalue = [0, 0, 2, 2, 0, 0, 0, 0, 0, 0, 0]\nclass = 2012"] ;
323 -> 324 ;
325 [label="gini = 0.0\nsamples = 1\nvalue = [0, 0, 1, 0, 0, 0, 0, 0, 0, 0, 0]\nclass = 2012"] ;
324 -> 325 ;
326 [label="idhm <= 0.523\ngini = 0.444\nsamples = 3\nvalue = [0, 0, 1, 2, 0, 0, 0, 0, 0, 0, 0]\nclass = 2013"] ;
324 -> 326 ;
327 [label="cob_vac_bcg <= 40.522\ngini = 0.5\nsamples = 2\nvalue = [0, 0, 1, 1, 0, 0, 0, 0, 0, 0, 0]\nclass = 2012"] ;
326 -> 327 ;
328 [label="gini = 0.0\nsamples = 1\nvalue = [0, 0, 1, 0, 0, 0, 0, 0, 0, 0, 0]\nclass = 2012"] ;
327 -> 328 ;
329 [label="gini = 0.0\nsamples = 1\nvalue = [0, 0, 0, 1, 0, 0, 0, 0, 0, 0, 0]\nclass = 2013"] ;
327 -> 329 ;
330 [label="gini = 0.0\nsamples = 1\nvalue = [0, 0, 0, 1, 0, 0, 0, 0, 0, 0, 0]\nclass = 2013"] ;
326 -> 330 ;
331 [label="gini = 0.0\nsamples = 1\nvalue = [0, 0, 0, 0, 0, 0, 0, 0, 0, 0, 1]\nclass = 2020"] ;
323 -> 331 ;
332 [label="cob_vac_bcg <= 43.495\ngini = 0.838\nsamples = 32\nvalue = [0, 4, 3, 5, 9, 5, 2, 0, 1, 2, 1]\nclass = 2014"] ;
322 -> 332 ;
333 [label="idhm <= 0.529\ngini = 0.82\nsamples = 30\nvalue = [0, 4, 3, 5, 9, 5, 2, 0, 1, 1, 0]\nclass = 2014"] ;
332 -> 333 ;
334 [label="gini = 0.0\nsamples = 1\nvalue = [0, 0, 0, 0, 0, 0, 0, 0, 0, 1, 0]\nclass = 2019"] ;
333 -> 334 ;
335 [label="cob_vac_bcg <= 37.323\ngini = 0.809\nsamples = 29\nvalue = [0, 4, 3, 5, 9, 5, 2, 0, 1, 0, 0]\nclass = 2014"] ;
333 -> 335 ;
336 [label="gini = 0.0\nsamples = 1\nvalue = [0, 0, 1, 0, 0, 0, 0, 0, 0, 0, 0]\nclass = 2012"] ;
335 -> 336 ;
337 [label="idhm <= 0.531\ngini = 0.801\nsamples = 28\nvalue = [0, 4, 2, 5, 9, 5, 2, 0, 1, 0, 0]\nclass = 2014"] ;
335 -> 337 ;
338 [label="gini = 0.0\nsamples = 1\nvalue = [0, 1, 0, 0, 0, 0, 0, 0, 0, 0, 0]\nclass = 2011"] ;
337 -> 338 ;
339 [label="idhm <= 0.565\ngini = 0.796\nsamples = 27\nvalue = [0, 3, 2, 5, 9, 5, 2, 0, 1, 0, 0]\nclass = 2014"] ;
337 -> 339 ;
340 [label="cob_vac_bcg <= 40.082\ngini = 0.74\nsamples = 10\nvalue = [0, 1, 1, 2, 4, 0, 2, 0, 0, 0, 0]\nclass = 2014"] ;
339 -> 340 ;
341 [label="cob_vac_bcg <= 39.056\ngini = 0.722\nsamples = 6\nvalue = [0, 0, 1, 2, 1, 0, 2, 0, 0, 0, 0]\nclass = 2013"] ;
340 -> 341 ;
342 [label="cob_vac_bcg <= 37.893\ngini = 0.444\nsamples = 3\nvalue = [0, 0, 0, 2, 1, 0, 0, 0, 0, 0, 0]\nclass = 2013"] ;
341 -> 342 ;
343 [label="gini = 0.0\nsamples = 1\nvalue = [0, 0, 0, 0, 1, 0, 0, 0, 0, 0, 0]\nclass = 2014"] ;
342 -> 343 ;
344 [label="gini = 0.0\nsamples = 2\nvalue = [0, 0, 0, 2, 0, 0, 0, 0, 0, 0, 0]\nclass = 2013"] ;
342 -> 344 ;
345 [label="exp_vida <= 68.425\ngini = 0.444\nsamples = 3\nvalue = [0, 0, 1, 0, 0, 0, 2, 0, 0, 0, 0]\nclass = 2016"] ;
341 -> 345 ;
346 [label="gini = 0.0\nsamples = 1\nvalue = [0, 0, 1, 0, 0, 0, 0, 0, 0, 0, 0]\nclass = 2012"] ;
345 -> 346 ;
347 [label="gini = 0.0\nsamples = 2\nvalue = [0, 0, 0, 0, 0, 0, 2, 0, 0, 0, 0]\nclass = 2016"] ;
345 -> 347 ;
348 [label="exp_vida <= 70.37\ngini = 0.375\nsamples = 4\nvalue = [0, 1, 0, 0, 3, 0, 0, 0, 0, 0, 0]\nclass = 2014"] ;
340 -> 348 ;
349 [label="gini = 0.0\nsamples = 3\nvalue = [0, 0, 0, 0, 3, 0, 0, 0, 0, 0, 0]\nclass = 2014"] ;
348 -> 349 ;
350 [label="gini = 0.0\nsamples = 1\nvalue = [0, 1, 0, 0, 0, 0, 0, 0, 0, 0, 0]\nclass = 2011"] ;
348 -> 350 ;
351 [label="cob_vac_bcg <= 40.719\ngini = 0.775\nsamples = 17\nvalue = [0, 2, 1, 3, 5, 5, 0, 0, 1, 0, 0]\nclass = 2014"] ;
339 -> 351 ;
352 [label="exp_vida <= 70.13\ngini = 0.691\nsamples = 9\nvalue = [0, 2, 0, 0, 2, 4, 0, 0, 1, 0, 0]\nclass = 2015"] ;
351 -> 352 ;
353 [label="idhm <= 0.576\ngini = 0.64\nsamples = 5\nvalue = [0, 2, 0, 0, 2, 1, 0, 0, 0, 0, 0]\nclass = 2011"] ;
352 -> 353 ;
354 [label="cob_vac_bcg <= 40.454\ngini = 0.444\nsamples = 3\nvalue = [0, 2, 0, 0, 0, 1, 0, 0, 0, 0, 0]\nclass = 2011"] ;
353 -> 354 ;
355 [label="gini = 0.0\nsamples = 2\nvalue = [0, 2, 0, 0, 0, 0, 0, 0, 0, 0, 0]\nclass = 2011"] ;
354 -> 355 ;
356 [label="gini = 0.0\nsamples = 1\nvalue = [0, 0, 0, 0, 0, 1, 0, 0, 0, 0, 0]\nclass = 2015"] ;
354 -> 356 ;
357 [label="gini = 0.0\nsamples = 2\nvalue = [0, 0, 0, 0, 2, 0, 0, 0, 0, 0, 0]\nclass = 2014"] ;
353 -> 357 ;
358 [label="idhm <= 0.573\ngini = 0.375\nsamples = 4\nvalue = [0, 0, 0, 0, 0, 3, 0, 0, 1, 0, 0]\nclass = 2015"] ;
352 -> 358 ;
359 [label="cob_vac_bcg <= 37.732\ngini = 0.5\nsamples = 2\nvalue = [0, 0, 0, 0, 0, 1, 0, 0, 1, 0, 0]\nclass = 2015"] ;
358 -> 359 ;
360 [label="gini = 0.0\nsamples = 1\nvalue = [0, 0, 0, 0, 0, 1, 0, 0, 0, 0, 0]\nclass = 2015"] ;
359 -> 360 ;
361 [label="gini = 0.0\nsamples = 1\nvalue = [0, 0, 0, 0, 0, 0, 0, 0, 1, 0, 0]\nclass = 2018"] ;
359 -> 361 ;
362 [label="gini = 0.0\nsamples = 2\nvalue = [0, 0, 0, 0, 0, 2, 0, 0, 0, 0, 0]\nclass = 2015"] ;
358 -> 362 ;
363 [label="idhm <= 0.566\ngini = 0.688\nsamples = 8\nvalue = [0, 0, 1, 3, 3, 1, 0, 0, 0, 0, 0]\nclass = 2013"] ;
351 -> 363 ;
364 [label="gini = 0.0\nsamples = 1\nvalue = [0, 0, 0, 0, 0, 1, 0, 0, 0, 0, 0]\nclass = 2015"] ;
363 -> 364 ;
365 [label="idhm <= 0.568\ngini = 0.612\nsamples = 7\nvalue = [0, 0, 1, 3, 3, 0, 0, 0, 0, 0, 0]\nclass = 2013"] ;
363 -> 365 ;
366 [label="gini = 0.0\nsamples = 1\nvalue = [0, 0, 0, 0, 1, 0, 0, 0, 0, 0, 0]\nclass = 2014"] ;
365 -> 366 ;
367 [label="exp_vida <= 70.385\ngini = 0.611\nsamples = 6\nvalue = [0, 0, 1, 3, 2, 0, 0, 0, 0, 0, 0]\nclass = 2013"] ;
365 -> 367 ;
368 [label="cob_vac_bcg <= 41.719\ngini = 0.444\nsamples = 3\nvalue = [0, 0, 1, 2, 0, 0, 0, 0, 0, 0, 0]\nclass = 2013"] ;
367 -> 368 ;
369 [label="gini = 0.0\nsamples = 1\nvalue = [0, 0, 0, 1, 0, 0, 0, 0, 0, 0, 0]\nclass = 2013"] ;
368 -> 369 ;
370 [label="cob_vac_bcg <= 42.449\ngini = 0.5\nsamples = 2\nvalue = [0, 0, 1, 1, 0, 0, 0, 0, 0, 0, 0]\nclass = 2012"] ;
368 -> 370 ;
371 [label="gini = 0.0\nsamples = 1\nvalue = [0, 0, 1, 0, 0, 0, 0, 0, 0, 0, 0]\nclass = 2012"] ;
370 -> 371 ;
372 [label="gini = 0.0\nsamples = 1\nvalue = [0, 0, 0, 1, 0, 0, 0, 0, 0, 0, 0]\nclass = 2013"] ;
370 -> 372 ;
373 [label="cob_vac_bcg <= 43.148\ngini = 0.444\nsamples = 3\nvalue = [0, 0, 0, 1, 2, 0, 0, 0, 0, 0, 0]\nclass = 2014"] ;
367 -> 373 ;
374 [label="gini = 0.0\nsamples = 2\nvalue = [0, 0, 0, 0, 2, 0, 0, 0, 0, 0, 0]\nclass = 2014"] ;
373 -> 374 ;
375 [label="gini = 0.0\nsamples = 1\nvalue = [0, 0, 0, 1, 0, 0, 0, 0, 0, 0, 0]\nclass = 2013"] ;
373 -> 375 ;
376 [label="cob_vac_bcg <= 43.551\ngini = 0.5\nsamples = 2\nvalue = [0, 0, 0, 0, 0, 0, 0, 0, 0, 1, 1]\nclass = 2019"] ;
332 -> 376 ;
377 [label="gini = 0.0\nsamples = 1\nvalue = [0, 0, 0, 0, 0, 0, 0, 0, 0, 0, 1]\nclass = 2020"] ;
376 -> 377 ;
378 [label="gini = 0.0\nsamples = 1\nvalue = [0, 0, 0, 0, 0, 0, 0, 0, 0, 1, 0]\nclass = 2019"] ;
376 -> 378 ;
379 [label="cob_vac_bcg <= 39.444\ngini = 0.444\nsamples = 3\nvalue = [0, 2, 0, 0, 0, 0, 1, 0, 0, 0, 0]\nclass = 2011"] ;
321 -> 379 ;
380 [label="gini = 0.0\nsamples = 1\nvalue = [0, 1, 0, 0, 0, 0, 0, 0, 0, 0, 0]\nclass = 2011"] ;
379 -> 380 ;
381 [label="idhm <= 0.581\ngini = 0.5\nsamples = 2\nvalue = [0, 1, 0, 0, 0, 0, 1, 0, 0, 0, 0]\nclass = 2011"] ;
379 -> 381 ;
382 [label="gini = 0.0\nsamples = 1\nvalue = [0, 0, 0, 0, 0, 0, 1, 0, 0, 0, 0]\nclass = 2016"] ;
381 -> 382 ;
383 [label="gini = 0.0\nsamples = 1\nvalue = [0, 1, 0, 0, 0, 0, 0, 0, 0, 0, 0]\nclass = 2011"] ;
381 -> 383 ;
384 [label="idhm <= 0.576\ngini = 0.887\nsamples = 85\nvalue = [8, 2, 9, 16, 7, 7, 9, 13, 5, 5, 4]\nclass = 2013"] ;
266 -> 384 ;
385 [label="exp_vida <= 66.645\ngini = 0.884\nsamples = 77\nvalue = [6, 2, 9, 16, 6, 7, 8, 10, 5, 5, 3]\nclass = 2013"] ;
384 -> 385 ;
386 [label="cob_vac_bcg <= 46.946\ngini = 0.82\nsamples = 10\nvalue = [2, 1, 1, 0, 1, 0, 3, 1, 0, 1, 0]\nclass = 2016"] ;
385 -> 386 ;
387 [label="idhm <= 0.518\ngini = 0.444\nsamples = 3\nvalue = [2, 0, 0, 0, 0, 0, 0, 1, 0, 0, 0]\nclass = 2010"] ;
386 -> 387 ;
388 [label="gini = 0.0\nsamples = 1\nvalue = [0, 0, 0, 0, 0, 0, 0, 1, 0, 0, 0]\nclass = 2017"] ;
387 -> 388 ;
389 [label="gini = 0.0\nsamples = 2\nvalue = [2, 0, 0, 0, 0, 0, 0, 0, 0, 0, 0]\nclass = 2010"] ;
387 -> 389 ;
390 [label="exp_vida <= 65.695\ngini = 0.735\nsamples = 7\nvalue = [0, 1, 1, 0, 1, 0, 3, 0, 0, 1, 0]\nclass = 2016"] ;
386 -> 390 ;
391 [label="cob_vac_bcg <= 50.177\ngini = 0.5\nsamples = 2\nvalue = [0, 1, 1, 0, 0, 0, 0, 0, 0, 0, 0]\nclass = 2011"] ;
390 -> 391 ;
392 [label="gini = 0.0\nsamples = 1\nvalue = [0, 0, 1, 0, 0, 0, 0, 0, 0, 0, 0]\nclass = 2012"] ;
391 -> 392 ;
393 [label="gini = 0.0\nsamples = 1\nvalue = [0, 1, 0, 0, 0, 0, 0, 0, 0, 0, 0]\nclass = 2011"] ;
391 -> 393 ;
394 [label="idhm <= 0.498\ngini = 0.56\nsamples = 5\nvalue = [0, 0, 0, 0, 1, 0, 3, 0, 0, 1, 0]\nclass = 2016"] ;
390 -> 394 ;
395 [label="gini = 0.0\nsamples = 1\nvalue = [0, 0, 0, 0, 1, 0, 0, 0, 0, 0, 0]\nclass = 2014"] ;
394 -> 395 ;
396 [label="cob_vac_bcg <= 49.267\ngini = 0.375\nsamples = 4\nvalue = [0, 0, 0, 0, 0, 0, 3, 0, 0, 1, 0]\nclass = 2016"] ;
394 -> 396 ;
397 [label="exp_vida <= 66.14\ngini = 0.5\nsamples = 2\nvalue = [0, 0, 0, 0, 0, 0, 1, 0, 0, 1, 0]\nclass = 2016"] ;
396 -> 397 ;
398 [label="gini = 0.0\nsamples = 1\nvalue = [0, 0, 0, 0, 0, 0, 1, 0, 0, 0, 0]\nclass = 2016"] ;
397 -> 398 ;
399 [label="gini = 0.0\nsamples = 1\nvalue = [0, 0, 0, 0, 0, 0, 0, 0, 0, 1, 0]\nclass = 2019"] ;
397 -> 399 ;
400 [label="gini = 0.0\nsamples = 2\nvalue = [0, 0, 0, 0, 0, 0, 2, 0, 0, 0, 0]\nclass = 2016"] ;
396 -> 400 ;
401 [label="idhm <= 0.575\ngini = 0.874\nsamples = 67\nvalue = [4, 1, 8, 16, 5, 7, 5, 9, 5, 4, 3]\nclass = 2013"] ;
385 -> 401 ;
402 [label="idhm <= 0.533\ngini = 0.875\nsamples = 64\nvalue = [4, 1, 8, 15, 5, 5, 5, 9, 5, 4, 3]\nclass = 2013"] ;
401 -> 402 ;
403 [label="cob_vac_bcg <= 47.944\ngini = 0.769\nsamples = 13\nvalue = [0, 0, 1, 5, 1, 1, 3, 1, 0, 1, 0]\nclass = 2013"] ;
402 -> 403 ;
404 [label="idhm <= 0.528\ngini = 0.82\nsamples = 10\nvalue = [0, 0, 1, 2, 1, 1, 3, 1, 0, 1, 0]\nclass = 2016"] ;
403 -> 404 ;
405 [label="cob_vac_bcg <= 44.638\ngini = 0.667\nsamples = 3\nvalue = [0, 0, 0, 1, 1, 0, 0, 0, 0, 1, 0]\nclass = 2013"] ;
404 -> 405 ;
406 [label="gini = 0.0\nsamples = 1\nvalue = [0, 0, 0, 1, 0, 0, 0, 0, 0, 0, 0]\nclass = 2013"] ;
405 -> 406 ;
407 [label="exp_vida <= 69.37\ngini = 0.5\nsamples = 2\nvalue = [0, 0, 0, 0, 1, 0, 0, 0, 0, 1, 0]\nclass = 2014"] ;
405 -> 407 ;
408 [label="gini = 0.0\nsamples = 1\nvalue = [0, 0, 0, 0, 0, 0, 0, 0, 0, 1, 0]\nclass = 2019"] ;
407 -> 408 ;
409 [label="gini = 0.0\nsamples = 1\nvalue = [0, 0, 0, 0, 1, 0, 0, 0, 0, 0, 0]\nclass = 2014"] ;
407 -> 409 ;
410 [label="exp_vida <= 68.455\ngini = 0.735\nsamples = 7\nvalue = [0, 0, 1, 1, 0, 1, 3, 1, 0, 0, 0]\nclass = 2016"] ;
404 -> 410 ;
411 [label="gini = 0.0\nsamples = 1\nvalue = [0, 0, 0, 0, 0, 1, 0, 0, 0, 0, 0]\nclass = 2015"] ;
410 -> 411 ;
412 [label="exp_vida <= 69.635\ngini = 0.667\nsamples = 6\nvalue = [0, 0, 1, 1, 0, 0, 3, 1, 0, 0, 0]\nclass = 2016"] ;
410 -> 412 ;
413 [label="cob_vac_bcg <= 45.31\ngini = 0.667\nsamples = 3\nvalue = [0, 0, 1, 0, 0, 0, 1, 1, 0, 0, 0]\nclass = 2012"] ;
412 -> 413 ;
414 [label="gini = 0.0\nsamples = 1\nvalue = [0, 0, 0, 0, 0, 0, 0, 1, 0, 0, 0]\nclass = 2017"] ;
413 -> 414 ;
415 [label="cob_vac_bcg <= 46.635\ngini = 0.5\nsamples = 2\nvalue = [0, 0, 1, 0, 0, 0, 1, 0, 0, 0, 0]\nclass = 2012"] ;
413 -> 415 ;
416 [label="gini = 0.0\nsamples = 1\nvalue = [0, 0, 1, 0, 0, 0, 0, 0, 0, 0, 0]\nclass = 2012"] ;
415 -> 416 ;
417 [label="gini = 0.0\nsamples = 1\nvalue = [0, 0, 0, 0, 0, 0, 1, 0, 0, 0, 0]\nclass = 2016"] ;
415 -> 417 ;
418 [label="idhm <= 0.53\ngini = 0.444\nsamples = 3\nvalue = [0, 0, 0, 1, 0, 0, 2, 0, 0, 0, 0]\nclass = 2016"] ;
412 -> 418 ;
419 [label="cob_vac_bcg <= 44.532\ngini = 0.5\nsamples = 2\nvalue = [0, 0, 0, 1, 0, 0, 1, 0, 0, 0, 0]\nclass = 2013"] ;
418 -> 419 ;
420 [label="gini = 0.0\nsamples = 1\nvalue = [0, 0, 0, 0, 0, 0, 1, 0, 0, 0, 0]\nclass = 2016"] ;
419 -> 420 ;
421 [label="gini = 0.0\nsamples = 1\nvalue = [0, 0, 0, 1, 0, 0, 0, 0, 0, 0, 0]\nclass = 2013"] ;
419 -> 421 ;
422 [label="gini = 0.0\nsamples = 1\nvalue = [0, 0, 0, 0, 0, 0, 1, 0, 0, 0, 0]\nclass = 2016"] ;
418 -> 422 ;
423 [label="gini = 0.0\nsamples = 3\nvalue = [0, 0, 0, 3, 0, 0, 0, 0, 0, 0, 0]\nclass = 2013"] ;
403 -> 423 ;
424 [label="idhm <= 0.571\ngini = 0.881\nsamples = 51\nvalue = [4, 1, 7, 10, 4, 4, 2, 8, 5, 3, 3]\nclass = 2013"] ;
402 -> 424 ;
425 [label="exp_vida <= 67.435\ngini = 0.867\nsamples = 42\nvalue = [2, 1, 7, 9, 2, 4, 1, 7, 4, 2, 3]\nclass = 2013"] ;
424 -> 425 ;
426 [label="cob_vac_bcg <= 50.92\ngini = 0.776\nsamples = 7\nvalue = [0, 0, 1, 2, 0, 0, 1, 0, 0, 1, 2]\nclass = 2013"] ;
425 -> 426 ;
427 [label="cob_vac_bcg <= 49.486\ngini = 0.64\nsamples = 5\nvalue = [0, 0, 0, 2, 0, 0, 0, 0, 0, 1, 2]\nclass = 2013"] ;
426 -> 427 ;
428 [label="exp_vida <= 67.185\ngini = 0.444\nsamples = 3\nvalue = [0, 0, 0, 2, 0, 0, 0, 0, 0, 0, 1]\nclass = 2013"] ;
427 -> 428 ;
429 [label="gini = 0.0\nsamples = 2\nvalue = [0, 0, 0, 2, 0, 0, 0, 0, 0, 0, 0]\nclass = 2013"] ;
428 -> 429 ;
430 [label="gini = 0.0\nsamples = 1\nvalue = [0, 0, 0, 0, 0, 0, 0, 0, 0, 0, 1]\nclass = 2020"] ;
428 -> 430 ;
431 [label="cob_vac_bcg <= 50.313\ngini = 0.5\nsamples = 2\nvalue = [0, 0, 0, 0, 0, 0, 0, 0, 0, 1, 1]\nclass = 2019"] ;
427 -> 431 ;
432 [label="gini = 0.0\nsamples = 1\nvalue = [0, 0, 0, 0, 0, 0, 0, 0, 0, 1, 0]\nclass = 2019"] ;
431 -> 432 ;
433 [label="gini = 0.0\nsamples = 1\nvalue = [0, 0, 0, 0, 0, 0, 0, 0, 0, 0, 1]\nclass = 2020"] ;
431 -> 433 ;
434 [label="idhm <= 0.543\ngini = 0.5\nsamples = 2\nvalue = [0, 0, 1, 0, 0, 0, 1, 0, 0, 0, 0]\nclass = 2012"] ;
426 -> 434 ;
435 [label="gini = 0.0\nsamples = 1\nvalue = [0, 0, 1, 0, 0, 0, 0, 0, 0, 0, 0]\nclass = 2012"] ;
434 -> 435 ;
436 [label="gini = 0.0\nsamples = 1\nvalue = [0, 0, 0, 0, 0, 0, 1, 0, 0, 0, 0]\nclass = 2016"] ;
434 -> 436 ;
437 [label="cob_vac_bcg <= 45.481\ngini = 0.856\nsamples = 35\nvalue = [2, 1, 6, 7, 2, 4, 0, 7, 4, 1, 1]\nclass = 2013"] ;
425 -> 437 ;
438 [label="cob_vac_bcg <= 44.665\ngini = 0.833\nsamples = 12\nvalue = [1, 0, 2, 0, 1, 2, 0, 2, 3, 0, 1]\nclass = 2018"] ;
437 -> 438 ;
439 [label="exp_vida <= 68.515\ngini = 0.781\nsamples = 8\nvalue = [1, 0, 2, 0, 0, 2, 0, 2, 0, 0, 1]\nclass = 2012"] ;
438 -> 439 ;
440 [label="gini = 0.0\nsamples = 2\nvalue = [0, 0, 0, 0, 0, 0, 0, 2, 0, 0, 0]\nclass = 2017"] ;
439 -> 440 ;
441 [label="idhm <= 0.565\ngini = 0.722\nsamples = 6\nvalue = [1, 0, 2, 0, 0, 2, 0, 0, 0, 0, 1]\nclass = 2012"] ;
439 -> 441 ;
442 [label="gini = 0.0\nsamples = 2\nvalue = [0, 0, 0, 0, 0, 2, 0, 0, 0, 0, 0]\nclass = 2015"] ;
441 -> 442 ;
443 [label="exp_vida <= 69.99\ngini = 0.625\nsamples = 4\nvalue = [1, 0, 2, 0, 0, 0, 0, 0, 0, 0, 1]\nclass = 2012"] ;
441 -> 443 ;
444 [label="gini = 0.0\nsamples = 1\nvalue = [0, 0, 1, 0, 0, 0, 0, 0, 0, 0, 0]\nclass = 2012"] ;
443 -> 444 ;
445 [label="cob_vac_bcg <= 44.065\ngini = 0.667\nsamples = 3\nvalue = [1, 0, 1, 0, 0, 0, 0, 0, 0, 0, 1]\nclass = 2010"] ;
443 -> 445 ;
446 [label="gini = 0.0\nsamples = 1\nvalue = [1, 0, 0, 0, 0, 0, 0, 0, 0, 0, 0]\nclass = 2010"] ;
445 -> 446 ;
447 [label="cob_vac_bcg <= 44.269\ngini = 0.5\nsamples = 2\nvalue = [0, 0, 1, 0, 0, 0, 0, 0, 0, 0, 1]\nclass = 2012"] ;
445 -> 447 ;
448 [label="gini = 0.0\nsamples = 1\nvalue = [0, 0, 0, 0, 0, 0, 0, 0, 0, 0, 1]\nclass = 2020"] ;
447 -> 448 ;
449 [label="gini = 0.0\nsamples = 1\nvalue = [0, 0, 1, 0, 0, 0, 0, 0, 0, 0, 0]\nclass = 2012"] ;
447 -> 449 ;
450 [label="idhm <= 0.56\ngini = 0.375\nsamples = 4\nvalue = [0, 0, 0, 0, 1, 0, 0, 0, 3, 0, 0]\nclass = 2018"] ;
438 -> 450 ;
451 [label="gini = 0.0\nsamples = 3\nvalue = [0, 0, 0, 0, 0, 0, 0, 0, 3, 0, 0]\nclass = 2018"] ;
450 -> 451 ;
452 [label="gini = 0.0\nsamples = 1\nvalue = [0, 0, 0, 0, 1, 0, 0, 0, 0, 0, 0]\nclass = 2014"] ;
450 -> 452 ;
453 [label="cob_vac_bcg <= 46.675\ngini = 0.813\nsamples = 23\nvalue = [1, 1, 4, 7, 1, 2, 0, 5, 1, 1, 0]\nclass = 2013"] ;
437 -> 453 ;
454 [label="exp_vida <= 69.58\ngini = 0.656\nsamples = 8\nvalue = [0, 1, 2, 4, 0, 0, 0, 0, 0, 1, 0]\nclass = 2013"] ;
453 -> 454 ;
455 [label="gini = 0.0\nsamples = 3\nvalue = [0, 0, 0, 3, 0, 0, 0, 0, 0, 0, 0]\nclass = 2013"] ;
454 -> 455 ;
456 [label="exp_vida <= 69.63\ngini = 0.72\nsamples = 5\nvalue = [0, 1, 2, 1, 0, 0, 0, 0, 0, 1, 0]\nclass = 2012"] ;
454 -> 456 ;
457 [label="gini = 0.0\nsamples = 1\nvalue = [0, 1, 0, 0, 0, 0, 0, 0, 0, 0, 0]\nclass = 2011"] ;
456 -> 457 ;
458 [label="idhm <= 0.567\ngini = 0.625\nsamples = 4\nvalue = [0, 0, 2, 1, 0, 0, 0, 0, 0, 1, 0]\nclass = 2012"] ;
456 -> 458 ;
459 [label="gini = 0.0\nsamples = 1\nvalue = [0, 0, 1, 0, 0, 0, 0, 0, 0, 0, 0]\nclass = 2012"] ;
458 -> 459 ;
460 [label="cob_vac_bcg <= 45.612\ngini = 0.667\nsamples = 3\nvalue = [0, 0, 1, 1, 0, 0, 0, 0, 0, 1, 0]\nclass = 2012"] ;
458 -> 460 ;
461 [label="gini = 0.0\nsamples = 1\nvalue = [0, 0, 1, 0, 0, 0, 0, 0, 0, 0, 0]\nclass = 2012"] ;
460 -> 461 ;
462 [label="cob_vac_bcg <= 45.74\ngini = 0.5\nsamples = 2\nvalue = [0, 0, 0, 1, 0, 0, 0, 0, 0, 1, 0]\nclass = 2013"] ;
460 -> 462 ;
463 [label="gini = 0.0\nsamples = 1\nvalue = [0, 0, 0, 1, 0, 0, 0, 0, 0, 0, 0]\nclass = 2013"] ;
462 -> 463 ;
464 [label="gini = 0.0\nsamples = 1\nvalue = [0, 0, 0, 0, 0, 0, 0, 0, 0, 1, 0]\nclass = 2019"] ;
462 -> 464 ;
465 [label="idhm <= 0.556\ngini = 0.8\nsamples = 15\nvalue = [1, 0, 2, 3, 1, 2, 0, 5, 1, 0, 0]\nclass = 2017"] ;
453 -> 465 ;
466 [label="exp_vida <= 68.5\ngini = 0.816\nsamples = 7\nvalue = [1, 0, 2, 0, 1, 1, 0, 1, 1, 0, 0]\nclass = 2012"] ;
465 -> 466 ;
467 [label="idhm <= 0.547\ngini = 0.75\nsamples = 4\nvalue = [1, 0, 0, 0, 1, 1, 0, 0, 1, 0, 0]\nclass = 2010"] ;
466 -> 467 ;
468 [label="gini = 0.0\nsamples = 1\nvalue = [1, 0, 0, 0, 0, 0, 0, 0, 0, 0, 0]\nclass = 2010"] ;
467 -> 468 ;
469 [label="cob_vac_bcg <= 50.425\ngini = 0.667\nsamples = 3\nvalue = [0, 0, 0, 0, 1, 1, 0, 0, 1, 0, 0]\nclass = 2014"] ;
467 -> 469 ;
470 [label="gini = 0.0\nsamples = 1\nvalue = [0, 0, 0, 0, 0, 0, 0, 0, 1, 0, 0]\nclass = 2018"] ;
469 -> 470 ;
471 [label="exp_vida <= 68.015\ngini = 0.5\nsamples = 2\nvalue = [0, 0, 0, 0, 1, 1, 0, 0, 0, 0, 0]\nclass = 2014"] ;
469 -> 471 ;
472 [label="gini = 0.0\nsamples = 1\nvalue = [0, 0, 0, 0, 1, 0, 0, 0, 0, 0, 0]\nclass = 2014"] ;
471 -> 472 ;
473 [label="gini = 0.0\nsamples = 1\nvalue = [0, 0, 0, 0, 0, 1, 0, 0, 0, 0, 0]\nclass = 2015"] ;
471 -> 473 ;
474 [label="cob_vac_bcg <= 48.868\ngini = 0.444\nsamples = 3\nvalue = [0, 0, 2, 0, 0, 0, 0, 1, 0, 0, 0]\nclass = 2012"] ;
466 -> 474 ;
475 [label="gini = 0.0\nsamples = 1\nvalue = [0, 0, 0, 0, 0, 0, 0, 1, 0, 0, 0]\nclass = 2017"] ;
474 -> 475 ;
476 [label="gini = 0.0\nsamples = 2\nvalue = [0, 0, 2, 0, 0, 0, 0, 0, 0, 0, 0]\nclass = 2012"] ;
474 -> 476 ;
477 [label="cob_vac_bcg <= 50.45\ngini = 0.594\nsamples = 8\nvalue = [0, 0, 0, 3, 0, 1, 0, 4, 0, 0, 0]\nclass = 2017"] ;
465 -> 477 ;
478 [label="cob_vac_bcg <= 47.279\ngini = 0.5\nsamples = 6\nvalue = [0, 0, 0, 1, 0, 1, 0, 4, 0, 0, 0]\nclass = 2017"] ;
477 -> 478 ;
479 [label="gini = 0.0\nsamples = 1\nvalue = [0, 0, 0, 0, 0, 1, 0, 0, 0, 0, 0]\nclass = 2015"] ;
478 -> 479 ;
480 [label="idhm <= 0.565\ngini = 0.32\nsamples = 5\nvalue = [0, 0, 0, 1, 0, 0, 0, 4, 0, 0, 0]\nclass = 2017"] ;
478 -> 480 ;
481 [label="gini = 0.0\nsamples = 2\nvalue = [0, 0, 0, 0, 0, 0, 0, 2, 0, 0, 0]\nclass = 2017"] ;
480 -> 481 ;
482 [label="idhm <= 0.566\ngini = 0.444\nsamples = 3\nvalue = [0, 0, 0, 1, 0, 0, 0, 2, 0, 0, 0]\nclass = 2017"] ;
480 -> 482 ;
483 [label="gini = 0.0\nsamples = 1\nvalue = [0, 0, 0, 1, 0, 0, 0, 0, 0, 0, 0]\nclass = 2013"] ;
482 -> 483 ;
484 [label="gini = 0.0\nsamples = 2\nvalue = [0, 0, 0, 0, 0, 0, 0, 2, 0, 0, 0]\nclass = 2017"] ;
482 -> 484 ;
485 [label="gini = 0.0\nsamples = 2\nvalue = [0, 0, 0, 2, 0, 0, 0, 0, 0, 0, 0]\nclass = 2013"] ;
477 -> 485 ;
486 [label="idhm <= 0.574\ngini = 0.84\nsamples = 9\nvalue = [2, 0, 0, 1, 2, 0, 1, 1, 1, 1, 0]\nclass = 2010"] ;
424 -> 486 ;
487 [label="gini = 0.0\nsamples = 1\nvalue = [0, 0, 0, 0, 0, 0, 1, 0, 0, 0, 0]\nclass = 2016"] ;
486 -> 487 ;
488 [label="cob_vac_bcg <= 50.027\ngini = 0.812\nsamples = 8\nvalue = [2, 0, 0, 1, 2, 0, 0, 1, 1, 1, 0]\nclass = 2010"] ;
486 -> 488 ;
489 [label="exp_vida <= 69.33\ngini = 0.776\nsamples = 7\nvalue = [2, 0, 0, 1, 2, 0, 0, 0, 1, 1, 0]\nclass = 2010"] ;
488 -> 489 ;
490 [label="cob_vac_bcg <= 46.829\ngini = 0.625\nsamples = 4\nvalue = [1, 0, 0, 0, 2, 0, 0, 0, 1, 0, 0]\nclass = 2014"] ;
489 -> 490 ;
491 [label="gini = 0.0\nsamples = 2\nvalue = [0, 0, 0, 0, 2, 0, 0, 0, 0, 0, 0]\nclass = 2014"] ;
490 -> 491 ;
492 [label="cob_vac_bcg <= 48.701\ngini = 0.5\nsamples = 2\nvalue = [1, 0, 0, 0, 0, 0, 0, 0, 1, 0, 0]\nclass = 2010"] ;
490 -> 492 ;
493 [label="gini = 0.0\nsamples = 1\nvalue = [0, 0, 0, 0, 0, 0, 0, 0, 1, 0, 0]\nclass = 2018"] ;
492 -> 493 ;
494 [label="gini = 0.0\nsamples = 1\nvalue = [1, 0, 0, 0, 0, 0, 0, 0, 0, 0, 0]\nclass = 2010"] ;
492 -> 494 ;
495 [label="cob_vac_bcg <= 43.831\ngini = 0.667\nsamples = 3\nvalue = [1, 0, 0, 1, 0, 0, 0, 0, 0, 1, 0]\nclass = 2010"] ;
489 -> 495 ;
496 [label="gini = 0.0\nsamples = 1\nvalue = [1, 0, 0, 0, 0, 0, 0, 0, 0, 0, 0]\nclass = 2010"] ;
495 -> 496 ;
497 [label="cob_vac_bcg <= 46.352\ngini = 0.5\nsamples = 2\nvalue = [0, 0, 0, 1, 0, 0, 0, 0, 0, 1, 0]\nclass = 2013"] ;
495 -> 497 ;
498 [label="gini = 0.0\nsamples = 1\nvalue = [0, 0, 0, 1, 0, 0, 0, 0, 0, 0, 0]\nclass = 2013"] ;
497 -> 498 ;
499 [label="gini = 0.0\nsamples = 1\nvalue = [0, 0, 0, 0, 0, 0, 0, 0, 0, 1, 0]\nclass = 2019"] ;
497 -> 499 ;
500 [label="gini = 0.0\nsamples = 1\nvalue = [0, 0, 0, 0, 0, 0, 0, 1, 0, 0, 0]\nclass = 2017"] ;
488 -> 500 ;
501 [label="cob_vac_bcg <= 49.027\ngini = 0.444\nsamples = 3\nvalue = [0, 0, 0, 1, 0, 2, 0, 0, 0, 0, 0]\nclass = 2015"] ;
401 -> 501 ;
502 [label="gini = 0.0\nsamples = 2\nvalue = [0, 0, 0, 0, 0, 2, 0, 0, 0, 0, 0]\nclass = 2015"] ;
501 -> 502 ;
503 [label="gini = 0.0\nsamples = 1\nvalue = [0, 0, 0, 1, 0, 0, 0, 0, 0, 0, 0]\nclass = 2013"] ;
501 -> 503 ;
504 [label="idhm <= 0.579\ngini = 0.75\nsamples = 8\nvalue = [2, 0, 0, 0, 1, 0, 1, 3, 0, 0, 1]\nclass = 2017"] ;
384 -> 504 ;
505 [label="cob_vac_bcg <= 46.164\ngini = 0.611\nsamples = 6\nvalue = [2, 0, 0, 0, 0, 0, 1, 3, 0, 0, 0]\nclass = 2017"] ;
504 -> 505 ;
506 [label="gini = 0.0\nsamples = 1\nvalue = [0, 0, 0, 0, 0, 0, 1, 0, 0, 0, 0]\nclass = 2016"] ;
505 -> 506 ;
507 [label="cob_vac_bcg <= 46.933\ngini = 0.48\nsamples = 5\nvalue = [2, 0, 0, 0, 0, 0, 0, 3, 0, 0, 0]\nclass = 2017"] ;
505 -> 507 ;
508 [label="gini = 0.0\nsamples = 2\nvalue = [0, 0, 0, 0, 0, 0, 0, 2, 0, 0, 0]\nclass = 2017"] ;
507 -> 508 ;
509 [label="idhm <= 0.579\ngini = 0.444\nsamples = 3\nvalue = [2, 0, 0, 0, 0, 0, 0, 1, 0, 0, 0]\nclass = 2010"] ;
507 -> 509 ;
510 [label="gini = 0.0\nsamples = 2\nvalue = [2, 0, 0, 0, 0, 0, 0, 0, 0, 0, 0]\nclass = 2010"] ;
509 -> 510 ;
511 [label="gini = 0.0\nsamples = 1\nvalue = [0, 0, 0, 0, 0, 0, 0, 1, 0, 0, 0]\nclass = 2017"] ;
509 -> 511 ;
512 [label="cob_vac_bcg <= 50.126\ngini = 0.5\nsamples = 2\nvalue = [0, 0, 0, 0, 1, 0, 0, 0, 0, 0, 1]\nclass = 2014"] ;
504 -> 512 ;
513 [label="gini = 0.0\nsamples = 1\nvalue = [0, 0, 0, 0, 1, 0, 0, 0, 0, 0, 0]\nclass = 2014"] ;
512 -> 513 ;
514 [label="gini = 0.0\nsamples = 1\nvalue = [0, 0, 0, 0, 0, 0, 0, 0, 0, 0, 1]\nclass = 2020"] ;
512 -> 514 ;
515 [label="cob_vac_bcg <= 40.727\ngini = 0.889\nsamples = 222\nvalue = [6, 14, 20, 23, 28, 24, 38, 33, 14, 11, 11]\nclass = 2016"] ;
111 -> 515 ;
516 [label="cob_vac_bcg <= 39.124\ngini = 0.875\nsamples = 105\nvalue = [4, 4, 8, 17, 9, 10, 17, 21, 6, 6, 3]\nclass = 2017"] ;
515 -> 516 ;
517 [label="idhm <= 0.587\ngini = 0.871\nsamples = 90\nvalue = [2, 4, 7, 11, 9, 8, 17, 19, 5, 5, 3]\nclass = 2017"] ;
516 -> 517 ;
518 [label="cob_vac_bcg <= 31.304\ngini = 0.719\nsamples = 8\nvalue = [0, 0, 0, 0, 0, 3, 1, 2, 2, 0, 0]\nclass = 2015"] ;
517 -> 518 ;
519 [label="gini = 0.0\nsamples = 2\nvalue = [0, 0, 0, 0, 0, 0, 0, 2, 0, 0, 0]\nclass = 2017"] ;
518 -> 519 ;
520 [label="cob_vac_bcg <= 36.729\ngini = 0.611\nsamples = 6\nvalue = [0, 0, 0, 0, 0, 3, 1, 0, 2, 0, 0]\nclass = 2015"] ;
518 -> 520 ;
521 [label="cob_vac_bcg <= 34.025\ngini = 0.375\nsamples = 4\nvalue = [0, 0, 0, 0, 0, 3, 1, 0, 0, 0, 0]\nclass = 2015"] ;
520 -> 521 ;
522 [label="gini = 0.0\nsamples = 1\nvalue = [0, 0, 0, 0, 0, 0, 1, 0, 0, 0, 0]\nclass = 2016"] ;
521 -> 522 ;
523 [label="gini = 0.0\nsamples = 3\nvalue = [0, 0, 0, 0, 0, 3, 0, 0, 0, 0, 0]\nclass = 2015"] ;
521 -> 523 ;
524 [label="gini = 0.0\nsamples = 2\nvalue = [0, 0, 0, 0, 0, 0, 0, 0, 2, 0, 0]\nclass = 2018"] ;
520 -> 524 ;
525 [label="cob_vac_bcg <= 21.747\ngini = 0.869\nsamples = 82\nvalue = [2, 4, 7, 11, 9, 5, 16, 17, 3, 5, 3]\nclass = 2017"] ;
517 -> 525 ;
526 [label="cob_vac_bcg <= 21.084\ngini = 0.5\nsamples = 2\nvalue = [1, 1, 0, 0, 0, 0, 0, 0, 0, 0, 0]\nclass = 2010"] ;
525 -> 526 ;
527 [label="gini = 0.0\nsamples = 1\nvalue = [0, 1, 0, 0, 0, 0, 0, 0, 0, 0, 0]\nclass = 2011"] ;
526 -> 527 ;
528 [label="gini = 0.0\nsamples = 1\nvalue = [1, 0, 0, 0, 0, 0, 0, 0, 0, 0, 0]\nclass = 2010"] ;
526 -> 528 ;
529 [label="cob_vac_bcg <= 34.0\ngini = 0.863\nsamples = 80\nvalue = [1, 3, 7, 11, 9, 5, 16, 17, 3, 5, 3]\nclass = 2017"] ;
525 -> 529 ;
530 [label="idhm <= 0.6\ngini = 0.857\nsamples = 52\nvalue = [0, 3, 6, 9, 3, 4, 11, 10, 2, 3, 1]\nclass = 2016"] ;
529 -> 530 ;
531 [label="exp_vida <= 68.45\ngini = 0.844\nsamples = 16\nvalue = [0, 1, 4, 2, 0, 3, 2, 2, 0, 1, 1]\nclass = 2012"] ;
530 -> 531 ;
532 [label="gini = 0.0\nsamples = 1\nvalue = [0, 0, 0, 0, 0, 0, 0, 0, 0, 0, 1]\nclass = 2020"] ;
531 -> 532 ;
533 [label="cob_vac_bcg <= 27.09\ngini = 0.827\nsamples = 15\nvalue = [0, 1, 4, 2, 0, 3, 2, 2, 0, 1, 0]\nclass = 2012"] ;
531 -> 533 ;
534 [label="idhm <= 0.593\ngini = 0.444\nsamples = 3\nvalue = [0, 0, 2, 0, 0, 0, 0, 1, 0, 0, 0]\nclass = 2012"] ;
533 -> 534 ;
535 [label="gini = 0.0\nsamples = 1\nvalue = [0, 0, 0, 0, 0, 0, 0, 1, 0, 0, 0]\nclass = 2017"] ;
534 -> 535 ;
536 [label="gini = 0.0\nsamples = 2\nvalue = [0, 0, 2, 0, 0, 0, 0, 0, 0, 0, 0]\nclass = 2012"] ;
534 -> 536 ;
537 [label="cob_vac_bcg <= 30.925\ngini = 0.833\nsamples = 12\nvalue = [0, 1, 2, 2, 0, 3, 2, 1, 0, 1, 0]\nclass = 2015"] ;
533 -> 537 ;
538 [label="exp_vida <= 71.295\ngini = 0.735\nsamples = 7\nvalue = [0, 1, 0, 1, 0, 3, 1, 1, 0, 0, 0]\nclass = 2015"] ;
537 -> 538 ;
539 [label="cob_vac_bcg <= 29.78\ngini = 0.56\nsamples = 5\nvalue = [0, 1, 0, 0, 0, 3, 1, 0, 0, 0, 0]\nclass = 2015"] ;
538 -> 539 ;
540 [label="exp_vida <= 70.195\ngini = 0.667\nsamples = 3\nvalue = [0, 1, 0, 0, 0, 1, 1, 0, 0, 0, 0]\nclass = 2011"] ;
539 -> 540 ;
541 [label="gini = 0.0\nsamples = 1\nvalue = [0, 0, 0, 0, 0, 0, 1, 0, 0, 0, 0]\nclass = 2016"] ;
540 -> 541 ;
542 [label="cob_vac_bcg <= 28.733\ngini = 0.5\nsamples = 2\nvalue = [0, 1, 0, 0, 0, 1, 0, 0, 0, 0, 0]\nclass = 2011"] ;
540 -> 542 ;
543 [label="gini = 0.0\nsamples = 1\nvalue = [0, 0, 0, 0, 0, 1, 0, 0, 0, 0, 0]\nclass = 2015"] ;
542 -> 543 ;
544 [label="gini = 0.0\nsamples = 1\nvalue = [0, 1, 0, 0, 0, 0, 0, 0, 0, 0, 0]\nclass = 2011"] ;
542 -> 544 ;
545 [label="gini = 0.0\nsamples = 2\nvalue = [0, 0, 0, 0, 0, 2, 0, 0, 0, 0, 0]\nclass = 2015"] ;
539 -> 545 ;
546 [label="exp_vida <= 71.91\ngini = 0.5\nsamples = 2\nvalue = [0, 0, 0, 1, 0, 0, 0, 1, 0, 0, 0]\nclass = 2013"] ;
538 -> 546 ;
547 [label="gini = 0.0\nsamples = 1\nvalue = [0, 0, 0, 1, 0, 0, 0, 0, 0, 0, 0]\nclass = 2013"] ;
546 -> 547 ;
548 [label="gini = 0.0\nsamples = 1\nvalue = [0, 0, 0, 0, 0, 0, 0, 1, 0, 0, 0]\nclass = 2017"] ;
546 -> 548 ;
549 [label="cob_vac_bcg <= 31.642\ngini = 0.72\nsamples = 5\nvalue = [0, 0, 2, 1, 0, 0, 1, 0, 0, 1, 0]\nclass = 2012"] ;
537 -> 549 ;
550 [label="gini = 0.0\nsamples = 1\nvalue = [0, 0, 0, 0, 0, 0, 0, 0, 0, 1, 0]\nclass = 2019"] ;
549 -> 550 ;
551 [label="cob_vac_bcg <= 31.928\ngini = 0.625\nsamples = 4\nvalue = [0, 0, 2, 1, 0, 0, 1, 0, 0, 0, 0]\nclass = 2012"] ;
549 -> 551 ;
552 [label="gini = 0.0\nsamples = 1\nvalue = [0, 0, 1, 0, 0, 0, 0, 0, 0, 0, 0]\nclass = 2012"] ;
551 -> 552 ;
553 [label="cob_vac_bcg <= 32.497\ngini = 0.667\nsamples = 3\nvalue = [0, 0, 1, 1, 0, 0, 1, 0, 0, 0, 0]\nclass = 2012"] ;
551 -> 553 ;
554 [label="gini = 0.0\nsamples = 1\nvalue = [0, 0, 0, 1, 0, 0, 0, 0, 0, 0, 0]\nclass = 2013"] ;
553 -> 554 ;
555 [label="cob_vac_bcg <= 33.319\ngini = 0.5\nsamples = 2\nvalue = [0, 0, 1, 0, 0, 0, 1, 0, 0, 0, 0]\nclass = 2012"] ;
553 -> 555 ;
556 [label="gini = 0.0\nsamples = 1\nvalue = [0, 0, 0, 0, 0, 0, 1, 0, 0, 0, 0]\nclass = 2016"] ;
555 -> 556 ;
557 [label="gini = 0.0\nsamples = 1\nvalue = [0, 0, 1, 0, 0, 0, 0, 0, 0, 0, 0]\nclass = 2012"] ;
555 -> 557 ;
558 [label="cob_vac_bcg <= 30.819\ngini = 0.83\nsamples = 36\nvalue = [0, 2, 2, 7, 3, 1, 9, 8, 2, 2, 0]\nclass = 2016"] ;
530 -> 558 ;
559 [label="idhm <= 0.653\ngini = 0.81\nsamples = 22\nvalue = [0, 0, 2, 2, 2, 1, 7, 5, 1, 2, 0]\nclass = 2016"] ;
558 -> 559 ;
560 [label="exp_vida <= 72.19\ngini = 0.817\nsamples = 17\nvalue = [0, 0, 1, 2, 2, 1, 4, 5, 1, 1, 0]\nclass = 2017"] ;
559 -> 560 ;
561 [label="idhm <= 0.609\ngini = 0.793\nsamples = 11\nvalue = [0, 0, 1, 1, 0, 1, 4, 2, 1, 1, 0]\nclass = 2016"] ;
560 -> 561 ;
562 [label="exp_vida <= 70.92\ngini = 0.656\nsamples = 8\nvalue = [0, 0, 1, 1, 0, 0, 4, 2, 0, 0, 0]\nclass = 2016"] ;
561 -> 562 ;
563 [label="idhm <= 0.605\ngini = 0.72\nsamples = 5\nvalue = [0, 0, 1, 1, 0, 0, 1, 2, 0, 0, 0]\nclass = 2017"] ;
562 -> 563 ;
564 [label="idhm <= 0.603\ngini = 0.667\nsamples = 3\nvalue = [0, 0, 1, 1, 0, 0, 1, 0, 0, 0, 0]\nclass = 2012"] ;
563 -> 564 ;
565 [label="gini = 0.0\nsamples = 1\nvalue = [0, 0, 0, 0, 0, 0, 1, 0, 0, 0, 0]\nclass = 2016"] ;
564 -> 565 ;
566 [label="cob_vac_bcg <= 28.853\ngini = 0.5\nsamples = 2\nvalue = [0, 0, 1, 1, 0, 0, 0, 0, 0, 0, 0]\nclass = 2012"] ;
564 -> 566 ;
567 [label="gini = 0.0\nsamples = 1\nvalue = [0, 0, 0, 1, 0, 0, 0, 0, 0, 0, 0]\nclass = 2013"] ;
566 -> 567 ;
568 [label="gini = 0.0\nsamples = 1\nvalue = [0, 0, 1, 0, 0, 0, 0, 0, 0, 0, 0]\nclass = 2012"] ;
566 -> 568 ;
569 [label="gini = 0.0\nsamples = 2\nvalue = [0, 0, 0, 0, 0, 0, 0, 2, 0, 0, 0]\nclass = 2017"] ;
563 -> 569 ;
570 [label="gini = 0.0\nsamples = 3\nvalue = [0, 0, 0, 0, 0, 0, 3, 0, 0, 0, 0]\nclass = 2016"] ;
562 -> 570 ;
571 [label="idhm <= 0.611\ngini = 0.667\nsamples = 3\nvalue = [0, 0, 0, 0, 0, 1, 0, 0, 1, 1, 0]\nclass = 2015"] ;
561 -> 571 ;
572 [label="gini = 0.0\nsamples = 1\nvalue = [0, 0, 0, 0, 0, 1, 0, 0, 0, 0, 0]\nclass = 2015"] ;
571 -> 572 ;
573 [label="cob_vac_bcg <= 25.118\ngini = 0.5\nsamples = 2\nvalue = [0, 0, 0, 0, 0, 0, 0, 0, 1, 1, 0]\nclass = 2018"] ;
571 -> 573 ;
574 [label="gini = 0.0\nsamples = 1\nvalue = [0, 0, 0, 0, 0, 0, 0, 0, 1, 0, 0]\nclass = 2018"] ;
573 -> 574 ;
575 [label="gini = 0.0\nsamples = 1\nvalue = [0, 0, 0, 0, 0, 0, 0, 0, 0, 1, 0]\nclass = 2019"] ;
573 -> 575 ;
576 [label="cob_vac_bcg <= 25.315\ngini = 0.611\nsamples = 6\nvalue = [0, 0, 0, 1, 2, 0, 0, 3, 0, 0, 0]\nclass = 2017"] ;
560 -> 576 ;
577 [label="exp_vida <= 73.355\ngini = 0.444\nsamples = 3\nvalue = [0, 0, 0, 1, 2, 0, 0, 0, 0, 0, 0]\nclass = 2014"] ;
576 -> 577 ;
578 [label="gini = 0.0\nsamples = 2\nvalue = [0, 0, 0, 0, 2, 0, 0, 0, 0, 0, 0]\nclass = 2014"] ;
577 -> 578 ;
579 [label="gini = 0.0\nsamples = 1\nvalue = [0, 0, 0, 1, 0, 0, 0, 0, 0, 0, 0]\nclass = 2013"] ;
577 -> 579 ;
580 [label="gini = 0.0\nsamples = 3\nvalue = [0, 0, 0, 0, 0, 0, 0, 3, 0, 0, 0]\nclass = 2017"] ;
576 -> 580 ;
581 [label="cob_vac_bcg <= 28.103\ngini = 0.56\nsamples = 5\nvalue = [0, 0, 1, 0, 0, 0, 3, 0, 0, 1, 0]\nclass = 2016"] ;
559 -> 581 ;
582 [label="exp_vida <= 72.69\ngini = 0.667\nsamples = 3\nvalue = [0, 0, 1, 0, 0, 0, 1, 0, 0, 1, 0]\nclass = 2012"] ;
581 -> 582 ;
583 [label="gini = 0.0\nsamples = 1\nvalue = [0, 0, 0, 0, 0, 0, 1, 0, 0, 0, 0]\nclass = 2016"] ;
582 -> 583 ;
584 [label="cob_vac_bcg <= 27.382\ngini = 0.5\nsamples = 2\nvalue = [0, 0, 1, 0, 0, 0, 0, 0, 0, 1, 0]\nclass = 2012"] ;
582 -> 584 ;
585 [label="gini = 0.0\nsamples = 1\nvalue = [0, 0, 1, 0, 0, 0, 0, 0, 0, 0, 0]\nclass = 2012"] ;
584 -> 585 ;
586 [label="gini = 0.0\nsamples = 1\nvalue = [0, 0, 0, 0, 0, 0, 0, 0, 0, 1, 0]\nclass = 2019"] ;
584 -> 586 ;
587 [label="gini = 0.0\nsamples = 2\nvalue = [0, 0, 0, 0, 0, 0, 2, 0, 0, 0, 0]\nclass = 2016"] ;
581 -> 587 ;
588 [label="cob_vac_bcg <= 31.318\ngini = 0.776\nsamples = 14\nvalue = [0, 2, 0, 5, 1, 0, 2, 3, 1, 0, 0]\nclass = 2013"] ;
558 -> 588 ;
589 [label="gini = 0.0\nsamples = 3\nvalue = [0, 0, 0, 3, 0, 0, 0, 0, 0, 0, 0]\nclass = 2013"] ;
588 -> 589 ;
590 [label="exp_vida <= 73.455\ngini = 0.81\nsamples = 11\nvalue = [0, 2, 0, 2, 1, 0, 2, 3, 1, 0, 0]\nclass = 2017"] ;
588 -> 590 ;
591 [label="cob_vac_bcg <= 33.937\ngini = 0.75\nsamples = 8\nvalue = [0, 1, 0, 0, 1, 0, 2, 3, 1, 0, 0]\nclass = 2017"] ;
590 -> 591 ;
592 [label="cob_vac_bcg <= 33.373\ngini = 0.694\nsamples = 7\nvalue = [0, 1, 0, 0, 1, 0, 2, 3, 0, 0, 0]\nclass = 2017"] ;
591 -> 592 ;
593 [label="cob_vac_bcg <= 32.909\ngini = 0.72\nsamples = 5\nvalue = [0, 1, 0, 0, 1, 0, 2, 1, 0, 0, 0]\nclass = 2016"] ;
592 -> 593 ;
594 [label="cob_vac_bcg <= 32.219\ngini = 0.667\nsamples = 3\nvalue = [0, 1, 0, 0, 1, 0, 0, 1, 0, 0, 0]\nclass = 2011"] ;
593 -> 594 ;
595 [label="gini = 0.0\nsamples = 1\nvalue = [0, 0, 0, 0, 0, 0, 0, 1, 0, 0, 0]\nclass = 2017"] ;
594 -> 595 ;
596 [label="exp_vida <= 71.635\ngini = 0.5\nsamples = 2\nvalue = [0, 1, 0, 0, 1, 0, 0, 0, 0, 0, 0]\nclass = 2011"] ;
594 -> 596 ;
597 [label="gini = 0.0\nsamples = 1\nvalue = [0, 1, 0, 0, 0, 0, 0, 0, 0, 0, 0]\nclass = 2011"] ;
596 -> 597 ;
598 [label="gini = 0.0\nsamples = 1\nvalue = [0, 0, 0, 0, 1, 0, 0, 0, 0, 0, 0]\nclass = 2014"] ;
596 -> 598 ;
599 [label="gini = 0.0\nsamples = 2\nvalue = [0, 0, 0, 0, 0, 0, 2, 0, 0, 0, 0]\nclass = 2016"] ;
593 -> 599 ;
600 [label="gini = 0.0\nsamples = 2\nvalue = [0, 0, 0, 0, 0, 0, 0, 2, 0, 0, 0]\nclass = 2017"] ;
592 -> 600 ;
601 [label="gini = 0.0\nsamples = 1\nvalue = [0, 0, 0, 0, 0, 0, 0, 0, 1, 0, 0]\nclass = 2018"] ;
591 -> 601 ;
602 [label="idhm <= 0.662\ngini = 0.444\nsamples = 3\nvalue = [0, 1, 0, 2, 0, 0, 0, 0, 0, 0, 0]\nclass = 2013"] ;
590 -> 602 ;
603 [label="cob_vac_bcg <= 33.896\ngini = 0.5\nsamples = 2\nvalue = [0, 1, 0, 1, 0, 0, 0, 0, 0, 0, 0]\nclass = 2011"] ;
602 -> 603 ;
604 [label="gini = 0.0\nsamples = 1\nvalue = [0, 1, 0, 0, 0, 0, 0, 0, 0, 0, 0]\nclass = 2011"] ;
603 -> 604 ;
605 [label="gini = 0.0\nsamples = 1\nvalue = [0, 0, 0, 1, 0, 0, 0, 0, 0, 0, 0]\nclass = 2013"] ;
603 -> 605 ;
606 [label="gini = 0.0\nsamples = 1\nvalue = [0, 0, 0, 1, 0, 0, 0, 0, 0, 0, 0]\nclass = 2013"] ;
602 -> 606 ;
607 [label="exp_vida <= 72.555\ngini = 0.839\nsamples = 28\nvalue = [1, 0, 1, 2, 6, 1, 5, 7, 1, 2, 2]\nclass = 2017"] ;
529 -> 607 ;
608 [label="cob_vac_bcg <= 35.925\ngini = 0.832\nsamples = 23\nvalue = [1, 0, 1, 2, 6, 1, 5, 4, 0, 2, 1]\nclass = 2014"] ;
607 -> 608 ;
609 [label="cob_vac_bcg <= 34.157\ngini = 0.76\nsamples = 10\nvalue = [1, 0, 0, 0, 4, 0, 1, 1, 0, 2, 1]\nclass = 2014"] ;
608 -> 609 ;
610 [label="exp_vida <= 71.425\ngini = 0.5\nsamples = 2\nvalue = [1, 0, 0, 0, 0, 0, 0, 1, 0, 0, 0]\nclass = 2010"] ;
609 -> 610 ;
611 [label="gini = 0.0\nsamples = 1\nvalue = [1, 0, 0, 0, 0, 0, 0, 0, 0, 0, 0]\nclass = 2010"] ;
610 -> 611 ;
612 [label="gini = 0.0\nsamples = 1\nvalue = [0, 0, 0, 0, 0, 0, 0, 1, 0, 0, 0]\nclass = 2017"] ;
610 -> 612 ;
613 [label="idhm <= 0.621\ngini = 0.656\nsamples = 8\nvalue = [0, 0, 0, 0, 4, 0, 1, 0, 0, 2, 1]\nclass = 2014"] ;
609 -> 613 ;
614 [label="exp_vida <= 68.475\ngini = 0.5\nsamples = 6\nvalue = [0, 0, 0, 0, 4, 0, 1, 0, 0, 1, 0]\nclass = 2014"] ;
613 -> 614 ;
615 [label="gini = 0.0\nsamples = 1\nvalue = [0, 0, 0, 0, 0, 0, 0, 0, 0, 1, 0]\nclass = 2019"] ;
614 -> 615 ;
616 [label="exp_vida <= 72.265\ngini = 0.32\nsamples = 5\nvalue = [0, 0, 0, 0, 4, 0, 1, 0, 0, 0, 0]\nclass = 2014"] ;
614 -> 616 ;
617 [label="gini = 0.0\nsamples = 4\nvalue = [0, 0, 0, 0, 4, 0, 0, 0, 0, 0, 0]\nclass = 2014"] ;
616 -> 617 ;
618 [label="gini = 0.0\nsamples = 1\nvalue = [0, 0, 0, 0, 0, 0, 1, 0, 0, 0, 0]\nclass = 2016"] ;
616 -> 618 ;
619 [label="cob_vac_bcg <= 34.964\ngini = 0.5\nsamples = 2\nvalue = [0, 0, 0, 0, 0, 0, 0, 0, 0, 1, 1]\nclass = 2019"] ;
613 -> 619 ;
620 [label="gini = 0.0\nsamples = 1\nvalue = [0, 0, 0, 0, 0, 0, 0, 0, 0, 1, 0]\nclass = 2019"] ;
619 -> 620 ;
621 [label="gini = 0.0\nsamples = 1\nvalue = [0, 0, 0, 0, 0, 0, 0, 0, 0, 0, 1]\nclass = 2020"] ;
619 -> 621 ;
622 [label="idhm <= 0.609\ngini = 0.793\nsamples = 13\nvalue = [0, 0, 1, 2, 2, 1, 4, 3, 0, 0, 0]\nclass = 2016"] ;
608 -> 622 ;
623 [label="exp_vida <= 70.975\ngini = 0.76\nsamples = 10\nvalue = [0, 0, 1, 0, 2, 1, 3, 3, 0, 0, 0]\nclass = 2016"] ;
622 -> 623 ;
624 [label="cob_vac_bcg <= 38.95\ngini = 0.735\nsamples = 7\nvalue = [0, 0, 1, 0, 1, 1, 1, 3, 0, 0, 0]\nclass = 2017"] ;
623 -> 624 ;
625 [label="cob_vac_bcg <= 36.103\ngini = 0.56\nsamples = 5\nvalue = [0, 0, 1, 0, 0, 1, 0, 3, 0, 0, 0]\nclass = 2017"] ;
624 -> 625 ;
626 [label="gini = 0.0\nsamples = 1\nvalue = [0, 0, 0, 0, 0, 1, 0, 0, 0, 0, 0]\nclass = 2015"] ;
625 -> 626 ;
627 [label="exp_vida <= 70.335\ngini = 0.375\nsamples = 4\nvalue = [0, 0, 1, 0, 0, 0, 0, 3, 0, 0, 0]\nclass = 2017"] ;
625 -> 627 ;
628 [label="gini = 0.0\nsamples = 2\nvalue = [0, 0, 0, 0, 0, 0, 0, 2, 0, 0, 0]\nclass = 2017"] ;
627 -> 628 ;
629 [label="cob_vac_bcg <= 36.956\ngini = 0.5\nsamples = 2\nvalue = [0, 0, 1, 0, 0, 0, 0, 1, 0, 0, 0]\nclass = 2012"] ;
627 -> 629 ;
630 [label="gini = 0.0\nsamples = 1\nvalue = [0, 0, 0, 0, 0, 0, 0, 1, 0, 0, 0]\nclass = 2017"] ;
629 -> 630 ;
631 [label="gini = 0.0\nsamples = 1\nvalue = [0, 0, 1, 0, 0, 0, 0, 0, 0, 0, 0]\nclass = 2012"] ;
629 -> 631 ;
632 [label="cob_vac_bcg <= 39.106\ngini = 0.5\nsamples = 2\nvalue = [0, 0, 0, 0, 1, 0, 1, 0, 0, 0, 0]\nclass = 2014"] ;
624 -> 632 ;
633 [label="gini = 0.0\nsamples = 1\nvalue = [0, 0, 0, 0, 0, 0, 1, 0, 0, 0, 0]\nclass = 2016"] ;
632 -> 633 ;
634 [label="gini = 0.0\nsamples = 1\nvalue = [0, 0, 0, 0, 1, 0, 0, 0, 0, 0, 0]\nclass = 2014"] ;
632 -> 634 ;
635 [label="exp_vida <= 71.765\ngini = 0.444\nsamples = 3\nvalue = [0, 0, 0, 0, 1, 0, 2, 0, 0, 0, 0]\nclass = 2016"] ;
623 -> 635 ;
636 [label="gini = 0.0\nsamples = 1\nvalue = [0, 0, 0, 0, 0, 0, 1, 0, 0, 0, 0]\nclass = 2016"] ;
635 -> 636 ;
637 [label="cob_vac_bcg <= 36.687\ngini = 0.5\nsamples = 2\nvalue = [0, 0, 0, 0, 1, 0, 1, 0, 0, 0, 0]\nclass = 2014"] ;
635 -> 637 ;
638 [label="gini = 0.0\nsamples = 1\nvalue = [0, 0, 0, 0, 0, 0, 1, 0, 0, 0, 0]\nclass = 2016"] ;
637 -> 638 ;
639 [label="gini = 0.0\nsamples = 1\nvalue = [0, 0, 0, 0, 1, 0, 0, 0, 0, 0, 0]\nclass = 2014"] ;
637 -> 639 ;
640 [label="exp_vida <= 71.21\ngini = 0.444\nsamples = 3\nvalue = [0, 0, 0, 2, 0, 0, 1, 0, 0, 0, 0]\nclass = 2013"] ;
622 -> 640 ;
641 [label="gini = 0.0\nsamples = 1\nvalue = [0, 0, 0, 1, 0, 0, 0, 0, 0, 0, 0]\nclass = 2013"] ;
640 -> 641 ;
642 [label="exp_vida <= 71.875\ngini = 0.5\nsamples = 2\nvalue = [0, 0, 0, 1, 0, 0, 1, 0, 0, 0, 0]\nclass = 2013"] ;
640 -> 642 ;
643 [label="gini = 0.0\nsamples = 1\nvalue = [0, 0, 0, 0, 0, 0, 1, 0, 0, 0, 0]\nclass = 2016"] ;
642 -> 643 ;
644 [label="gini = 0.0\nsamples = 1\nvalue = [0, 0, 0, 1, 0, 0, 0, 0, 0, 0, 0]\nclass = 2013"] ;
642 -> 644 ;
645 [label="exp_vida <= 73.775\ngini = 0.56\nsamples = 5\nvalue = [0, 0, 0, 0, 0, 0, 0, 3, 1, 0, 1]\nclass = 2017"] ;
607 -> 645 ;
646 [label="cob_vac_bcg <= 36.627\ngini = 0.375\nsamples = 4\nvalue = [0, 0, 0, 0, 0, 0, 0, 3, 0, 0, 1]\nclass = 2017"] ;
645 -> 646 ;
647 [label="gini = 0.0\nsamples = 2\nvalue = [0, 0, 0, 0, 0, 0, 0, 2, 0, 0, 0]\nclass = 2017"] ;
646 -> 647 ;
648 [label="cob_vac_bcg <= 37.492\ngini = 0.5\nsamples = 2\nvalue = [0, 0, 0, 0, 0, 0, 0, 1, 0, 0, 1]\nclass = 2017"] ;
646 -> 648 ;
649 [label="gini = 0.0\nsamples = 1\nvalue = [0, 0, 0, 0, 0, 0, 0, 0, 0, 0, 1]\nclass = 2020"] ;
648 -> 649 ;
650 [label="gini = 0.0\nsamples = 1\nvalue = [0, 0, 0, 0, 0, 0, 0, 1, 0, 0, 0]\nclass = 2017"] ;
648 -> 650 ;
651 [label="gini = 0.0\nsamples = 1\nvalue = [0, 0, 0, 0, 0, 0, 0, 0, 1, 0, 0]\nclass = 2018"] ;
645 -> 651 ;
652 [label="idhm <= 0.65\ngini = 0.773\nsamples = 15\nvalue = [2, 0, 1, 6, 0, 2, 0, 2, 1, 1, 0]\nclass = 2013"] ;
516 -> 652 ;
653 [label="cob_vac_bcg <= 40.709\ngini = 0.694\nsamples = 12\nvalue = [1, 0, 1, 6, 0, 2, 0, 1, 1, 0, 0]\nclass = 2013"] ;
652 -> 653 ;
654 [label="idhm <= 0.586\ngini = 0.645\nsamples = 11\nvalue = [1, 0, 1, 6, 0, 2, 0, 0, 1, 0, 0]\nclass = 2013"] ;
653 -> 654 ;
655 [label="gini = 0.0\nsamples = 1\nvalue = [1, 0, 0, 0, 0, 0, 0, 0, 0, 0, 0]\nclass = 2010"] ;
654 -> 655 ;
656 [label="idhm <= 0.604\ngini = 0.58\nsamples = 10\nvalue = [0, 0, 1, 6, 0, 2, 0, 0, 1, 0, 0]\nclass = 2013"] ;
654 -> 656 ;
657 [label="cob_vac_bcg <= 39.157\ngini = 0.32\nsamples = 5\nvalue = [0, 0, 0, 4, 0, 0, 0, 0, 1, 0, 0]\nclass = 2013"] ;
656 -> 657 ;
658 [label="exp_vida <= 68.79\ngini = 0.5\nsamples = 2\nvalue = [0, 0, 0, 1, 0, 0, 0, 0, 1, 0, 0]\nclass = 2013"] ;
657 -> 658 ;
659 [label="gini = 0.0\nsamples = 1\nvalue = [0, 0, 0, 1, 0, 0, 0, 0, 0, 0, 0]\nclass = 2013"] ;
658 -> 659 ;
660 [label="gini = 0.0\nsamples = 1\nvalue = [0, 0, 0, 0, 0, 0, 0, 0, 1, 0, 0]\nclass = 2018"] ;
658 -> 660 ;
661 [label="gini = 0.0\nsamples = 3\nvalue = [0, 0, 0, 3, 0, 0, 0, 0, 0, 0, 0]\nclass = 2013"] ;
657 -> 661 ;
662 [label="cob_vac_bcg <= 40.48\ngini = 0.64\nsamples = 5\nvalue = [0, 0, 1, 2, 0, 2, 0, 0, 0, 0, 0]\nclass = 2013"] ;
656 -> 662 ;
663 [label="exp_vida <= 71.08\ngini = 0.444\nsamples = 3\nvalue = [0, 0, 1, 0, 0, 2, 0, 0, 0, 0, 0]\nclass = 2015"] ;
662 -> 663 ;
664 [label="gini = 0.0\nsamples = 1\nvalue = [0, 0, 1, 0, 0, 0, 0, 0, 0, 0, 0]\nclass = 2012"] ;
663 -> 664 ;
665 [label="gini = 0.0\nsamples = 2\nvalue = [0, 0, 0, 0, 0, 2, 0, 0, 0, 0, 0]\nclass = 2015"] ;
663 -> 665 ;
666 [label="gini = 0.0\nsamples = 2\nvalue = [0, 0, 0, 2, 0, 0, 0, 0, 0, 0, 0]\nclass = 2013"] ;
662 -> 666 ;
667 [label="gini = 0.0\nsamples = 1\nvalue = [0, 0, 0, 0, 0, 0, 0, 1, 0, 0, 0]\nclass = 2017"] ;
653 -> 667 ;
668 [label="exp_vida <= 73.325\ngini = 0.667\nsamples = 3\nvalue = [1, 0, 0, 0, 0, 0, 0, 1, 0, 1, 0]\nclass = 2010"] ;
652 -> 668 ;
669 [label="gini = 0.0\nsamples = 1\nvalue = [1, 0, 0, 0, 0, 0, 0, 0, 0, 0, 0]\nclass = 2010"] ;
668 -> 669 ;
670 [label="idhm <= 0.752\ngini = 0.5\nsamples = 2\nvalue = [0, 0, 0, 0, 0, 0, 0, 1, 0, 1, 0]\nclass = 2017"] ;
668 -> 670 ;
671 [label="gini = 0.0\nsamples = 1\nvalue = [0, 0, 0, 0, 0, 0, 0, 1, 0, 0, 0]\nclass = 2017"] ;
670 -> 671 ;
672 [label="gini = 0.0\nsamples = 1\nvalue = [0, 0, 0, 0, 0, 0, 0, 0, 0, 1, 0]\nclass = 2019"] ;
670 -> 672 ;
673 [label="idhm <= 0.653\ngini = 0.885\nsamples = 117\nvalue = [2, 10, 12, 6, 19, 14, 21, 12, 8, 5, 8]\nclass = 2016"] ;
515 -> 673 ;
674 [label="idhm <= 0.631\ngini = 0.875\nsamples = 104\nvalue = [1, 8, 11, 6, 18, 12, 21, 11, 8, 4, 4]\nclass = 2016"] ;
673 -> 674 ;
675 [label="cob_vac_bcg <= 44.842\ngini = 0.878\nsamples = 90\nvalue = [1, 8, 9, 6, 18, 10, 16, 7, 7, 4, 4]\nclass = 2014"] ;
674 -> 675 ;
676 [label="exp_vida <= 72.165\ngini = 0.82\nsamples = 32\nvalue = [0, 2, 1, 1, 11, 4, 4, 4, 2, 1, 2]\nclass = 2014"] ;
675 -> 676 ;
677 [label="cob_vac_bcg <= 42.79\ngini = 0.769\nsamples = 22\nvalue = [0, 0, 1, 1, 9, 2, 1, 4, 2, 0, 2]\nclass = 2014"] ;
676 -> 677 ;
678 [label="exp_vida <= 70.58\ngini = 0.843\nsamples = 11\nvalue = [0, 0, 1, 0, 2, 1, 1, 2, 2, 0, 2]\nclass = 2014"] ;
677 -> 678 ;
679 [label="cob_vac_bcg <= 41.966\ngini = 0.444\nsamples = 3\nvalue = [0, 0, 0, 0, 1, 0, 0, 0, 2, 0, 0]\nclass = 2018"] ;
678 -> 679 ;
680 [label="gini = 0.0\nsamples = 1\nvalue = [0, 0, 0, 0, 1, 0, 0, 0, 0, 0, 0]\nclass = 2014"] ;
679 -> 680 ;
681 [label="gini = 0.0\nsamples = 2\nvalue = [0, 0, 0, 0, 0, 0, 0, 0, 2, 0, 0]\nclass = 2018"] ;
679 -> 681 ;
682 [label="exp_vida <= 71.165\ngini = 0.812\nsamples = 8\nvalue = [0, 0, 1, 0, 1, 1, 1, 2, 0, 0, 2]\nclass = 2017"] ;
678 -> 682 ;
683 [label="cob_vac_bcg <= 41.596\ngini = 0.72\nsamples = 5\nvalue = [0, 0, 1, 0, 0, 1, 1, 0, 0, 0, 2]\nclass = 2020"] ;
682 -> 683 ;
684 [label="cob_vac_bcg <= 41.276\ngini = 0.5\nsamples = 2\nvalue = [0, 0, 0, 0, 0, 1, 1, 0, 0, 0, 0]\nclass = 2015"] ;
683 -> 684 ;
685 [label="gini = 0.0\nsamples = 1\nvalue = [0, 0, 0, 0, 0, 1, 0, 0, 0, 0, 0]\nclass = 2015"] ;
684 -> 685 ;
686 [label="gini = 0.0\nsamples = 1\nvalue = [0, 0, 0, 0, 0, 0, 1, 0, 0, 0, 0]\nclass = 2016"] ;
684 -> 686 ;
687 [label="exp_vida <= 70.725\ngini = 0.444\nsamples = 3\nvalue = [0, 0, 1, 0, 0, 0, 0, 0, 0, 0, 2]\nclass = 2020"] ;
683 -> 687 ;
688 [label="gini = 0.0\nsamples = 1\nvalue = [0, 0, 1, 0, 0, 0, 0, 0, 0, 0, 0]\nclass = 2012"] ;
687 -> 688 ;
689 [label="gini = 0.0\nsamples = 2\nvalue = [0, 0, 0, 0, 0, 0, 0, 0, 0, 0, 2]\nclass = 2020"] ;
687 -> 689 ;
690 [label="idhm <= 0.611\ngini = 0.444\nsamples = 3\nvalue = [0, 0, 0, 0, 1, 0, 0, 2, 0, 0, 0]\nclass = 2017"] ;
682 -> 690 ;
691 [label="gini = 0.0\nsamples = 2\nvalue = [0, 0, 0, 0, 0, 0, 0, 2, 0, 0, 0]\nclass = 2017"] ;
690 -> 691 ;
692 [label="gini = 0.0\nsamples = 1\nvalue = [0, 0, 0, 0, 1, 0, 0, 0, 0, 0, 0]\nclass = 2014"] ;
690 -> 692 ;
693 [label="exp_vida <= 68.965\ngini = 0.545\nsamples = 11\nvalue = [0, 0, 0, 1, 7, 1, 0, 2, 0, 0, 0]\nclass = 2014"] ;
677 -> 693 ;
694 [label="cob_vac_bcg <= 43.515\ngini = 0.5\nsamples = 2\nvalue = [0, 0, 0, 1, 0, 0, 0, 1, 0, 0, 0]\nclass = 2013"] ;
693 -> 694 ;
695 [label="gini = 0.0\nsamples = 1\nvalue = [0, 0, 0, 0, 0, 0, 0, 1, 0, 0, 0]\nclass = 2017"] ;
694 -> 695 ;
696 [label="gini = 0.0\nsamples = 1\nvalue = [0, 0, 0, 1, 0, 0, 0, 0, 0, 0, 0]\nclass = 2013"] ;
694 -> 696 ;
697 [label="idhm <= 0.595\ngini = 0.37\nsamples = 9\nvalue = [0, 0, 0, 0, 7, 1, 0, 1, 0, 0, 0]\nclass = 2014"] ;
693 -> 697 ;
698 [label="idhm <= 0.592\ngini = 0.5\nsamples = 2\nvalue = [0, 0, 0, 0, 1, 1, 0, 0, 0, 0, 0]\nclass = 2014"] ;
697 -> 698 ;
699 [label="gini = 0.0\nsamples = 1\nvalue = [0, 0, 0, 0, 1, 0, 0, 0, 0, 0, 0]\nclass = 2014"] ;
698 -> 699 ;
700 [label="gini = 0.0\nsamples = 1\nvalue = [0, 0, 0, 0, 0, 1, 0, 0, 0, 0, 0]\nclass = 2015"] ;
698 -> 700 ;
701 [label="idhm <= 0.608\ngini = 0.245\nsamples = 7\nvalue = [0, 0, 0, 0, 6, 0, 0, 1, 0, 0, 0]\nclass = 2014"] ;
697 -> 701 ;
702 [label="gini = 0.0\nsamples = 4\nvalue = [0, 0, 0, 0, 4, 0, 0, 0, 0, 0, 0]\nclass = 2014"] ;
701 -> 702 ;
703 [label="idhm <= 0.611\ngini = 0.444\nsamples = 3\nvalue = [0, 0, 0, 0, 2, 0, 0, 1, 0, 0, 0]\nclass = 2014"] ;
701 -> 703 ;
704 [label="gini = 0.0\nsamples = 1\nvalue = [0, 0, 0, 0, 0, 0, 0, 1, 0, 0, 0]\nclass = 2017"] ;
703 -> 704 ;
705 [label="gini = 0.0\nsamples = 2\nvalue = [0, 0, 0, 0, 2, 0, 0, 0, 0, 0, 0]\nclass = 2014"] ;
703 -> 705 ;
706 [label="cob_vac_bcg <= 43.008\ngini = 0.78\nsamples = 10\nvalue = [0, 2, 0, 0, 2, 2, 3, 0, 0, 1, 0]\nclass = 2016"] ;
676 -> 706 ;
707 [label="idhm <= 0.604\ngini = 0.444\nsamples = 3\nvalue = [0, 0, 0, 0, 1, 0, 2, 0, 0, 0, 0]\nclass = 2016"] ;
706 -> 707 ;
708 [label="gini = 0.0\nsamples = 1\nvalue = [0, 0, 0, 0, 1, 0, 0, 0, 0, 0, 0]\nclass = 2014"] ;
707 -> 708 ;
709 [label="gini = 0.0\nsamples = 2\nvalue = [0, 0, 0, 0, 0, 0, 2, 0, 0, 0, 0]\nclass = 2016"] ;
707 -> 709 ;
710 [label="exp_vida <= 72.685\ngini = 0.776\nsamples = 7\nvalue = [0, 2, 0, 0, 1, 2, 1, 0, 0, 1, 0]\nclass = 2011"] ;
706 -> 710 ;
711 [label="idhm <= 0.616\ngini = 0.444\nsamples = 3\nvalue = [0, 1, 0, 0, 0, 2, 0, 0, 0, 0, 0]\nclass = 2015"] ;
710 -> 711 ;
712 [label="gini = 0.0\nsamples = 2\nvalue = [0, 0, 0, 0, 0, 2, 0, 0, 0, 0, 0]\nclass = 2015"] ;
711 -> 712 ;
713 [label="gini = 0.0\nsamples = 1\nvalue = [0, 1, 0, 0, 0, 0, 0, 0, 0, 0, 0]\nclass = 2011"] ;
711 -> 713 ;
714 [label="exp_vida <= 72.88\ngini = 0.75\nsamples = 4\nvalue = [0, 1, 0, 0, 1, 0, 1, 0, 0, 1, 0]\nclass = 2011"] ;
710 -> 714 ;
715 [label="gini = 0.0\nsamples = 1\nvalue = [0, 0, 0, 0, 1, 0, 0, 0, 0, 0, 0]\nclass = 2014"] ;
714 -> 715 ;
716 [label="cob_vac_bcg <= 43.821\ngini = 0.667\nsamples = 3\nvalue = [0, 1, 0, 0, 0, 0, 1, 0, 0, 1, 0]\nclass = 2011"] ;
714 -> 716 ;
717 [label="gini = 0.0\nsamples = 1\nvalue = [0, 0, 0, 0, 0, 0, 0, 0, 0, 1, 0]\nclass = 2019"] ;
716 -> 717 ;
718 [label="cob_vac_bcg <= 44.416\ngini = 0.5\nsamples = 2\nvalue = [0, 1, 0, 0, 0, 0, 1, 0, 0, 0, 0]\nclass = 2011"] ;
716 -> 718 ;
719 [label="gini = 0.0\nsamples = 1\nvalue = [0, 0, 0, 0, 0, 0, 1, 0, 0, 0, 0]\nclass = 2016"] ;
718 -> 719 ;
720 [label="gini = 0.0\nsamples = 1\nvalue = [0, 1, 0, 0, 0, 0, 0, 0, 0, 0, 0]\nclass = 2011"] ;
718 -> 720 ;
721 [label="exp_vida <= 71.9\ngini = 0.88\nsamples = 58\nvalue = [1, 6, 8, 5, 7, 6, 12, 3, 5, 3, 2]\nclass = 2016"] ;
675 -> 721 ;
722 [label="cob_vac_bcg <= 44.978\ngini = 0.86\nsamples = 45\nvalue = [1, 4, 3, 3, 7, 5, 12, 3, 4, 2, 1]\nclass = 2016"] ;
721 -> 722 ;
723 [label="gini = 0.0\nsamples = 2\nvalue = [0, 2, 0, 0, 0, 0, 0, 0, 0, 0, 0]\nclass = 2011"] ;
722 -> 723 ;
724 [label="cob_vac_bcg <= 50.928\ngini = 0.853\nsamples = 43\nvalue = [1, 2, 3, 3, 7, 5, 12, 3, 4, 2, 1]\nclass = 2016"] ;
722 -> 724 ;
725 [label="cob_vac_bcg <= 48.8\ngini = 0.85\nsamples = 36\nvalue = [1, 2, 3, 2, 3, 4, 11, 3, 4, 2, 1]\nclass = 2016"] ;
724 -> 725 ;
726 [label="idhm <= 0.592\ngini = 0.882\nsamples = 26\nvalue = [1, 1, 3, 2, 3, 4, 5, 3, 1, 2, 1]\nclass = 2016"] ;
725 -> 726 ;
727 [label="idhm <= 0.586\ngini = 0.444\nsamples = 3\nvalue = [0, 1, 0, 0, 0, 0, 2, 0, 0, 0, 0]\nclass = 2016"] ;
726 -> 727 ;
728 [label="gini = 0.0\nsamples = 1\nvalue = [0, 1, 0, 0, 0, 0, 0, 0, 0, 0, 0]\nclass = 2011"] ;
727 -> 728 ;
729 [label="gini = 0.0\nsamples = 2\nvalue = [0, 0, 0, 0, 0, 0, 2, 0, 0, 0, 0]\nclass = 2016"] ;
727 -> 729 ;
730 [label="idhm <= 0.603\ngini = 0.881\nsamples = 23\nvalue = [1, 0, 3, 2, 3, 4, 3, 3, 1, 2, 1]\nclass = 2015"] ;
726 -> 730 ;
731 [label="exp_vida <= 70.09\ngini = 0.864\nsamples = 18\nvalue = [1, 0, 3, 1, 3, 2, 3, 3, 1, 1, 0]\nclass = 2012"] ;
730 -> 731 ;
732 [label="cob_vac_bcg <= 47.456\ngini = 0.722\nsamples = 6\nvalue = [1, 0, 0, 0, 2, 2, 1, 0, 0, 0, 0]\nclass = 2014"] ;
731 -> 732 ;
733 [label="exp_vida <= 67.735\ngini = 0.64\nsamples = 5\nvalue = [0, 0, 0, 0, 2, 2, 1, 0, 0, 0, 0]\nclass = 2014"] ;
732 -> 733 ;
734 [label="cob_vac_bcg <= 46.526\ngini = 0.5\nsamples = 2\nvalue = [0, 0, 0, 0, 1, 0, 1, 0, 0, 0, 0]\nclass = 2014"] ;
733 -> 734 ;
735 [label="gini = 0.0\nsamples = 1\nvalue = [0, 0, 0, 0, 0, 0, 1, 0, 0, 0, 0]\nclass = 2016"] ;
734 -> 735 ;
736 [label="gini = 0.0\nsamples = 1\nvalue = [0, 0, 0, 0, 1, 0, 0, 0, 0, 0, 0]\nclass = 2014"] ;
734 -> 736 ;
737 [label="cob_vac_bcg <= 46.124\ngini = 0.444\nsamples = 3\nvalue = [0, 0, 0, 0, 1, 2, 0, 0, 0, 0, 0]\nclass = 2015"] ;
733 -> 737 ;
738 [label="gini = 0.0\nsamples = 1\nvalue = [0, 0, 0, 0, 1, 0, 0, 0, 0, 0, 0]\nclass = 2014"] ;
737 -> 738 ;
739 [label="gini = 0.0\nsamples = 2\nvalue = [0, 0, 0, 0, 0, 2, 0, 0, 0, 0, 0]\nclass = 2015"] ;
737 -> 739 ;
740 [label="gini = 0.0\nsamples = 1\nvalue = [1, 0, 0, 0, 0, 0, 0, 0, 0, 0, 0]\nclass = 2010"] ;
732 -> 740 ;
741 [label="cob_vac_bcg <= 47.647\ngini = 0.819\nsamples = 12\nvalue = [0, 0, 3, 1, 1, 0, 2, 3, 1, 1, 0]\nclass = 2012"] ;
731 -> 741 ;
742 [label="idhm <= 0.598\ngini = 0.793\nsamples = 11\nvalue = [0, 0, 3, 1, 0, 0, 2, 3, 1, 1, 0]\nclass = 2012"] ;
741 -> 742 ;
743 [label="cob_vac_bcg <= 45.262\ngini = 0.816\nsamples = 7\nvalue = [0, 0, 1, 1, 0, 0, 2, 1, 1, 1, 0]\nclass = 2016"] ;
742 -> 743 ;
744 [label="exp_vida <= 70.815\ngini = 0.5\nsamples = 2\nvalue = [0, 0, 1, 0, 0, 0, 0, 0, 0, 1, 0]\nclass = 2012"] ;
743 -> 744 ;
745 [label="gini = 0.0\nsamples = 1\nvalue = [0, 0, 0, 0, 0, 0, 0, 0, 0, 1, 0]\nclass = 2019"] ;
744 -> 745 ;
746 [label="gini = 0.0\nsamples = 1\nvalue = [0, 0, 1, 0, 0, 0, 0, 0, 0, 0, 0]\nclass = 2012"] ;
744 -> 746 ;
747 [label="idhm <= 0.597\ngini = 0.72\nsamples = 5\nvalue = [0, 0, 0, 1, 0, 0, 2, 1, 1, 0, 0]\nclass = 2016"] ;
743 -> 747 ;
748 [label="cob_vac_bcg <= 46.947\ngini = 0.625\nsamples = 4\nvalue = [0, 0, 0, 1, 0, 0, 2, 1, 0, 0, 0]\nclass = 2016"] ;
747 -> 748 ;
749 [label="idhm <= 0.594\ngini = 0.444\nsamples = 3\nvalue = [0, 0, 0, 1, 0, 0, 2, 0, 0, 0, 0]\nclass = 2016"] ;
748 -> 749 ;
750 [label="exp_vida <= 70.79\ngini = 0.5\nsamples = 2\nvalue = [0, 0, 0, 1, 0, 0, 1, 0, 0, 0, 0]\nclass = 2013"] ;
749 -> 750 ;
751 [label="gini = 0.0\nsamples = 1\nvalue = [0, 0, 0, 0, 0, 0, 1, 0, 0, 0, 0]\nclass = 2016"] ;
750 -> 751 ;
752 [label="gini = 0.0\nsamples = 1\nvalue = [0, 0, 0, 1, 0, 0, 0, 0, 0, 0, 0]\nclass = 2013"] ;
750 -> 752 ;
753 [label="gini = 0.0\nsamples = 1\nvalue = [0, 0, 0, 0, 0, 0, 1, 0, 0, 0, 0]\nclass = 2016"] ;
749 -> 753 ;
754 [label="gini = 0.0\nsamples = 1\nvalue = [0, 0, 0, 0, 0, 0, 0, 1, 0, 0, 0]\nclass = 2017"] ;
748 -> 754 ;
755 [label="gini = 0.0\nsamples = 1\nvalue = [0, 0, 0, 0, 0, 0, 0, 0, 1, 0, 0]\nclass = 2018"] ;
747 -> 755 ;
756 [label="cob_vac_bcg <= 46.294\ngini = 0.5\nsamples = 4\nvalue = [0, 0, 2, 0, 0, 0, 0, 2, 0, 0, 0]\nclass = 2012"] ;
742 -> 756 ;
757 [label="gini = 0.0\nsamples = 2\nvalue = [0, 0, 0, 0, 0, 0, 0, 2, 0, 0, 0]\nclass = 2017"] ;
756 -> 757 ;
758 [label="gini = 0.0\nsamples = 2\nvalue = [0, 0, 2, 0, 0, 0, 0, 0, 0, 0, 0]\nclass = 2012"] ;
756 -> 758 ;
759 [label="gini = 0.0\nsamples = 1\nvalue = [0, 0, 0, 0, 1, 0, 0, 0, 0, 0, 0]\nclass = 2014"] ;
741 -> 759 ;
760 [label="idhm <= 0.604\ngini = 0.72\nsamples = 5\nvalue = [0, 0, 0, 1, 0, 2, 0, 0, 0, 1, 1]\nclass = 2015"] ;
730 -> 760 ;
761 [label="gini = 0.0\nsamples = 2\nvalue = [0, 0, 0, 0, 0, 2, 0, 0, 0, 0, 0]\nclass = 2015"] ;
760 -> 761 ;
762 [label="exp_vida <= 71.085\ngini = 0.667\nsamples = 3\nvalue = [0, 0, 0, 1, 0, 0, 0, 0, 0, 1, 1]\nclass = 2013"] ;
760 -> 762 ;
763 [label="cob_vac_bcg <= 46.466\ngini = 0.5\nsamples = 2\nvalue = [0, 0, 0, 0, 0, 0, 0, 0, 0, 1, 1]\nclass = 2019"] ;
762 -> 763 ;
764 [label="gini = 0.0\nsamples = 1\nvalue = [0, 0, 0, 0, 0, 0, 0, 0, 0, 0, 1]\nclass = 2020"] ;
763 -> 764 ;
765 [label="gini = 0.0\nsamples = 1\nvalue = [0, 0, 0, 0, 0, 0, 0, 0, 0, 1, 0]\nclass = 2019"] ;
763 -> 765 ;
766 [label="gini = 0.0\nsamples = 1\nvalue = [0, 0, 0, 1, 0, 0, 0, 0, 0, 0, 0]\nclass = 2013"] ;
762 -> 766 ;
767 [label="idhm <= 0.598\ngini = 0.54\nsamples = 10\nvalue = [0, 1, 0, 0, 0, 0, 6, 0, 3, 0, 0]\nclass = 2016"] ;
725 -> 767 ;
768 [label="cob_vac_bcg <= 49.585\ngini = 0.444\nsamples = 3\nvalue = [0, 0, 0, 0, 0, 0, 1, 0, 2, 0, 0]\nclass = 2018"] ;
767 -> 768 ;
769 [label="gini = 0.0\nsamples = 1\nvalue = [0, 0, 0, 0, 0, 0, 1, 0, 0, 0, 0]\nclass = 2016"] ;
768 -> 769 ;
770 [label="gini = 0.0\nsamples = 2\nvalue = [0, 0, 0, 0, 0, 0, 0, 0, 2, 0, 0]\nclass = 2018"] ;
768 -> 770 ;
771 [label="exp_vida <= 70.64\ngini = 0.449\nsamples = 7\nvalue = [0, 1, 0, 0, 0, 0, 5, 0, 1, 0, 0]\nclass = 2016"] ;
767 -> 771 ;
772 [label="exp_vida <= 70.54\ngini = 0.625\nsamples = 4\nvalue = [0, 1, 0, 0, 0, 0, 2, 0, 1, 0, 0]\nclass = 2016"] ;
771 -> 772 ;
773 [label="gini = 0.0\nsamples = 2\nvalue = [0, 0, 0, 0, 0, 0, 2, 0, 0, 0, 0]\nclass = 2016"] ;
772 -> 773 ;
774 [label="cob_vac_bcg <= 49.982\ngini = 0.5\nsamples = 2\nvalue = [0, 1, 0, 0, 0, 0, 0, 0, 1, 0, 0]\nclass = 2011"] ;
772 -> 774 ;
775 [label="gini = 0.0\nsamples = 1\nvalue = [0, 0, 0, 0, 0, 0, 0, 0, 1, 0, 0]\nclass = 2018"] ;
774 -> 775 ;
776 [label="gini = 0.0\nsamples = 1\nvalue = [0, 1, 0, 0, 0, 0, 0, 0, 0, 0, 0]\nclass = 2011"] ;
774 -> 776 ;
777 [label="gini = 0.0\nsamples = 3\nvalue = [0, 0, 0, 0, 0, 0, 3, 0, 0, 0, 0]\nclass = 2016"] ;
771 -> 777 ;
778 [label="idhm <= 0.597\ngini = 0.612\nsamples = 7\nvalue = [0, 0, 0, 1, 4, 1, 1, 0, 0, 0, 0]\nclass = 2014"] ;
724 -> 778 ;
779 [label="cob_vac_bcg <= 51.128\ngini = 0.375\nsamples = 4\nvalue = [0, 0, 0, 0, 3, 0, 1, 0, 0, 0, 0]\nclass = 2014"] ;
778 -> 779 ;
780 [label="gini = 0.0\nsamples = 3\nvalue = [0, 0, 0, 0, 3, 0, 0, 0, 0, 0, 0]\nclass = 2014"] ;
779 -> 780 ;
781 [label="gini = 0.0\nsamples = 1\nvalue = [0, 0, 0, 0, 0, 0, 1, 0, 0, 0, 0]\nclass = 2016"] ;
779 -> 781 ;
782 [label="cob_vac_bcg <= 51.064\ngini = 0.667\nsamples = 3\nvalue = [0, 0, 0, 1, 1, 1, 0, 0, 0, 0, 0]\nclass = 2013"] ;
778 -> 782 ;
783 [label="gini = 0.0\nsamples = 1\nvalue = [0, 0, 0, 1, 0, 0, 0, 0, 0, 0, 0]\nclass = 2013"] ;
782 -> 783 ;
784 [label="cob_vac_bcg <= 51.203\ngini = 0.5\nsamples = 2\nvalue = [0, 0, 0, 0, 1, 1, 0, 0, 0, 0, 0]\nclass = 2014"] ;
782 -> 784 ;
785 [label="gini = 0.0\nsamples = 1\nvalue = [0, 0, 0, 0, 0, 1, 0, 0, 0, 0, 0]\nclass = 2015"] ;
784 -> 785 ;
786 [label="gini = 0.0\nsamples = 1\nvalue = [0, 0, 0, 0, 1, 0, 0, 0, 0, 0, 0]\nclass = 2014"] ;
784 -> 786 ;
787 [label="cob_vac_bcg <= 46.046\ngini = 0.781\nsamples = 13\nvalue = [0, 2, 5, 2, 0, 1, 0, 0, 1, 1, 1]\nclass = 2012"] ;
721 -> 787 ;
788 [label="cob_vac_bcg <= 45.347\ngini = 0.5\nsamples = 2\nvalue = [0, 0, 0, 1, 0, 0, 0, 0, 1, 0, 0]\nclass = 2013"] ;
787 -> 788 ;
789 [label="gini = 0.0\nsamples = 1\nvalue = [0, 0, 0, 1, 0, 0, 0, 0, 0, 0, 0]\nclass = 2013"] ;
788 -> 789 ;
790 [label="gini = 0.0\nsamples = 1\nvalue = [0, 0, 0, 0, 0, 0, 0, 0, 1, 0, 0]\nclass = 2018"] ;
788 -> 790 ;
791 [label="cob_vac_bcg <= 50.83\ngini = 0.727\nsamples = 11\nvalue = [0, 2, 5, 1, 0, 1, 0, 0, 0, 1, 1]\nclass = 2012"] ;
787 -> 791 ;
792 [label="exp_vida <= 72.985\ngini = 0.68\nsamples = 10\nvalue = [0, 2, 5, 1, 0, 1, 0, 0, 0, 1, 0]\nclass = 2012"] ;
791 -> 792 ;
793 [label="idhm <= 0.595\ngini = 0.642\nsamples = 9\nvalue = [0, 1, 5, 1, 0, 1, 0, 0, 0, 1, 0]\nclass = 2012"] ;
792 -> 793 ;
794 [label="cob_vac_bcg <= 49.469\ngini = 0.667\nsamples = 3\nvalue = [0, 1, 1, 0, 0, 1, 0, 0, 0, 0, 0]\nclass = 2011"] ;
793 -> 794 ;
795 [label="gini = 0.0\nsamples = 1\nvalue = [0, 0, 0, 0, 0, 1, 0, 0, 0, 0, 0]\nclass = 2015"] ;
794 -> 795 ;
796 [label="cob_vac_bcg <= 50.116\ngini = 0.5\nsamples = 2\nvalue = [0, 1, 1, 0, 0, 0, 0, 0, 0, 0, 0]\nclass = 2011"] ;
794 -> 796 ;
797 [label="gini = 0.0\nsamples = 1\nvalue = [0, 1, 0, 0, 0, 0, 0, 0, 0, 0, 0]\nclass = 2011"] ;
796 -> 797 ;
798 [label="gini = 0.0\nsamples = 1\nvalue = [0, 0, 1, 0, 0, 0, 0, 0, 0, 0, 0]\nclass = 2012"] ;
796 -> 798 ;
799 [label="idhm <= 0.61\ngini = 0.5\nsamples = 6\nvalue = [0, 0, 4, 1, 0, 0, 0, 0, 0, 1, 0]\nclass = 2012"] ;
793 -> 799 ;
800 [label="cob_vac_bcg <= 47.699\ngini = 0.375\nsamples = 4\nvalue = [0, 0, 3, 0, 0, 0, 0, 0, 0, 1, 0]\nclass = 2012"] ;
799 -> 800 ;
801 [label="exp_vida <= 72.48\ngini = 0.5\nsamples = 2\nvalue = [0, 0, 1, 0, 0, 0, 0, 0, 0, 1, 0]\nclass = 2012"] ;
800 -> 801 ;
802 [label="gini = 0.0\nsamples = 1\nvalue = [0, 0, 1, 0, 0, 0, 0, 0, 0, 0, 0]\nclass = 2012"] ;
801 -> 802 ;
803 [label="gini = 0.0\nsamples = 1\nvalue = [0, 0, 0, 0, 0, 0, 0, 0, 0, 1, 0]\nclass = 2019"] ;
801 -> 803 ;
804 [label="gini = 0.0\nsamples = 2\nvalue = [0, 0, 2, 0, 0, 0, 0, 0, 0, 0, 0]\nclass = 2012"] ;
800 -> 804 ;
805 [label="idhm <= 0.611\ngini = 0.5\nsamples = 2\nvalue = [0, 0, 1, 1, 0, 0, 0, 0, 0, 0, 0]\nclass = 2012"] ;
799 -> 805 ;
806 [label="gini = 0.0\nsamples = 1\nvalue = [0, 0, 0, 1, 0, 0, 0, 0, 0, 0, 0]\nclass = 2013"] ;
805 -> 806 ;
807 [label="gini = 0.0\nsamples = 1\nvalue = [0, 0, 1, 0, 0, 0, 0, 0, 0, 0, 0]\nclass = 2012"] ;
805 -> 807 ;
808 [label="gini = 0.0\nsamples = 1\nvalue = [0, 1, 0, 0, 0, 0, 0, 0, 0, 0, 0]\nclass = 2011"] ;
792 -> 808 ;
809 [label="gini = 0.0\nsamples = 1\nvalue = [0, 0, 0, 0, 0, 0, 0, 0, 0, 0, 1]\nclass = 2020"] ;
791 -> 809 ;
810 [label="cob_vac_bcg <= 42.088\ngini = 0.745\nsamples = 14\nvalue = [0, 0, 2, 0, 0, 2, 5, 4, 1, 0, 0]\nclass = 2016"] ;
674 -> 810 ;
811 [label="cob_vac_bcg <= 41.198\ngini = 0.444\nsamples = 3\nvalue = [0, 0, 0, 0, 0, 2, 0, 1, 0, 0, 0]\nclass = 2015"] ;
810 -> 811 ;
812 [label="gini = 0.0\nsamples = 1\nvalue = [0, 0, 0, 0, 0, 0, 0, 1, 0, 0, 0]\nclass = 2017"] ;
811 -> 812 ;
813 [label="gini = 0.0\nsamples = 2\nvalue = [0, 0, 0, 0, 0, 2, 0, 0, 0, 0, 0]\nclass = 2015"] ;
811 -> 813 ;
814 [label="idhm <= 0.652\ngini = 0.678\nsamples = 11\nvalue = [0, 0, 2, 0, 0, 0, 5, 3, 1, 0, 0]\nclass = 2016"] ;
810 -> 814 ;
815 [label="cob_vac_bcg <= 42.372\ngini = 0.62\nsamples = 10\nvalue = [0, 0, 2, 0, 0, 0, 5, 3, 0, 0, 0]\nclass = 2016"] ;
814 -> 815 ;
816 [label="gini = 0.0\nsamples = 1\nvalue = [0, 0, 1, 0, 0, 0, 0, 0, 0, 0, 0]\nclass = 2012"] ;
815 -> 816 ;
817 [label="cob_vac_bcg <= 49.475\ngini = 0.568\nsamples = 9\nvalue = [0, 0, 1, 0, 0, 0, 5, 3, 0, 0, 0]\nclass = 2016"] ;
815 -> 817 ;
818 [label="idhm <= 0.633\ngini = 0.32\nsamples = 5\nvalue = [0, 0, 0, 0, 0, 0, 4, 1, 0, 0, 0]\nclass = 2016"] ;
817 -> 818 ;
819 [label="gini = 0.0\nsamples = 1\nvalue = [0, 0, 0, 0, 0, 0, 0, 1, 0, 0, 0]\nclass = 2017"] ;
818 -> 819 ;
820 [label="gini = 0.0\nsamples = 4\nvalue = [0, 0, 0, 0, 0, 0, 4, 0, 0, 0, 0]\nclass = 2016"] ;
818 -> 820 ;
821 [label="idhm <= 0.637\ngini = 0.625\nsamples = 4\nvalue = [0, 0, 1, 0, 0, 0, 1, 2, 0, 0, 0]\nclass = 2017"] ;
817 -> 821 ;
822 [label="cob_vac_bcg <= 49.809\ngini = 0.5\nsamples = 2\nvalue = [0, 0, 1, 0, 0, 0, 1, 0, 0, 0, 0]\nclass = 2012"] ;
821 -> 822 ;
823 [label="gini = 0.0\nsamples = 1\nvalue = [0, 0, 1, 0, 0, 0, 0, 0, 0, 0, 0]\nclass = 2012"] ;
822 -> 823 ;
824 [label="gini = 0.0\nsamples = 1\nvalue = [0, 0, 0, 0, 0, 0, 1, 0, 0, 0, 0]\nclass = 2016"] ;
822 -> 824 ;
825 [label="gini = 0.0\nsamples = 2\nvalue = [0, 0, 0, 0, 0, 0, 0, 2, 0, 0, 0]\nclass = 2017"] ;
821 -> 825 ;
826 [label="gini = 0.0\nsamples = 1\nvalue = [0, 0, 0, 0, 0, 0, 0, 0, 1, 0, 0]\nclass = 2018"] ;
814 -> 826 ;
