digraph Tree {
node [shape=box, style="rounded", color="black", fontname="helvetica"] ;
edge [fontname="helvetica"] ;
0 [label="cob_vac_bcg <= 64.698\ngini = 0.908\nsamples = 457\nvalue = [44, 35, 41, 41, 41, 40, 44, 45, 44, 46, 36]\nclass = 2019"] ;
1 [label="cob_vac_bcg <= 35.982\ngini = 0.895\nsamples = 148\nvalue = [7, 10, 16, 17, 13, 15, 24, 11, 4, 13, 18]\nclass = 2016"] ;
0 -> 1 [labeldistance=2.5, labelangle=45, headlabel="True"] ;
2 [label="cob_vac_bcg <= 8.046\ngini = 0.86\nsamples = 58\nvalue = [1, 2, 6, 10, 10, 6, 13, 2, 3, 3, 2]\nclass = 2016"] ;
1 -> 2 ;
3 [label="exp_vida <= 73.565\ngini = 0.5\nsamples = 6\nvalue = [0, 0, 0, 0, 4, 0, 1, 0, 0, 0, 1]\nclass = 2014"] ;
2 -> 3 ;
4 [label="exp_vida <= 72.3\ngini = 0.625\nsamples = 4\nvalue = [0, 0, 0, 0, 2, 0, 1, 0, 0, 0, 1]\nclass = 2014"] ;
3 -> 4 ;
5 [label="gini = 0.0\nsamples = 1\nvalue = [0, 0, 0, 0, 1, 0, 0, 0, 0, 0, 0]\nclass = 2014"] ;
4 -> 5 ;
6 [label="cob_vac_bcg <= 2.564\ngini = 0.667\nsamples = 3\nvalue = [0, 0, 0, 0, 1, 0, 1, 0, 0, 0, 1]\nclass = 2014"] ;
4 -> 6 ;
7 [label="gini = 0.5\nsamples = 2\nvalue = [0, 0, 0, 0, 1, 0, 1, 0, 0, 0, 0]\nclass = 2014"] ;
6 -> 7 ;
8 [label="gini = 0.0\nsamples = 1\nvalue = [0, 0, 0, 0, 0, 0, 0, 0, 0, 0, 1]\nclass = 2020"] ;
6 -> 8 ;
9 [label="gini = 0.0\nsamples = 2\nvalue = [0, 0, 0, 0, 2, 0, 0, 0, 0, 0, 0]\nclass = 2014"] ;
3 -> 9 ;
10 [label="cob_vac_bcg <= 11.714\ngini = 0.859\nsamples = 52\nvalue = [1, 2, 6, 10, 6, 6, 12, 2, 3, 3, 1]\nclass = 2016"] ;
2 -> 10 ;
11 [label="idhm <= 0.657\ngini = 0.375\nsamples = 4\nvalue = [0, 0, 0, 3, 0, 1, 0, 0, 0, 0, 0]\nclass = 2013"] ;
10 -> 11 ;
12 [label="gini = 0.0\nsamples = 3\nvalue = [0, 0, 0, 3, 0, 0, 0, 0, 0, 0, 0]\nclass = 2013"] ;
11 -> 12 ;
13 [label="gini = 0.0\nsamples = 1\nvalue = [0, 0, 0, 0, 0, 1, 0, 0, 0, 0, 0]\nclass = 2015"] ;
11 -> 13 ;
14 [label="idhm <= 0.649\ngini = 0.862\nsamples = 48\nvalue = [1, 2, 6, 7, 6, 5, 12, 2, 3, 3, 1]\nclass = 2016"] ;
10 -> 14 ;
15 [label="cob_vac_bcg <= 30.518\ngini = 0.828\nsamples = 29\nvalue = [1, 2, 6, 5, 5, 2, 7, 1, 0, 0, 0]\nclass = 2016"] ;
14 -> 15 ;
16 [label="cob_vac_bcg <= 14.743\ngini = 0.798\nsamples = 21\nvalue = [1, 2, 3, 4, 3, 0, 7, 1, 0, 0, 0]\nclass = 2016"] ;
15 -> 16 ;
17 [label="exp_vida <= 73.555\ngini = 0.444\nsamples = 3\nvalue = [0, 0, 1, 0, 2, 0, 0, 0, 0, 0, 0]\nclass = 2014"] ;
16 -> 17 ;
18 [label="gini = 0.0\nsamples = 2\nvalue = [0, 0, 0, 0, 2, 0, 0, 0, 0, 0, 0]\nclass = 2014"] ;
17 -> 18 ;
19 [label="gini = 0.0\nsamples = 1\nvalue = [0, 0, 1, 0, 0, 0, 0, 0, 0, 0, 0]\nclass = 2012"] ;
17 -> 19 ;
20 [label="cob_vac_bcg <= 17.233\ngini = 0.765\nsamples = 18\nvalue = [1, 2, 2, 4, 1, 0, 7, 1, 0, 0, 0]\nclass = 2016"] ;
16 -> 20 ;
21 [label="gini = 0.0\nsamples = 2\nvalue = [0, 0, 0, 0, 0, 0, 2, 0, 0, 0, 0]\nclass = 2016"] ;
20 -> 21 ;
22 [label="idhm <= 0.603\ngini = 0.797\nsamples = 16\nvalue = [1, 2, 2, 4, 1, 0, 5, 1, 0, 0, 0]\nclass = 2016"] ;
20 -> 22 ;
23 [label="cob_vac_bcg <= 26.06\ngini = 0.56\nsamples = 5\nvalue = [0, 1, 0, 0, 0, 0, 3, 1, 0, 0, 0]\nclass = 2016"] ;
22 -> 23 ;
24 [label="gini = 0.0\nsamples = 2\nvalue = [0, 0, 0, 0, 0, 0, 2, 0, 0, 0, 0]\nclass = 2016"] ;
23 -> 24 ;
25 [label="exp_vida <= 70.85\ngini = 0.667\nsamples = 3\nvalue = [0, 1, 0, 0, 0, 0, 1, 1, 0, 0, 0]\nclass = 2011"] ;
23 -> 25 ;
26 [label="gini = 0.0\nsamples = 1\nvalue = [0, 0, 0, 0, 0, 0, 1, 0, 0, 0, 0]\nclass = 2016"] ;
25 -> 26 ;
27 [label="idhm <= 0.593\ngini = 0.5\nsamples = 2\nvalue = [0, 1, 0, 0, 0, 0, 0, 1, 0, 0, 0]\nclass = 2011"] ;
25 -> 27 ;
28 [label="gini = 0.0\nsamples = 1\nvalue = [0, 0, 0, 0, 0, 0, 0, 1, 0, 0, 0]\nclass = 2017"] ;
27 -> 28 ;
29 [label="gini = 0.0\nsamples = 1\nvalue = [0, 1, 0, 0, 0, 0, 0, 0, 0, 0, 0]\nclass = 2011"] ;
27 -> 29 ;
30 [label="idhm <= 0.645\ngini = 0.777\nsamples = 11\nvalue = [1, 1, 2, 4, 1, 0, 2, 0, 0, 0, 0]\nclass = 2013"] ;
22 -> 30 ;
31 [label="cob_vac_bcg <= 24.745\ngini = 0.612\nsamples = 7\nvalue = [0, 0, 1, 4, 1, 0, 1, 0, 0, 0, 0]\nclass = 2013"] ;
30 -> 31 ;
32 [label="cob_vac_bcg <= 21.068\ngini = 0.375\nsamples = 4\nvalue = [0, 0, 0, 3, 0, 0, 1, 0, 0, 0, 0]\nclass = 2013"] ;
31 -> 32 ;
33 [label="gini = 0.0\nsamples = 2\nvalue = [0, 0, 0, 2, 0, 0, 0, 0, 0, 0, 0]\nclass = 2013"] ;
32 -> 33 ;
34 [label="exp_vida <= 72.225\ngini = 0.5\nsamples = 2\nvalue = [0, 0, 0, 1, 0, 0, 1, 0, 0, 0, 0]\nclass = 2013"] ;
32 -> 34 ;
35 [label="gini = 0.0\nsamples = 1\nvalue = [0, 0, 0, 1, 0, 0, 0, 0, 0, 0, 0]\nclass = 2013"] ;
34 -> 35 ;
36 [label="gini = 0.0\nsamples = 1\nvalue = [0, 0, 0, 0, 0, 0, 1, 0, 0, 0, 0]\nclass = 2016"] ;
34 -> 36 ;
37 [label="cob_vac_bcg <= 26.025\ngini = 0.667\nsamples = 3\nvalue = [0, 0, 1, 1, 1, 0, 0, 0, 0, 0, 0]\nclass = 2012"] ;
31 -> 37 ;
38 [label="gini = 0.0\nsamples = 1\nvalue = [0, 0, 0, 0, 1, 0, 0, 0, 0, 0, 0]\nclass = 2014"] ;
37 -> 38 ;
39 [label="idhm <= 0.627\ngini = 0.5\nsamples = 2\nvalue = [0, 0, 1, 1, 0, 0, 0, 0, 0, 0, 0]\nclass = 2012"] ;
37 -> 39 ;
40 [label="gini = 0.0\nsamples = 1\nvalue = [0, 0, 1, 0, 0, 0, 0, 0, 0, 0, 0]\nclass = 2012"] ;
39 -> 40 ;
41 [label="gini = 0.0\nsamples = 1\nvalue = [0, 0, 0, 1, 0, 0, 0, 0, 0, 0, 0]\nclass = 2013"] ;
39 -> 41 ;
42 [label="cob_vac_bcg <= 19.607\ngini = 0.75\nsamples = 4\nvalue = [1, 1, 1, 0, 0, 0, 1, 0, 0, 0, 0]\nclass = 2010"] ;
30 -> 42 ;
43 [label="gini = 0.0\nsamples = 1\nvalue = [0, 1, 0, 0, 0, 0, 0, 0, 0, 0, 0]\nclass = 2011"] ;
42 -> 43 ;
44 [label="cob_vac_bcg <= 22.124\ngini = 0.667\nsamples = 3\nvalue = [1, 0, 1, 0, 0, 0, 1, 0, 0, 0, 0]\nclass = 2010"] ;
42 -> 44 ;
45 [label="gini = 0.0\nsamples = 1\nvalue = [0, 0, 1, 0, 0, 0, 0, 0, 0, 0, 0]\nclass = 2012"] ;
44 -> 45 ;
46 [label="cob_vac_bcg <= 25.173\ngini = 0.5\nsamples = 2\nvalue = [1, 0, 0, 0, 0, 0, 1, 0, 0, 0, 0]\nclass = 2010"] ;
44 -> 46 ;
47 [label="gini = 0.0\nsamples = 1\nvalue = [0, 0, 0, 0, 0, 0, 1, 0, 0, 0, 0]\nclass = 2016"] ;
46 -> 47 ;
48 [label="gini = 0.0\nsamples = 1\nvalue = [1, 0, 0, 0, 0, 0, 0, 0, 0, 0, 0]\nclass = 2010"] ;
46 -> 48 ;
49 [label="idhm <= 0.639\ngini = 0.719\nsamples = 8\nvalue = [0, 0, 3, 1, 2, 2, 0, 0, 0, 0, 0]\nclass = 2012"] ;
15 -> 49 ;
50 [label="cob_vac_bcg <= 35.605\ngini = 0.694\nsamples = 7\nvalue = [0, 0, 3, 1, 1, 2, 0, 0, 0, 0, 0]\nclass = 2012"] ;
49 -> 50 ;
51 [label="cob_vac_bcg <= 31.711\ngini = 0.611\nsamples = 6\nvalue = [0, 0, 3, 1, 0, 2, 0, 0, 0, 0, 0]\nclass = 2012"] ;
50 -> 51 ;
52 [label="gini = 0.0\nsamples = 1\nvalue = [0, 0, 0, 0, 0, 1, 0, 0, 0, 0, 0]\nclass = 2015"] ;
51 -> 52 ;
53 [label="exp_vida <= 72.235\ngini = 0.56\nsamples = 5\nvalue = [0, 0, 3, 1, 0, 1, 0, 0, 0, 0, 0]\nclass = 2012"] ;
51 -> 53 ;
54 [label="exp_vida <= 70.71\ngini = 0.375\nsamples = 4\nvalue = [0, 0, 3, 1, 0, 0, 0, 0, 0, 0, 0]\nclass = 2012"] ;
53 -> 54 ;
55 [label="cob_vac_bcg <= 33.82\ngini = 0.5\nsamples = 2\nvalue = [0, 0, 1, 1, 0, 0, 0, 0, 0, 0, 0]\nclass = 2012"] ;
54 -> 55 ;
56 [label="gini = 0.0\nsamples = 1\nvalue = [0, 0, 1, 0, 0, 0, 0, 0, 0, 0, 0]\nclass = 2012"] ;
55 -> 56 ;
57 [label="gini = 0.0\nsamples = 1\nvalue = [0, 0, 0, 1, 0, 0, 0, 0, 0, 0, 0]\nclass = 2013"] ;
55 -> 57 ;
58 [label="gini = 0.0\nsamples = 2\nvalue = [0, 0, 2, 0, 0, 0, 0, 0, 0, 0, 0]\nclass = 2012"] ;
54 -> 58 ;
59 [label="gini = 0.0\nsamples = 1\nvalue = [0, 0, 0, 0, 0, 1, 0, 0, 0, 0, 0]\nclass = 2015"] ;
53 -> 59 ;
60 [label="gini = 0.0\nsamples = 1\nvalue = [0, 0, 0, 0, 1, 0, 0, 0, 0, 0, 0]\nclass = 2014"] ;
50 -> 60 ;
61 [label="gini = 0.0\nsamples = 1\nvalue = [0, 0, 0, 0, 1, 0, 0, 0, 0, 0, 0]\nclass = 2014"] ;
49 -> 61 ;
62 [label="cob_vac_bcg <= 14.035\ngini = 0.837\nsamples = 19\nvalue = [0, 0, 0, 2, 1, 3, 5, 1, 3, 3, 1]\nclass = 2016"] ;
14 -> 62 ;
63 [label="gini = 0.0\nsamples = 2\nvalue = [0, 0, 0, 0, 0, 2, 0, 0, 0, 0, 0]\nclass = 2015"] ;
62 -> 63 ;
64 [label="cob_vac_bcg <= 24.982\ngini = 0.824\nsamples = 17\nvalue = [0, 0, 0, 2, 1, 1, 5, 1, 3, 3, 1]\nclass = 2016"] ;
62 -> 64 ;
65 [label="cob_vac_bcg <= 17.063\ngini = 0.78\nsamples = 10\nvalue = [0, 0, 0, 1, 1, 1, 3, 1, 0, 3, 0]\nclass = 2016"] ;
64 -> 65 ;
66 [label="exp_vida <= 73.855\ngini = 0.625\nsamples = 4\nvalue = [0, 0, 0, 0, 1, 0, 2, 1, 0, 0, 0]\nclass = 2016"] ;
65 -> 66 ;
67 [label="cob_vac_bcg <= 15.66\ngini = 0.5\nsamples = 2\nvalue = [0, 0, 0, 0, 1, 0, 0, 1, 0, 0, 0]\nclass = 2014"] ;
66 -> 67 ;
68 [label="gini = 0.0\nsamples = 1\nvalue = [0, 0, 0, 0, 0, 0, 0, 1, 0, 0, 0]\nclass = 2017"] ;
67 -> 68 ;
69 [label="gini = 0.0\nsamples = 1\nvalue = [0, 0, 0, 0, 1, 0, 0, 0, 0, 0, 0]\nclass = 2014"] ;
67 -> 69 ;
70 [label="gini = 0.0\nsamples = 2\nvalue = [0, 0, 0, 0, 0, 0, 2, 0, 0, 0, 0]\nclass = 2016"] ;
66 -> 70 ;
71 [label="idhm <= 0.659\ngini = 0.667\nsamples = 6\nvalue = [0, 0, 0, 1, 0, 1, 1, 0, 0, 3, 0]\nclass = 2019"] ;
65 -> 71 ;
72 [label="gini = 0.0\nsamples = 2\nvalue = [0, 0, 0, 0, 0, 0, 0, 0, 0, 2, 0]\nclass = 2019"] ;
71 -> 72 ;
73 [label="exp_vida <= 73.895\ngini = 0.75\nsamples = 4\nvalue = [0, 0, 0, 1, 0, 1, 1, 0, 0, 1, 0]\nclass = 2013"] ;
71 -> 73 ;
74 [label="cob_vac_bcg <= 19.95\ngini = 0.667\nsamples = 3\nvalue = [0, 0, 0, 0, 0, 1, 1, 0, 0, 1, 0]\nclass = 2015"] ;
73 -> 74 ;
75 [label="gini = 0.0\nsamples = 1\nvalue = [0, 0, 0, 0, 0, 0, 0, 0, 0, 1, 0]\nclass = 2019"] ;
74 -> 75 ;
76 [label="cob_vac_bcg <= 21.987\ngini = 0.5\nsamples = 2\nvalue = [0, 0, 0, 0, 0, 1, 1, 0, 0, 0, 0]\nclass = 2015"] ;
74 -> 76 ;
77 [label="gini = 0.0\nsamples = 1\nvalue = [0, 0, 0, 0, 0, 0, 1, 0, 0, 0, 0]\nclass = 2016"] ;
76 -> 77 ;
78 [label="gini = 0.0\nsamples = 1\nvalue = [0, 0, 0, 0, 0, 1, 0, 0, 0, 0, 0]\nclass = 2015"] ;
76 -> 78 ;
79 [label="gini = 0.0\nsamples = 1\nvalue = [0, 0, 0, 1, 0, 0, 0, 0, 0, 0, 0]\nclass = 2013"] ;
73 -> 79 ;
80 [label="cob_vac_bcg <= 27.15\ngini = 0.694\nsamples = 7\nvalue = [0, 0, 0, 1, 0, 0, 2, 0, 3, 0, 1]\nclass = 2018"] ;
64 -> 80 ;
81 [label="gini = 0.0\nsamples = 2\nvalue = [0, 0, 0, 0, 0, 0, 0, 0, 2, 0, 0]\nclass = 2018"] ;
80 -> 81 ;
82 [label="cob_vac_bcg <= 31.972\ngini = 0.72\nsamples = 5\nvalue = [0, 0, 0, 1, 0, 0, 2, 0, 1, 0, 1]\nclass = 2016"] ;
80 -> 82 ;
83 [label="cob_vac_bcg <= 29.09\ngini = 0.444\nsamples = 3\nvalue = [0, 0, 0, 0, 0, 0, 2, 0, 0, 0, 1]\nclass = 2016"] ;
82 -> 83 ;
84 [label="gini = 0.0\nsamples = 1\nvalue = [0, 0, 0, 0, 0, 0, 0, 0, 0, 0, 1]\nclass = 2020"] ;
83 -> 84 ;
85 [label="gini = 0.0\nsamples = 2\nvalue = [0, 0, 0, 0, 0, 0, 2, 0, 0, 0, 0]\nclass = 2016"] ;
83 -> 85 ;
86 [label="idhm <= 0.66\ngini = 0.5\nsamples = 2\nvalue = [0, 0, 0, 1, 0, 0, 0, 0, 1, 0, 0]\nclass = 2013"] ;
82 -> 86 ;
87 [label="gini = 0.0\nsamples = 1\nvalue = [0, 0, 0, 0, 0, 0, 0, 0, 1, 0, 0]\nclass = 2018"] ;
86 -> 87 ;
88 [label="gini = 0.0\nsamples = 1\nvalue = [0, 0, 0, 1, 0, 0, 0, 0, 0, 0, 0]\nclass = 2013"] ;
86 -> 88 ;
89 [label="exp_vida <= 74.125\ngini = 0.889\nsamples = 90\nvalue = [6, 8, 10, 7, 3, 9, 11, 9, 1, 10, 16]\nclass = 2020"] ;
1 -> 89 ;
90 [label="cob_vac_bcg <= 57.08\ngini = 0.892\nsamples = 86\nvalue = [6, 8, 10, 6, 3, 9, 11, 9, 1, 10, 13]\nclass = 2020"] ;
89 -> 90 ;
91 [label="idhm <= 0.688\ngini = 0.883\nsamples = 60\nvalue = [4, 6, 8, 1, 2, 7, 5, 8, 1, 9, 9]\nclass = 2019"] ;
90 -> 91 ;
92 [label="cob_vac_bcg <= 54.366\ngini = 0.884\nsamples = 58\nvalue = [4, 6, 8, 1, 2, 7, 5, 8, 1, 7, 9]\nclass = 2020"] ;
91 -> 92 ;
93 [label="exp_vida <= 71.245\ngini = 0.879\nsamples = 46\nvalue = [3, 3, 6, 1, 1, 6, 5, 8, 1, 7, 5]\nclass = 2017"] ;
92 -> 93 ;
94 [label="cob_vac_bcg <= 37.787\ngini = 0.806\nsamples = 12\nvalue = [2, 1, 1, 0, 0, 2, 3, 3, 0, 0, 0]\nclass = 2016"] ;
93 -> 94 ;
95 [label="exp_vida <= 70.395\ngini = 0.444\nsamples = 3\nvalue = [1, 0, 0, 0, 0, 0, 0, 2, 0, 0, 0]\nclass = 2017"] ;
94 -> 95 ;
96 [label="gini = 0.0\nsamples = 2\nvalue = [0, 0, 0, 0, 0, 0, 0, 2, 0, 0, 0]\nclass = 2017"] ;
95 -> 96 ;
97 [label="gini = 0.0\nsamples = 1\nvalue = [1, 0, 0, 0, 0, 0, 0, 0, 0, 0, 0]\nclass = 2010"] ;
95 -> 97 ;
98 [label="cob_vac_bcg <= 49.31\ngini = 0.79\nsamples = 9\nvalue = [1, 1, 1, 0, 0, 2, 3, 1, 0, 0, 0]\nclass = 2016"] ;
94 -> 98 ;
99 [label="cob_vac_bcg <= 39.849\ngini = 0.694\nsamples = 7\nvalue = [1, 0, 1, 0, 0, 2, 3, 0, 0, 0, 0]\nclass = 2016"] ;
98 -> 99 ;
100 [label="gini = 0.0\nsamples = 1\nvalue = [0, 0, 1, 0, 0, 0, 0, 0, 0, 0, 0]\nclass = 2012"] ;
99 -> 100 ;
101 [label="idhm <= 0.586\ngini = 0.611\nsamples = 6\nvalue = [1, 0, 0, 0, 0, 2, 3, 0, 0, 0, 0]\nclass = 2016"] ;
99 -> 101 ;
102 [label="gini = 0.0\nsamples = 1\nvalue = [1, 0, 0, 0, 0, 0, 0, 0, 0, 0, 0]\nclass = 2010"] ;
101 -> 102 ;
103 [label="cob_vac_bcg <= 44.015\ngini = 0.48\nsamples = 5\nvalue = [0, 0, 0, 0, 0, 2, 3, 0, 0, 0, 0]\nclass = 2016"] ;
101 -> 103 ;
104 [label="cob_vac_bcg <= 41.961\ngini = 0.444\nsamples = 3\nvalue = [0, 0, 0, 0, 0, 2, 1, 0, 0, 0, 0]\nclass = 2015"] ;
103 -> 104 ;
105 [label="gini = 0.0\nsamples = 1\nvalue = [0, 0, 0, 0, 0, 0, 1, 0, 0, 0, 0]\nclass = 2016"] ;
104 -> 105 ;
106 [label="gini = 0.0\nsamples = 2\nvalue = [0, 0, 0, 0, 0, 2, 0, 0, 0, 0, 0]\nclass = 2015"] ;
104 -> 106 ;
107 [label="gini = 0.0\nsamples = 2\nvalue = [0, 0, 0, 0, 0, 0, 2, 0, 0, 0, 0]\nclass = 2016"] ;
103 -> 107 ;
108 [label="idhm <= 0.588\ngini = 0.5\nsamples = 2\nvalue = [0, 1, 0, 0, 0, 0, 0, 1, 0, 0, 0]\nclass = 2011"] ;
98 -> 108 ;
109 [label="gini = 0.0\nsamples = 1\nvalue = [0, 0, 0, 0, 0, 0, 0, 1, 0, 0, 0]\nclass = 2017"] ;
108 -> 109 ;
110 [label="gini = 0.0\nsamples = 1\nvalue = [0, 1, 0, 0, 0, 0, 0, 0, 0, 0, 0]\nclass = 2011"] ;
108 -> 110 ;
111 [label="cob_vac_bcg <= 38.293\ngini = 0.869\nsamples = 34\nvalue = [1, 2, 5, 1, 1, 4, 2, 5, 1, 7, 5]\nclass = 2019"] ;
93 -> 111 ;
112 [label="gini = 0.0\nsamples = 2\nvalue = [0, 0, 0, 0, 0, 0, 0, 0, 0, 2, 0]\nclass = 2019"] ;
111 -> 112 ;
113 [label="exp_vida <= 71.595\ngini = 0.875\nsamples = 32\nvalue = [1, 2, 5, 1, 1, 4, 2, 5, 1, 5, 5]\nclass = 2012"] ;
111 -> 113 ;
114 [label="cob_vac_bcg <= 44.721\ngini = 0.667\nsamples = 6\nvalue = [1, 0, 0, 0, 1, 0, 0, 1, 0, 3, 0]\nclass = 2019"] ;
113 -> 114 ;
115 [label="gini = 0.0\nsamples = 1\nvalue = [1, 0, 0, 0, 0, 0, 0, 0, 0, 0, 0]\nclass = 2010"] ;
114 -> 115 ;
116 [label="exp_vida <= 71.395\ngini = 0.56\nsamples = 5\nvalue = [0, 0, 0, 0, 1, 0, 0, 1, 0, 3, 0]\nclass = 2019"] ;
114 -> 116 ;
117 [label="cob_vac_bcg <= 50.777\ngini = 0.667\nsamples = 3\nvalue = [0, 0, 0, 0, 1, 0, 0, 1, 0, 1, 0]\nclass = 2014"] ;
116 -> 117 ;
118 [label="gini = 0.0\nsamples = 1\nvalue = [0, 0, 0, 0, 0, 0, 0, 1, 0, 0, 0]\nclass = 2017"] ;
117 -> 118 ;
119 [label="cob_vac_bcg <= 52.351\ngini = 0.5\nsamples = 2\nvalue = [0, 0, 0, 0, 1, 0, 0, 0, 0, 1, 0]\nclass = 2014"] ;
117 -> 119 ;
120 [label="gini = 0.0\nsamples = 1\nvalue = [0, 0, 0, 0, 1, 0, 0, 0, 0, 0, 0]\nclass = 2014"] ;
119 -> 120 ;
121 [label="gini = 0.0\nsamples = 1\nvalue = [0, 0, 0, 0, 0, 0, 0, 0, 0, 1, 0]\nclass = 2019"] ;
119 -> 121 ;
122 [label="gini = 0.0\nsamples = 2\nvalue = [0, 0, 0, 0, 0, 0, 0, 0, 0, 2, 0]\nclass = 2019"] ;
116 -> 122 ;
123 [label="exp_vida <= 73.115\ngini = 0.858\nsamples = 26\nvalue = [0, 2, 5, 1, 0, 4, 2, 4, 1, 2, 5]\nclass = 2012"] ;
113 -> 123 ;
124 [label="exp_vida <= 72.14\ngini = 0.722\nsamples = 13\nvalue = [0, 1, 5, 0, 0, 2, 1, 0, 0, 0, 4]\nclass = 2012"] ;
123 -> 124 ;
125 [label="idhm <= 0.62\ngini = 0.5\nsamples = 2\nvalue = [0, 0, 0, 0, 0, 0, 1, 0, 0, 0, 1]\nclass = 2016"] ;
124 -> 125 ;
126 [label="gini = 0.0\nsamples = 1\nvalue = [0, 0, 0, 0, 0, 0, 0, 0, 0, 0, 1]\nclass = 2020"] ;
125 -> 126 ;
127 [label="gini = 0.0\nsamples = 1\nvalue = [0, 0, 0, 0, 0, 0, 1, 0, 0, 0, 0]\nclass = 2016"] ;
125 -> 127 ;
128 [label="cob_vac_bcg <= 47.442\ngini = 0.678\nsamples = 11\nvalue = [0, 1, 5, 0, 0, 2, 0, 0, 0, 0, 3]\nclass = 2012"] ;
124 -> 128 ;
129 [label="exp_vida <= 72.755\ngini = 0.735\nsamples = 7\nvalue = [0, 1, 2, 0, 0, 2, 0, 0, 0, 0, 2]\nclass = 2012"] ;
128 -> 129 ;
130 [label="cob_vac_bcg <= 43.693\ngini = 0.444\nsamples = 3\nvalue = [0, 0, 2, 0, 0, 1, 0, 0, 0, 0, 0]\nclass = 2012"] ;
129 -> 130 ;
131 [label="gini = 0.0\nsamples = 2\nvalue = [0, 0, 2, 0, 0, 0, 0, 0, 0, 0, 0]\nclass = 2012"] ;
130 -> 131 ;
132 [label="gini = 0.0\nsamples = 1\nvalue = [0, 0, 0, 0, 0, 1, 0, 0, 0, 0, 0]\nclass = 2015"] ;
130 -> 132 ;
133 [label="idhm <= 0.632\ngini = 0.625\nsamples = 4\nvalue = [0, 1, 0, 0, 0, 1, 0, 0, 0, 0, 2]\nclass = 2020"] ;
129 -> 133 ;
134 [label="cob_vac_bcg <= 46.257\ngini = 0.5\nsamples = 2\nvalue = [0, 0, 0, 0, 0, 1, 0, 0, 0, 0, 1]\nclass = 2015"] ;
133 -> 134 ;
135 [label="gini = 0.0\nsamples = 1\nvalue = [0, 0, 0, 0, 0, 1, 0, 0, 0, 0, 0]\nclass = 2015"] ;
134 -> 135 ;
136 [label="gini = 0.0\nsamples = 1\nvalue = [0, 0, 0, 0, 0, 0, 0, 0, 0, 0, 1]\nclass = 2020"] ;
134 -> 136 ;
137 [label="cob_vac_bcg <= 43.416\ngini = 0.5\nsamples = 2\nvalue = [0, 1, 0, 0, 0, 0, 0, 0, 0, 0, 1]\nclass = 2011"] ;
133 -> 137 ;
138 [label="gini = 0.0\nsamples = 1\nvalue = [0, 0, 0, 0, 0, 0, 0, 0, 0, 0, 1]\nclass = 2020"] ;
137 -> 138 ;
139 [label="gini = 0.0\nsamples = 1\nvalue = [0, 1, 0, 0, 0, 0, 0, 0, 0, 0, 0]\nclass = 2011"] ;
137 -> 139 ;
140 [label="cob_vac_bcg <= 51.999\ngini = 0.375\nsamples = 4\nvalue = [0, 0, 3, 0, 0, 0, 0, 0, 0, 0, 1]\nclass = 2012"] ;
128 -> 140 ;
141 [label="gini = 0.0\nsamples = 2\nvalue = [0, 0, 2, 0, 0, 0, 0, 0, 0, 0, 0]\nclass = 2012"] ;
140 -> 141 ;
142 [label="cob_vac_bcg <= 52.88\ngini = 0.5\nsamples = 2\nvalue = [0, 0, 1, 0, 0, 0, 0, 0, 0, 0, 1]\nclass = 2012"] ;
140 -> 142 ;
143 [label="gini = 0.0\nsamples = 1\nvalue = [0, 0, 0, 0, 0, 0, 0, 0, 0, 0, 1]\nclass = 2020"] ;
142 -> 143 ;
144 [label="gini = 0.0\nsamples = 1\nvalue = [0, 0, 1, 0, 0, 0, 0, 0, 0, 0, 0]\nclass = 2012"] ;
142 -> 144 ;
145 [label="cob_vac_bcg <= 39.149\ngini = 0.828\nsamples = 13\nvalue = [0, 1, 0, 1, 0, 2, 1, 4, 1, 2, 1]\nclass = 2017"] ;
123 -> 145 ;
146 [label="gini = 0.0\nsamples = 1\nvalue = [0, 1, 0, 0, 0, 0, 0, 0, 0, 0, 0]\nclass = 2011"] ;
145 -> 146 ;
147 [label="cob_vac_bcg <= 52.602\ngini = 0.806\nsamples = 12\nvalue = [0, 0, 0, 1, 0, 2, 1, 4, 1, 2, 1]\nclass = 2017"] ;
145 -> 147 ;
148 [label="cob_vac_bcg <= 40.439\ngini = 0.741\nsamples = 9\nvalue = [0, 0, 0, 1, 0, 1, 0, 4, 1, 1, 1]\nclass = 2017"] ;
147 -> 148 ;
149 [label="gini = 0.0\nsamples = 1\nvalue = [0, 0, 0, 0, 0, 1, 0, 0, 0, 0, 0]\nclass = 2015"] ;
148 -> 149 ;
150 [label="exp_vida <= 73.185\ngini = 0.688\nsamples = 8\nvalue = [0, 0, 0, 1, 0, 0, 0, 4, 1, 1, 1]\nclass = 2017"] ;
148 -> 150 ;
151 [label="gini = 0.0\nsamples = 1\nvalue = [0, 0, 0, 0, 0, 0, 0, 0, 0, 1, 0]\nclass = 2019"] ;
150 -> 151 ;
152 [label="exp_vida <= 73.96\ngini = 0.612\nsamples = 7\nvalue = [0, 0, 0, 1, 0, 0, 0, 4, 1, 0, 1]\nclass = 2017"] ;
150 -> 152 ;
153 [label="cob_vac_bcg <= 46.232\ngini = 0.375\nsamples = 4\nvalue = [0, 0, 0, 0, 0, 0, 0, 3, 0, 0, 1]\nclass = 2017"] ;
152 -> 153 ;
154 [label="cob_vac_bcg <= 42.674\ngini = 0.5\nsamples = 2\nvalue = [0, 0, 0, 0, 0, 0, 0, 1, 0, 0, 1]\nclass = 2017"] ;
153 -> 154 ;
155 [label="gini = 0.0\nsamples = 1\nvalue = [0, 0, 0, 0, 0, 0, 0, 1, 0, 0, 0]\nclass = 2017"] ;
154 -> 155 ;
156 [label="gini = 0.0\nsamples = 1\nvalue = [0, 0, 0, 0, 0, 0, 0, 0, 0, 0, 1]\nclass = 2020"] ;
154 -> 156 ;
157 [label="gini = 0.0\nsamples = 2\nvalue = [0, 0, 0, 0, 0, 0, 0, 2, 0, 0, 0]\nclass = 2017"] ;
153 -> 157 ;
158 [label="cob_vac_bcg <= 43.961\ngini = 0.667\nsamples = 3\nvalue = [0, 0, 0, 1, 0, 0, 0, 1, 1, 0, 0]\nclass = 2013"] ;
152 -> 158 ;
159 [label="gini = 0.0\nsamples = 1\nvalue = [0, 0, 0, 0, 0, 0, 0, 1, 0, 0, 0]\nclass = 2017"] ;
158 -> 159 ;
160 [label="cob_vac_bcg <= 48.283\ngini = 0.5\nsamples = 2\nvalue = [0, 0, 0, 1, 0, 0, 0, 0, 1, 0, 0]\nclass = 2013"] ;
158 -> 160 ;
161 [label="gini = 0.0\nsamples = 1\nvalue = [0, 0, 0, 0, 0, 0, 0, 0, 1, 0, 0]\nclass = 2018"] ;
160 -> 161 ;
162 [label="gini = 0.0\nsamples = 1\nvalue = [0, 0, 0, 1, 0, 0, 0, 0, 0, 0, 0]\nclass = 2013"] ;
160 -> 162 ;
163 [label="idhm <= 0.657\ngini = 0.667\nsamples = 3\nvalue = [0, 0, 0, 0, 0, 1, 1, 0, 0, 1, 0]\nclass = 2015"] ;
147 -> 163 ;
164 [label="gini = 0.0\nsamples = 1\nvalue = [0, 0, 0, 0, 0, 0, 1, 0, 0, 0, 0]\nclass = 2016"] ;
163 -> 164 ;
165 [label="cob_vac_bcg <= 53.827\ngini = 0.5\nsamples = 2\nvalue = [0, 0, 0, 0, 0, 1, 0, 0, 0, 1, 0]\nclass = 2015"] ;
163 -> 165 ;
166 [label="gini = 0.0\nsamples = 1\nvalue = [0, 0, 0, 0, 0, 0, 0, 0, 0, 1, 0]\nclass = 2019"] ;
165 -> 166 ;
167 [label="gini = 0.0\nsamples = 1\nvalue = [0, 0, 0, 0, 0, 1, 0, 0, 0, 0, 0]\nclass = 2015"] ;
165 -> 167 ;
168 [label="exp_vida <= 71.665\ngini = 0.778\nsamples = 12\nvalue = [1, 3, 2, 0, 1, 1, 0, 0, 0, 0, 4]\nclass = 2020"] ;
92 -> 168 ;
169 [label="cob_vac_bcg <= 56.724\ngini = 0.32\nsamples = 5\nvalue = [0, 0, 0, 0, 0, 1, 0, 0, 0, 0, 4]\nclass = 2020"] ;
168 -> 169 ;
170 [label="gini = 0.0\nsamples = 4\nvalue = [0, 0, 0, 0, 0, 0, 0, 0, 0, 0, 4]\nclass = 2020"] ;
169 -> 170 ;
171 [label="gini = 0.0\nsamples = 1\nvalue = [0, 0, 0, 0, 0, 1, 0, 0, 0, 0, 0]\nclass = 2015"] ;
169 -> 171 ;
172 [label="idhm <= 0.618\ngini = 0.694\nsamples = 7\nvalue = [1, 3, 2, 0, 1, 0, 0, 0, 0, 0, 0]\nclass = 2011"] ;
168 -> 172 ;
173 [label="gini = 0.0\nsamples = 1\nvalue = [0, 0, 1, 0, 0, 0, 0, 0, 0, 0, 0]\nclass = 2012"] ;
172 -> 173 ;
174 [label="idhm <= 0.657\ngini = 0.667\nsamples = 6\nvalue = [1, 3, 1, 0, 1, 0, 0, 0, 0, 0, 0]\nclass = 2011"] ;
172 -> 174 ;
175 [label="cob_vac_bcg <= 55.918\ngini = 0.56\nsamples = 5\nvalue = [1, 3, 0, 0, 1, 0, 0, 0, 0, 0, 0]\nclass = 2011"] ;
174 -> 175 ;
176 [label="idhm <= 0.636\ngini = 0.5\nsamples = 2\nvalue = [0, 1, 0, 0, 1, 0, 0, 0, 0, 0, 0]\nclass = 2011"] ;
175 -> 176 ;
177 [label="gini = 0.0\nsamples = 1\nvalue = [0, 1, 0, 0, 0, 0, 0, 0, 0, 0, 0]\nclass = 2011"] ;
176 -> 177 ;
178 [label="gini = 0.0\nsamples = 1\nvalue = [0, 0, 0, 0, 1, 0, 0, 0, 0, 0, 0]\nclass = 2014"] ;
176 -> 178 ;
179 [label="idhm <= 0.638\ngini = 0.444\nsamples = 3\nvalue = [1, 2, 0, 0, 0, 0, 0, 0, 0, 0, 0]\nclass = 2011"] ;
175 -> 179 ;
180 [label="gini = 0.5\nsamples = 2\nvalue = [1, 1, 0, 0, 0, 0, 0, 0, 0, 0, 0]\nclass = 2010"] ;
179 -> 180 ;
181 [label="gini = 0.0\nsamples = 1\nvalue = [0, 1, 0, 0, 0, 0, 0, 0, 0, 0, 0]\nclass = 2011"] ;
179 -> 181 ;
182 [label="gini = 0.0\nsamples = 1\nvalue = [0, 0, 1, 0, 0, 0, 0, 0, 0, 0, 0]\nclass = 2012"] ;
174 -> 182 ;
183 [label="gini = 0.0\nsamples = 2\nvalue = [0, 0, 0, 0, 0, 0, 0, 0, 0, 2, 0]\nclass = 2019"] ;
91 -> 183 ;
184 [label="cob_vac_bcg <= 60.062\ngini = 0.858\nsamples = 26\nvalue = [2, 2, 2, 5, 1, 2, 6, 1, 0, 1, 4]\nclass = 2016"] ;
90 -> 184 ;
185 [label="exp_vida <= 73.495\ngini = 0.75\nsamples = 12\nvalue = [1, 0, 2, 2, 1, 0, 5, 0, 0, 0, 1]\nclass = 2016"] ;
184 -> 185 ;
186 [label="idhm <= 0.592\ngini = 0.642\nsamples = 9\nvalue = [1, 0, 1, 1, 0, 0, 5, 0, 0, 0, 1]\nclass = 2016"] ;
185 -> 186 ;
187 [label="gini = 0.0\nsamples = 1\nvalue = [0, 0, 0, 0, 0, 0, 0, 0, 0, 0, 1]\nclass = 2020"] ;
186 -> 187 ;
188 [label="cob_vac_bcg <= 57.888\ngini = 0.562\nsamples = 8\nvalue = [1, 0, 1, 1, 0, 0, 5, 0, 0, 0, 0]\nclass = 2016"] ;
186 -> 188 ;
189 [label="exp_vida <= 72.635\ngini = 0.667\nsamples = 3\nvalue = [1, 0, 0, 1, 0, 0, 1, 0, 0, 0, 0]\nclass = 2010"] ;
188 -> 189 ;
190 [label="gini = 0.0\nsamples = 1\nvalue = [0, 0, 0, 1, 0, 0, 0, 0, 0, 0, 0]\nclass = 2013"] ;
189 -> 190 ;
191 [label="cob_vac_bcg <= 57.631\ngini = 0.5\nsamples = 2\nvalue = [1, 0, 0, 0, 0, 0, 1, 0, 0, 0, 0]\nclass = 2010"] ;
189 -> 191 ;
192 [label="gini = 0.0\nsamples = 1\nvalue = [0, 0, 0, 0, 0, 0, 1, 0, 0, 0, 0]\nclass = 2016"] ;
191 -> 192 ;
193 [label="gini = 0.0\nsamples = 1\nvalue = [1, 0, 0, 0, 0, 0, 0, 0, 0, 0, 0]\nclass = 2010"] ;
191 -> 193 ;
194 [label="cob_vac_bcg <= 58.528\ngini = 0.32\nsamples = 5\nvalue = [0, 0, 1, 0, 0, 0, 4, 0, 0, 0, 0]\nclass = 2016"] ;
188 -> 194 ;
195 [label="cob_vac_bcg <= 57.972\ngini = 0.5\nsamples = 2\nvalue = [0, 0, 1, 0, 0, 0, 1, 0, 0, 0, 0]\nclass = 2012"] ;
194 -> 195 ;
196 [label="gini = 0.0\nsamples = 1\nvalue = [0, 0, 0, 0, 0, 0, 1, 0, 0, 0, 0]\nclass = 2016"] ;
195 -> 196 ;
197 [label="gini = 0.0\nsamples = 1\nvalue = [0, 0, 1, 0, 0, 0, 0, 0, 0, 0, 0]\nclass = 2012"] ;
195 -> 197 ;
198 [label="gini = 0.0\nsamples = 3\nvalue = [0, 0, 0, 0, 0, 0, 3, 0, 0, 0, 0]\nclass = 2016"] ;
194 -> 198 ;
199 [label="exp_vida <= 73.79\ngini = 0.667\nsamples = 3\nvalue = [0, 0, 1, 1, 1, 0, 0, 0, 0, 0, 0]\nclass = 2012"] ;
185 -> 199 ;
200 [label="cob_vac_bcg <= 59.056\ngini = 0.5\nsamples = 2\nvalue = [0, 0, 1, 0, 1, 0, 0, 0, 0, 0, 0]\nclass = 2012"] ;
199 -> 200 ;
201 [label="gini = 0.0\nsamples = 1\nvalue = [0, 0, 0, 0, 1, 0, 0, 0, 0, 0, 0]\nclass = 2014"] ;
200 -> 201 ;
202 [label="gini = 0.0\nsamples = 1\nvalue = [0, 0, 1, 0, 0, 0, 0, 0, 0, 0, 0]\nclass = 2012"] ;
200 -> 202 ;
203 [label="gini = 0.0\nsamples = 1\nvalue = [0, 0, 0, 1, 0, 0, 0, 0, 0, 0, 0]\nclass = 2013"] ;
199 -> 203 ;
204 [label="idhm <= 0.676\ngini = 0.847\nsamples = 14\nvalue = [1, 2, 0, 3, 0, 2, 1, 1, 0, 1, 3]\nclass = 2013"] ;
184 -> 204 ;
205 [label="exp_vida <= 70.575\ngini = 0.847\nsamples = 12\nvalue = [1, 2, 0, 3, 0, 2, 1, 1, 0, 1, 1]\nclass = 2013"] ;
204 -> 205 ;
206 [label="cob_vac_bcg <= 61.345\ngini = 0.5\nsamples = 2\nvalue = [0, 0, 0, 0, 0, 0, 0, 0, 0, 1, 1]\nclass = 2019"] ;
205 -> 206 ;
207 [label="gini = 0.0\nsamples = 1\nvalue = [0, 0, 0, 0, 0, 0, 0, 0, 0, 0, 1]\nclass = 2020"] ;
206 -> 207 ;
208 [label="gini = 0.0\nsamples = 1\nvalue = [0, 0, 0, 0, 0, 0, 0, 0, 0, 1, 0]\nclass = 2019"] ;
206 -> 208 ;
209 [label="cob_vac_bcg <= 62.043\ngini = 0.8\nsamples = 10\nvalue = [1, 2, 0, 3, 0, 2, 1, 1, 0, 0, 0]\nclass = 2013"] ;
205 -> 209 ;
210 [label="cob_vac_bcg <= 61.422\ngini = 0.444\nsamples = 3\nvalue = [0, 0, 0, 1, 0, 2, 0, 0, 0, 0, 0]\nclass = 2015"] ;
209 -> 210 ;
211 [label="gini = 0.0\nsamples = 1\nvalue = [0, 0, 0, 1, 0, 0, 0, 0, 0, 0, 0]\nclass = 2013"] ;
210 -> 211 ;
212 [label="gini = 0.0\nsamples = 2\nvalue = [0, 0, 0, 0, 0, 2, 0, 0, 0, 0, 0]\nclass = 2015"] ;
210 -> 212 ;
213 [label="cob_vac_bcg <= 62.056\ngini = 0.776\nsamples = 7\nvalue = [1, 2, 0, 2, 0, 0, 1, 1, 0, 0, 0]\nclass = 2011"] ;
209 -> 213 ;
214 [label="gini = 0.0\nsamples = 1\nvalue = [0, 0, 0, 0, 0, 0, 0, 1, 0, 0, 0]\nclass = 2017"] ;
213 -> 214 ;
215 [label="cob_vac_bcg <= 63.614\ngini = 0.722\nsamples = 6\nvalue = [1, 2, 0, 2, 0, 0, 1, 0, 0, 0, 0]\nclass = 2011"] ;
213 -> 215 ;
216 [label="idhm <= 0.605\ngini = 0.444\nsamples = 3\nvalue = [0, 2, 0, 1, 0, 0, 0, 0, 0, 0, 0]\nclass = 2011"] ;
215 -> 216 ;
217 [label="gini = 0.0\nsamples = 1\nvalue = [0, 0, 0, 1, 0, 0, 0, 0, 0, 0, 0]\nclass = 2013"] ;
216 -> 217 ;
218 [label="gini = 0.0\nsamples = 2\nvalue = [0, 2, 0, 0, 0, 0, 0, 0, 0, 0, 0]\nclass = 2011"] ;
216 -> 218 ;
219 [label="exp_vida <= 73.04\ngini = 0.667\nsamples = 3\nvalue = [1, 0, 0, 1, 0, 0, 1, 0, 0, 0, 0]\nclass = 2010"] ;
215 -> 219 ;
220 [label="gini = 0.0\nsamples = 1\nvalue = [1, 0, 0, 0, 0, 0, 0, 0, 0, 0, 0]\nclass = 2010"] ;
219 -> 220 ;
221 [label="idhm <= 0.636\ngini = 0.5\nsamples = 2\nvalue = [0, 0, 0, 1, 0, 0, 1, 0, 0, 0, 0]\nclass = 2013"] ;
219 -> 221 ;
222 [label="gini = 0.0\nsamples = 1\nvalue = [0, 0, 0, 1, 0, 0, 0, 0, 0, 0, 0]\nclass = 2013"] ;
221 -> 222 ;
223 [label="gini = 0.0\nsamples = 1\nvalue = [0, 0, 0, 0, 0, 0, 1, 0, 0, 0, 0]\nclass = 2016"] ;
221 -> 223 ;
224 [label="gini = 0.0\nsamples = 2\nvalue = [0, 0, 0, 0, 0, 0, 0, 0, 0, 0, 2]\nclass = 2020"] ;
204 -> 224 ;
225 [label="cob_vac_bcg <= 53.147\ngini = 0.375\nsamples = 4\nvalue = [0, 0, 0, 1, 0, 0, 0, 0, 0, 0, 3]\nclass = 2020"] ;
89 -> 225 ;
226 [label="cob_vac_bcg <= 45.71\ngini = 0.5\nsamples = 2\nvalue = [0, 0, 0, 1, 0, 0, 0, 0, 0, 0, 1]\nclass = 2013"] ;
225 -> 226 ;
227 [label="gini = 0.0\nsamples = 1\nvalue = [0, 0, 0, 0, 0, 0, 0, 0, 0, 0, 1]\nclass = 2020"] ;
226 -> 227 ;
228 [label="gini = 0.0\nsamples = 1\nvalue = [0, 0, 0, 1, 0, 0, 0, 0, 0, 0, 0]\nclass = 2013"] ;
226 -> 228 ;
229 [label="gini = 0.0\nsamples = 2\nvalue = [0, 0, 0, 0, 0, 0, 0, 0, 0, 0, 2]\nclass = 2020"] ;
225 -> 229 ;
230 [label="cob_vac_bcg <= 89.554\ngini = 0.904\nsamples = 309\nvalue = [37, 25, 25, 24, 28, 25, 20, 34, 40, 33, 18]\nclass = 2018"] ;
0 -> 230 [labeldistance=2.5, labelangle=-45, headlabel="False"] ;
231 [label="cob_vac_bcg <= 89.118\ngini = 0.881\nsamples = 104\nvalue = [13, 8, 12, 5, 3, 5, 1, 17, 18, 11, 11]\nclass = 2018"] ;
230 -> 231 ;
232 [label="idhm <= 0.642\ngini = 0.883\nsamples = 101\nvalue = [13, 8, 12, 5, 3, 5, 1, 17, 15, 11, 11]\nclass = 2017"] ;
231 -> 232 ;
233 [label="idhm <= 0.611\ngini = 0.862\nsamples = 51\nvalue = [6, 3, 8, 2, 2, 1, 1, 10, 10, 6, 2]\nclass = 2017"] ;
232 -> 233 ;
234 [label="cob_vac_bcg <= 65.577\ngini = 0.852\nsamples = 32\nvalue = [3, 2, 7, 2, 1, 0, 0, 4, 7, 4, 2]\nclass = 2012"] ;
233 -> 234 ;
235 [label="exp_vida <= 71.175\ngini = 0.56\nsamples = 5\nvalue = [0, 0, 0, 0, 0, 0, 0, 3, 1, 1, 0]\nclass = 2017"] ;
234 -> 235 ;
236 [label="gini = 0.0\nsamples = 3\nvalue = [0, 0, 0, 0, 0, 0, 0, 3, 0, 0, 0]\nclass = 2017"] ;
235 -> 236 ;
237 [label="cob_vac_bcg <= 64.999\ngini = 0.5\nsamples = 2\nvalue = [0, 0, 0, 0, 0, 0, 0, 0, 1, 1, 0]\nclass = 2018"] ;
235 -> 237 ;
238 [label="gini = 0.0\nsamples = 1\nvalue = [0, 0, 0, 0, 0, 0, 0, 0, 1, 0, 0]\nclass = 2018"] ;
237 -> 238 ;
239 [label="gini = 0.0\nsamples = 1\nvalue = [0, 0, 0, 0, 0, 0, 0, 0, 0, 1, 0]\nclass = 2019"] ;
237 -> 239 ;
240 [label="cob_vac_bcg <= 66.395\ngini = 0.84\nsamples = 27\nvalue = [3, 2, 7, 2, 1, 0, 0, 1, 6, 3, 2]\nclass = 2012"] ;
234 -> 240 ;
241 [label="gini = 0.0\nsamples = 1\nvalue = [0, 0, 0, 0, 0, 0, 0, 0, 0, 0, 1]\nclass = 2020"] ;
240 -> 241 ;
242 [label="cob_vac_bcg <= 67.297\ngini = 0.831\nsamples = 26\nvalue = [3, 2, 7, 2, 1, 0, 0, 1, 6, 3, 1]\nclass = 2012"] ;
240 -> 242 ;
243 [label="gini = 0.0\nsamples = 1\nvalue = [1, 0, 0, 0, 0, 0, 0, 0, 0, 0, 0]\nclass = 2010"] ;
242 -> 243 ;
244 [label="cob_vac_bcg <= 68.534\ngini = 0.826\nsamples = 25\nvalue = [2, 2, 7, 2, 1, 0, 0, 1, 6, 3, 1]\nclass = 2012"] ;
242 -> 244 ;
245 [label="gini = 0.0\nsamples = 1\nvalue = [0, 0, 0, 0, 0, 0, 0, 0, 0, 1, 0]\nclass = 2019"] ;
244 -> 245 ;
246 [label="exp_vida <= 70.34\ngini = 0.819\nsamples = 24\nvalue = [2, 2, 7, 2, 1, 0, 0, 1, 6, 2, 1]\nclass = 2012"] ;
244 -> 246 ;
247 [label="cob_vac_bcg <= 75.496\ngini = 0.82\nsamples = 10\nvalue = [1, 0, 3, 0, 1, 0, 0, 1, 1, 2, 1]\nclass = 2012"] ;
246 -> 247 ;
248 [label="gini = 0.0\nsamples = 1\nvalue = [0, 0, 0, 0, 0, 0, 0, 1, 0, 0, 0]\nclass = 2017"] ;
247 -> 248 ;
249 [label="idhm <= 0.604\ngini = 0.79\nsamples = 9\nvalue = [1, 0, 3, 0, 1, 0, 0, 0, 1, 2, 1]\nclass = 2012"] ;
247 -> 249 ;
250 [label="cob_vac_bcg <= 86.652\ngini = 0.722\nsamples = 6\nvalue = [1, 0, 2, 0, 1, 0, 0, 0, 0, 2, 0]\nclass = 2012"] ;
249 -> 250 ;
251 [label="cob_vac_bcg <= 80.221\ngini = 0.444\nsamples = 3\nvalue = [0, 0, 1, 0, 0, 0, 0, 0, 0, 2, 0]\nclass = 2019"] ;
250 -> 251 ;
252 [label="gini = 0.0\nsamples = 1\nvalue = [0, 0, 1, 0, 0, 0, 0, 0, 0, 0, 0]\nclass = 2012"] ;
251 -> 252 ;
253 [label="gini = 0.0\nsamples = 2\nvalue = [0, 0, 0, 0, 0, 0, 0, 0, 0, 2, 0]\nclass = 2019"] ;
251 -> 253 ;
254 [label="cob_vac_bcg <= 87.245\ngini = 0.667\nsamples = 3\nvalue = [1, 0, 1, 0, 1, 0, 0, 0, 0, 0, 0]\nclass = 2010"] ;
250 -> 254 ;
255 [label="gini = 0.0\nsamples = 1\nvalue = [1, 0, 0, 0, 0, 0, 0, 0, 0, 0, 0]\nclass = 2010"] ;
254 -> 255 ;
256 [label="cob_vac_bcg <= 88.464\ngini = 0.5\nsamples = 2\nvalue = [0, 0, 1, 0, 1, 0, 0, 0, 0, 0, 0]\nclass = 2012"] ;
254 -> 256 ;
257 [label="gini = 0.0\nsamples = 1\nvalue = [0, 0, 0, 0, 1, 0, 0, 0, 0, 0, 0]\nclass = 2014"] ;
256 -> 257 ;
258 [label="gini = 0.0\nsamples = 1\nvalue = [0, 0, 1, 0, 0, 0, 0, 0, 0, 0, 0]\nclass = 2012"] ;
256 -> 258 ;
259 [label="cob_vac_bcg <= 82.97\ngini = 0.667\nsamples = 3\nvalue = [0, 0, 1, 0, 0, 0, 0, 0, 1, 0, 1]\nclass = 2012"] ;
249 -> 259 ;
260 [label="gini = 0.0\nsamples = 1\nvalue = [0, 0, 1, 0, 0, 0, 0, 0, 0, 0, 0]\nclass = 2012"] ;
259 -> 260 ;
261 [label="cob_vac_bcg <= 84.357\ngini = 0.5\nsamples = 2\nvalue = [0, 0, 0, 0, 0, 0, 0, 0, 1, 0, 1]\nclass = 2018"] ;
259 -> 261 ;
262 [label="gini = 0.0\nsamples = 1\nvalue = [0, 0, 0, 0, 0, 0, 0, 0, 0, 0, 1]\nclass = 2020"] ;
261 -> 262 ;
263 [label="gini = 0.0\nsamples = 1\nvalue = [0, 0, 0, 0, 0, 0, 0, 0, 1, 0, 0]\nclass = 2018"] ;
261 -> 263 ;
264 [label="exp_vida <= 71.49\ngini = 0.745\nsamples = 14\nvalue = [1, 2, 4, 2, 0, 0, 0, 0, 5, 0, 0]\nclass = 2018"] ;
246 -> 264 ;
265 [label="idhm <= 0.608\ngini = 0.691\nsamples = 9\nvalue = [1, 0, 2, 2, 0, 0, 0, 0, 4, 0, 0]\nclass = 2018"] ;
264 -> 265 ;
266 [label="idhm <= 0.602\ngini = 0.656\nsamples = 8\nvalue = [1, 0, 1, 2, 0, 0, 0, 0, 4, 0, 0]\nclass = 2018"] ;
265 -> 266 ;
267 [label="cob_vac_bcg <= 85.002\ngini = 0.612\nsamples = 7\nvalue = [1, 0, 1, 1, 0, 0, 0, 0, 4, 0, 0]\nclass = 2018"] ;
266 -> 267 ;
268 [label="cob_vac_bcg <= 74.545\ngini = 0.375\nsamples = 4\nvalue = [0, 0, 0, 1, 0, 0, 0, 0, 3, 0, 0]\nclass = 2018"] ;
267 -> 268 ;
269 [label="cob_vac_bcg <= 71.4\ngini = 0.5\nsamples = 2\nvalue = [0, 0, 0, 1, 0, 0, 0, 0, 1, 0, 0]\nclass = 2013"] ;
268 -> 269 ;
270 [label="gini = 0.0\nsamples = 1\nvalue = [0, 0, 0, 0, 0, 0, 0, 0, 1, 0, 0]\nclass = 2018"] ;
269 -> 270 ;
271 [label="gini = 0.0\nsamples = 1\nvalue = [0, 0, 0, 1, 0, 0, 0, 0, 0, 0, 0]\nclass = 2013"] ;
269 -> 271 ;
272 [label="gini = 0.0\nsamples = 2\nvalue = [0, 0, 0, 0, 0, 0, 0, 0, 2, 0, 0]\nclass = 2018"] ;
268 -> 272 ;
273 [label="exp_vida <= 70.93\ngini = 0.667\nsamples = 3\nvalue = [1, 0, 1, 0, 0, 0, 0, 0, 1, 0, 0]\nclass = 2010"] ;
267 -> 273 ;
274 [label="gini = 0.0\nsamples = 1\nvalue = [1, 0, 0, 0, 0, 0, 0, 0, 0, 0, 0]\nclass = 2010"] ;
273 -> 274 ;
275 [label="idhm <= 0.59\ngini = 0.5\nsamples = 2\nvalue = [0, 0, 1, 0, 0, 0, 0, 0, 1, 0, 0]\nclass = 2012"] ;
273 -> 275 ;
276 [label="gini = 0.0\nsamples = 1\nvalue = [0, 0, 1, 0, 0, 0, 0, 0, 0, 0, 0]\nclass = 2012"] ;
275 -> 276 ;
277 [label="gini = 0.0\nsamples = 1\nvalue = [0, 0, 0, 0, 0, 0, 0, 0, 1, 0, 0]\nclass = 2018"] ;
275 -> 277 ;
278 [label="gini = 0.0\nsamples = 1\nvalue = [0, 0, 0, 1, 0, 0, 0, 0, 0, 0, 0]\nclass = 2013"] ;
266 -> 278 ;
279 [label="gini = 0.0\nsamples = 1\nvalue = [0, 0, 1, 0, 0, 0, 0, 0, 0, 0, 0]\nclass = 2012"] ;
265 -> 279 ;
280 [label="cob_vac_bcg <= 76.288\ngini = 0.64\nsamples = 5\nvalue = [0, 2, 2, 0, 0, 0, 0, 0, 1, 0, 0]\nclass = 2011"] ;
264 -> 280 ;
281 [label="idhm <= 0.595\ngini = 0.444\nsamples = 3\nvalue = [0, 0, 2, 0, 0, 0, 0, 0, 1, 0, 0]\nclass = 2012"] ;
280 -> 281 ;
282 [label="gini = 0.0\nsamples = 1\nvalue = [0, 0, 1, 0, 0, 0, 0, 0, 0, 0, 0]\nclass = 2012"] ;
281 -> 282 ;
283 [label="cob_vac_bcg <= 74.471\ngini = 0.5\nsamples = 2\nvalue = [0, 0, 1, 0, 0, 0, 0, 0, 1, 0, 0]\nclass = 2012"] ;
281 -> 283 ;
284 [label="gini = 0.0\nsamples = 1\nvalue = [0, 0, 0, 0, 0, 0, 0, 0, 1, 0, 0]\nclass = 2018"] ;
283 -> 284 ;
285 [label="gini = 0.0\nsamples = 1\nvalue = [0, 0, 1, 0, 0, 0, 0, 0, 0, 0, 0]\nclass = 2012"] ;
283 -> 285 ;
286 [label="gini = 0.0\nsamples = 2\nvalue = [0, 2, 0, 0, 0, 0, 0, 0, 0, 0, 0]\nclass = 2011"] ;
280 -> 286 ;
287 [label="exp_vida <= 72.93\ngini = 0.825\nsamples = 19\nvalue = [3, 1, 1, 0, 1, 1, 1, 6, 3, 2, 0]\nclass = 2017"] ;
233 -> 287 ;
288 [label="cob_vac_bcg <= 72.258\ngini = 0.736\nsamples = 12\nvalue = [3, 1, 0, 0, 1, 0, 1, 5, 1, 0, 0]\nclass = 2017"] ;
287 -> 288 ;
289 [label="gini = 0.0\nsamples = 2\nvalue = [2, 0, 0, 0, 0, 0, 0, 0, 0, 0, 0]\nclass = 2010"] ;
288 -> 289 ;
290 [label="cob_vac_bcg <= 78.719\ngini = 0.7\nsamples = 10\nvalue = [1, 1, 0, 0, 1, 0, 1, 5, 1, 0, 0]\nclass = 2017"] ;
288 -> 290 ;
291 [label="idhm <= 0.612\ngini = 0.8\nsamples = 5\nvalue = [0, 1, 0, 0, 1, 0, 1, 1, 1, 0, 0]\nclass = 2011"] ;
290 -> 291 ;
292 [label="cob_vac_bcg <= 77.083\ngini = 0.5\nsamples = 2\nvalue = [0, 0, 0, 0, 0, 0, 1, 1, 0, 0, 0]\nclass = 2016"] ;
291 -> 292 ;
293 [label="gini = 0.0\nsamples = 1\nvalue = [0, 0, 0, 0, 0, 0, 0, 1, 0, 0, 0]\nclass = 2017"] ;
292 -> 293 ;
294 [label="gini = 0.0\nsamples = 1\nvalue = [0, 0, 0, 0, 0, 0, 1, 0, 0, 0, 0]\nclass = 2016"] ;
292 -> 294 ;
295 [label="idhm <= 0.62\ngini = 0.667\nsamples = 3\nvalue = [0, 1, 0, 0, 1, 0, 0, 0, 1, 0, 0]\nclass = 2011"] ;
291 -> 295 ;
296 [label="gini = 0.0\nsamples = 1\nvalue = [0, 1, 0, 0, 0, 0, 0, 0, 0, 0, 0]\nclass = 2011"] ;
295 -> 296 ;
297 [label="cob_vac_bcg <= 76.661\ngini = 0.5\nsamples = 2\nvalue = [0, 0, 0, 0, 1, 0, 0, 0, 1, 0, 0]\nclass = 2014"] ;
295 -> 297 ;
298 [label="gini = 0.0\nsamples = 1\nvalue = [0, 0, 0, 0, 1, 0, 0, 0, 0, 0, 0]\nclass = 2014"] ;
297 -> 298 ;
299 [label="gini = 0.0\nsamples = 1\nvalue = [0, 0, 0, 0, 0, 0, 0, 0, 1, 0, 0]\nclass = 2018"] ;
297 -> 299 ;
300 [label="idhm <= 0.614\ngini = 0.32\nsamples = 5\nvalue = [1, 0, 0, 0, 0, 0, 0, 4, 0, 0, 0]\nclass = 2017"] ;
290 -> 300 ;
301 [label="gini = 0.0\nsamples = 1\nvalue = [1, 0, 0, 0, 0, 0, 0, 0, 0, 0, 0]\nclass = 2010"] ;
300 -> 301 ;
302 [label="gini = 0.0\nsamples = 4\nvalue = [0, 0, 0, 0, 0, 0, 0, 4, 0, 0, 0]\nclass = 2017"] ;
300 -> 302 ;
303 [label="cob_vac_bcg <= 66.515\ngini = 0.776\nsamples = 7\nvalue = [0, 0, 1, 0, 0, 1, 0, 1, 2, 2, 0]\nclass = 2018"] ;
287 -> 303 ;
304 [label="gini = 0.0\nsamples = 1\nvalue = [0, 0, 1, 0, 0, 0, 0, 0, 0, 0, 0]\nclass = 2012"] ;
303 -> 304 ;
305 [label="cob_vac_bcg <= 82.161\ngini = 0.722\nsamples = 6\nvalue = [0, 0, 0, 0, 0, 1, 0, 1, 2, 2, 0]\nclass = 2018"] ;
303 -> 305 ;
306 [label="idhm <= 0.621\ngini = 0.64\nsamples = 5\nvalue = [0, 0, 0, 0, 0, 0, 0, 1, 2, 2, 0]\nclass = 2018"] ;
305 -> 306 ;
307 [label="cob_vac_bcg <= 74.93\ngini = 0.5\nsamples = 2\nvalue = [0, 0, 0, 0, 0, 0, 0, 1, 0, 1, 0]\nclass = 2017"] ;
306 -> 307 ;
308 [label="gini = 0.0\nsamples = 1\nvalue = [0, 0, 0, 0, 0, 0, 0, 1, 0, 0, 0]\nclass = 2017"] ;
307 -> 308 ;
309 [label="gini = 0.0\nsamples = 1\nvalue = [0, 0, 0, 0, 0, 0, 0, 0, 0, 1, 0]\nclass = 2019"] ;
307 -> 309 ;
310 [label="cob_vac_bcg <= 68.056\ngini = 0.444\nsamples = 3\nvalue = [0, 0, 0, 0, 0, 0, 0, 0, 2, 1, 0]\nclass = 2018"] ;
306 -> 310 ;
311 [label="gini = 0.0\nsamples = 1\nvalue = [0, 0, 0, 0, 0, 0, 0, 0, 1, 0, 0]\nclass = 2018"] ;
310 -> 311 ;
312 [label="idhm <= 0.633\ngini = 0.5\nsamples = 2\nvalue = [0, 0, 0, 0, 0, 0, 0, 0, 1, 1, 0]\nclass = 2018"] ;
310 -> 312 ;
313 [label="gini = 0.0\nsamples = 1\nvalue = [0, 0, 0, 0, 0, 0, 0, 0, 1, 0, 0]\nclass = 2018"] ;
312 -> 313 ;
314 [label="gini = 0.0\nsamples = 1\nvalue = [0, 0, 0, 0, 0, 0, 0, 0, 0, 1, 0]\nclass = 2019"] ;
312 -> 314 ;
315 [label="gini = 0.0\nsamples = 1\nvalue = [0, 0, 0, 0, 0, 1, 0, 0, 0, 0, 0]\nclass = 2015"] ;
305 -> 315 ;
316 [label="idhm <= 0.668\ngini = 0.882\nsamples = 50\nvalue = [7, 5, 4, 3, 1, 4, 0, 7, 5, 5, 9]\nclass = 2020"] ;
232 -> 316 ;
317 [label="cob_vac_bcg <= 67.844\ngini = 0.868\nsamples = 29\nvalue = [3, 5, 3, 2, 0, 3, 0, 5, 1, 2, 5]\nclass = 2011"] ;
316 -> 317 ;
318 [label="cob_vac_bcg <= 65.359\ngini = 0.444\nsamples = 3\nvalue = [0, 0, 0, 0, 0, 0, 0, 0, 0, 1, 2]\nclass = 2020"] ;
317 -> 318 ;
319 [label="gini = 0.0\nsamples = 1\nvalue = [0, 0, 0, 0, 0, 0, 0, 0, 0, 1, 0]\nclass = 2019"] ;
318 -> 319 ;
320 [label="gini = 0.0\nsamples = 2\nvalue = [0, 0, 0, 0, 0, 0, 0, 0, 0, 0, 2]\nclass = 2020"] ;
318 -> 320 ;
321 [label="cob_vac_bcg <= 88.508\ngini = 0.864\nsamples = 26\nvalue = [3, 5, 3, 2, 0, 3, 0, 5, 1, 1, 3]\nclass = 2011"] ;
317 -> 321 ;
322 [label="cob_vac_bcg <= 70.972\ngini = 0.854\nsamples = 25\nvalue = [3, 5, 3, 2, 0, 3, 0, 5, 0, 1, 3]\nclass = 2011"] ;
321 -> 322 ;
323 [label="exp_vida <= 71.63\ngini = 0.72\nsamples = 5\nvalue = [2, 0, 1, 1, 0, 0, 0, 1, 0, 0, 0]\nclass = 2010"] ;
322 -> 323 ;
324 [label="exp_vida <= 70.57\ngini = 0.5\nsamples = 2\nvalue = [0, 0, 0, 1, 0, 0, 0, 1, 0, 0, 0]\nclass = 2013"] ;
323 -> 324 ;
325 [label="gini = 0.0\nsamples = 1\nvalue = [0, 0, 0, 1, 0, 0, 0, 0, 0, 0, 0]\nclass = 2013"] ;
324 -> 325 ;
326 [label="gini = 0.0\nsamples = 1\nvalue = [0, 0, 0, 0, 0, 0, 0, 1, 0, 0, 0]\nclass = 2017"] ;
324 -> 326 ;
327 [label="exp_vida <= 73.3\ngini = 0.444\nsamples = 3\nvalue = [2, 0, 1, 0, 0, 0, 0, 0, 0, 0, 0]\nclass = 2010"] ;
323 -> 327 ;
328 [label="gini = 0.0\nsamples = 1\nvalue = [1, 0, 0, 0, 0, 0, 0, 0, 0, 0, 0]\nclass = 2010"] ;
327 -> 328 ;
329 [label="gini = 0.5\nsamples = 2\nvalue = [1, 0, 1, 0, 0, 0, 0, 0, 0, 0, 0]\nclass = 2010"] ;
327 -> 329 ;
330 [label="cob_vac_bcg <= 74.111\ngini = 0.835\nsamples = 20\nvalue = [1, 5, 2, 1, 0, 3, 0, 4, 0, 1, 3]\nclass = 2011"] ;
322 -> 330 ;
331 [label="exp_vida <= 73.53\ngini = 0.444\nsamples = 3\nvalue = [0, 1, 0, 0, 0, 2, 0, 0, 0, 0, 0]\nclass = 2015"] ;
330 -> 331 ;
332 [label="gini = 0.0\nsamples = 2\nvalue = [0, 0, 0, 0, 0, 2, 0, 0, 0, 0, 0]\nclass = 2015"] ;
331 -> 332 ;
333 [label="gini = 0.0\nsamples = 1\nvalue = [0, 1, 0, 0, 0, 0, 0, 0, 0, 0, 0]\nclass = 2011"] ;
331 -> 333 ;
334 [label="cob_vac_bcg <= 75.085\ngini = 0.83\nsamples = 17\nvalue = [1, 4, 2, 1, 0, 1, 0, 4, 0, 1, 3]\nclass = 2011"] ;
330 -> 334 ;
335 [label="exp_vida <= 73.3\ngini = 0.5\nsamples = 2\nvalue = [0, 0, 0, 1, 0, 0, 0, 0, 0, 0, 1]\nclass = 2013"] ;
334 -> 335 ;
336 [label="gini = 0.0\nsamples = 1\nvalue = [0, 0, 0, 1, 0, 0, 0, 0, 0, 0, 0]\nclass = 2013"] ;
335 -> 336 ;
337 [label="gini = 0.0\nsamples = 1\nvalue = [0, 0, 0, 0, 0, 0, 0, 0, 0, 0, 1]\nclass = 2020"] ;
335 -> 337 ;
338 [label="exp_vida <= 72.75\ngini = 0.809\nsamples = 15\nvalue = [1, 4, 2, 0, 0, 1, 0, 4, 0, 1, 2]\nclass = 2011"] ;
334 -> 338 ;
339 [label="idhm <= 0.645\ngini = 0.719\nsamples = 8\nvalue = [0, 3, 0, 0, 0, 1, 0, 2, 0, 0, 2]\nclass = 2011"] ;
338 -> 339 ;
340 [label="cob_vac_bcg <= 76.982\ngini = 0.667\nsamples = 3\nvalue = [0, 0, 0, 0, 0, 1, 0, 1, 0, 0, 1]\nclass = 2015"] ;
339 -> 340 ;
341 [label="gini = 0.0\nsamples = 1\nvalue = [0, 0, 0, 0, 0, 0, 0, 0, 0, 0, 1]\nclass = 2020"] ;
340 -> 341 ;
342 [label="cob_vac_bcg <= 79.067\ngini = 0.5\nsamples = 2\nvalue = [0, 0, 0, 0, 0, 1, 0, 1, 0, 0, 0]\nclass = 2015"] ;
340 -> 342 ;
343 [label="gini = 0.0\nsamples = 1\nvalue = [0, 0, 0, 0, 0, 0, 0, 1, 0, 0, 0]\nclass = 2017"] ;
342 -> 343 ;
344 [label="gini = 0.0\nsamples = 1\nvalue = [0, 0, 0, 0, 0, 1, 0, 0, 0, 0, 0]\nclass = 2015"] ;
342 -> 344 ;
345 [label="cob_vac_bcg <= 75.595\ngini = 0.56\nsamples = 5\nvalue = [0, 3, 0, 0, 0, 0, 0, 1, 0, 0, 1]\nclass = 2011"] ;
339 -> 345 ;
346 [label="gini = 0.0\nsamples = 1\nvalue = [0, 0, 0, 0, 0, 0, 0, 1, 0, 0, 0]\nclass = 2017"] ;
345 -> 346 ;
347 [label="cob_vac_bcg <= 81.176\ngini = 0.375\nsamples = 4\nvalue = [0, 3, 0, 0, 0, 0, 0, 0, 0, 0, 1]\nclass = 2011"] ;
345 -> 347 ;
348 [label="gini = 0.0\nsamples = 2\nvalue = [0, 2, 0, 0, 0, 0, 0, 0, 0, 0, 0]\nclass = 2011"] ;
347 -> 348 ;
349 [label="idhm <= 0.655\ngini = 0.5\nsamples = 2\nvalue = [0, 1, 0, 0, 0, 0, 0, 0, 0, 0, 1]\nclass = 2011"] ;
347 -> 349 ;
350 [label="gini = 0.0\nsamples = 1\nvalue = [0, 1, 0, 0, 0, 0, 0, 0, 0, 0, 0]\nclass = 2011"] ;
349 -> 350 ;
351 [label="gini = 0.0\nsamples = 1\nvalue = [0, 0, 0, 0, 0, 0, 0, 0, 0, 0, 1]\nclass = 2020"] ;
349 -> 351 ;
352 [label="cob_vac_bcg <= 87.298\ngini = 0.776\nsamples = 7\nvalue = [1, 1, 2, 0, 0, 0, 0, 2, 0, 1, 0]\nclass = 2012"] ;
338 -> 352 ;
353 [label="cob_vac_bcg <= 84.937\ngini = 0.722\nsamples = 6\nvalue = [1, 0, 2, 0, 0, 0, 0, 2, 0, 1, 0]\nclass = 2012"] ;
352 -> 353 ;
354 [label="idhm <= 0.645\ngini = 0.625\nsamples = 4\nvalue = [1, 0, 1, 0, 0, 0, 0, 2, 0, 0, 0]\nclass = 2017"] ;
353 -> 354 ;
355 [label="gini = 0.0\nsamples = 1\nvalue = [1, 0, 0, 0, 0, 0, 0, 0, 0, 0, 0]\nclass = 2010"] ;
354 -> 355 ;
356 [label="idhm <= 0.657\ngini = 0.444\nsamples = 3\nvalue = [0, 0, 1, 0, 0, 0, 0, 2, 0, 0, 0]\nclass = 2017"] ;
354 -> 356 ;
357 [label="gini = 0.0\nsamples = 2\nvalue = [0, 0, 0, 0, 0, 0, 0, 2, 0, 0, 0]\nclass = 2017"] ;
356 -> 357 ;
358 [label="gini = 0.0\nsamples = 1\nvalue = [0, 0, 1, 0, 0, 0, 0, 0, 0, 0, 0]\nclass = 2012"] ;
356 -> 358 ;
359 [label="idhm <= 0.65\ngini = 0.5\nsamples = 2\nvalue = [0, 0, 1, 0, 0, 0, 0, 0, 0, 1, 0]\nclass = 2012"] ;
353 -> 359 ;
360 [label="gini = 0.0\nsamples = 1\nvalue = [0, 0, 1, 0, 0, 0, 0, 0, 0, 0, 0]\nclass = 2012"] ;
359 -> 360 ;
361 [label="gini = 0.0\nsamples = 1\nvalue = [0, 0, 0, 0, 0, 0, 0, 0, 0, 1, 0]\nclass = 2019"] ;
359 -> 361 ;
362 [label="gini = 0.0\nsamples = 1\nvalue = [0, 1, 0, 0, 0, 0, 0, 0, 0, 0, 0]\nclass = 2011"] ;
352 -> 362 ;
363 [label="gini = 0.0\nsamples = 1\nvalue = [0, 0, 0, 0, 0, 0, 0, 0, 1, 0, 0]\nclass = 2018"] ;
321 -> 363 ;
364 [label="cob_vac_bcg <= 79.725\ngini = 0.853\nsamples = 21\nvalue = [4, 0, 1, 1, 1, 1, 0, 2, 4, 3, 4]\nclass = 2010"] ;
316 -> 364 ;
365 [label="cob_vac_bcg <= 68.708\ngini = 0.75\nsamples = 8\nvalue = [1, 0, 0, 1, 0, 0, 0, 1, 3, 2, 0]\nclass = 2018"] ;
364 -> 365 ;
366 [label="gini = 0.0\nsamples = 1\nvalue = [1, 0, 0, 0, 0, 0, 0, 0, 0, 0, 0]\nclass = 2010"] ;
365 -> 366 ;
367 [label="exp_vida <= 74.145\ngini = 0.694\nsamples = 7\nvalue = [0, 0, 0, 1, 0, 0, 0, 1, 3, 2, 0]\nclass = 2018"] ;
365 -> 367 ;
368 [label="cob_vac_bcg <= 79.484\ngini = 0.56\nsamples = 5\nvalue = [0, 0, 0, 0, 0, 0, 0, 1, 3, 1, 0]\nclass = 2018"] ;
367 -> 368 ;
369 [label="exp_vida <= 73.725\ngini = 0.375\nsamples = 4\nvalue = [0, 0, 0, 0, 0, 0, 0, 1, 3, 0, 0]\nclass = 2018"] ;
368 -> 369 ;
370 [label="cob_vac_bcg <= 72.314\ngini = 0.5\nsamples = 2\nvalue = [0, 0, 0, 0, 0, 0, 0, 1, 1, 0, 0]\nclass = 2017"] ;
369 -> 370 ;
371 [label="gini = 0.0\nsamples = 1\nvalue = [0, 0, 0, 0, 0, 0, 0, 0, 1, 0, 0]\nclass = 2018"] ;
370 -> 371 ;
372 [label="gini = 0.0\nsamples = 1\nvalue = [0, 0, 0, 0, 0, 0, 0, 1, 0, 0, 0]\nclass = 2017"] ;
370 -> 372 ;
373 [label="gini = 0.0\nsamples = 2\nvalue = [0, 0, 0, 0, 0, 0, 0, 0, 2, 0, 0]\nclass = 2018"] ;
369 -> 373 ;
374 [label="gini = 0.0\nsamples = 1\nvalue = [0, 0, 0, 0, 0, 0, 0, 0, 0, 1, 0]\nclass = 2019"] ;
368 -> 374 ;
375 [label="cob_vac_bcg <= 71.527\ngini = 0.5\nsamples = 2\nvalue = [0, 0, 0, 1, 0, 0, 0, 0, 0, 1, 0]\nclass = 2013"] ;
367 -> 375 ;
376 [label="gini = 0.0\nsamples = 1\nvalue = [0, 0, 0, 0, 0, 0, 0, 0, 0, 1, 0]\nclass = 2019"] ;
375 -> 376 ;
377 [label="gini = 0.0\nsamples = 1\nvalue = [0, 0, 0, 1, 0, 0, 0, 0, 0, 0, 0]\nclass = 2013"] ;
375 -> 377 ;
378 [label="cob_vac_bcg <= 87.927\ngini = 0.817\nsamples = 13\nvalue = [3, 0, 1, 0, 1, 1, 0, 1, 1, 1, 4]\nclass = 2020"] ;
364 -> 378 ;
379 [label="cob_vac_bcg <= 80.671\ngini = 0.78\nsamples = 10\nvalue = [1, 0, 1, 0, 1, 1, 0, 1, 1, 0, 4]\nclass = 2020"] ;
378 -> 379 ;
380 [label="gini = 0.0\nsamples = 1\nvalue = [1, 0, 0, 0, 0, 0, 0, 0, 0, 0, 0]\nclass = 2010"] ;
379 -> 380 ;
381 [label="cob_vac_bcg <= 86.797\ngini = 0.741\nsamples = 9\nvalue = [0, 0, 1, 0, 1, 1, 0, 1, 1, 0, 4]\nclass = 2020"] ;
379 -> 381 ;
382 [label="idhm <= 0.697\ngini = 0.688\nsamples = 8\nvalue = [0, 0, 1, 0, 0, 1, 0, 1, 1, 0, 4]\nclass = 2020"] ;
381 -> 382 ;
383 [label="cob_vac_bcg <= 83.049\ngini = 0.778\nsamples = 6\nvalue = [0, 0, 1, 0, 0, 1, 0, 1, 1, 0, 2]\nclass = 2020"] ;
382 -> 383 ;
384 [label="cob_vac_bcg <= 82.197\ngini = 0.5\nsamples = 2\nvalue = [0, 0, 1, 0, 0, 0, 0, 0, 1, 0, 0]\nclass = 2012"] ;
383 -> 384 ;
385 [label="gini = 0.0\nsamples = 1\nvalue = [0, 0, 0, 0, 0, 0, 0, 0, 1, 0, 0]\nclass = 2018"] ;
384 -> 385 ;
386 [label="gini = 0.0\nsamples = 1\nvalue = [0, 0, 1, 0, 0, 0, 0, 0, 0, 0, 0]\nclass = 2012"] ;
384 -> 386 ;
387 [label="cob_vac_bcg <= 84.628\ngini = 0.625\nsamples = 4\nvalue = [0, 0, 0, 0, 0, 1, 0, 1, 0, 0, 2]\nclass = 2020"] ;
383 -> 387 ;
388 [label="exp_vida <= 73.545\ngini = 0.444\nsamples = 3\nvalue = [0, 0, 0, 0, 0, 1, 0, 0, 0, 0, 2]\nclass = 2020"] ;
387 -> 388 ;
389 [label="cob_vac_bcg <= 83.94\ngini = 0.5\nsamples = 2\nvalue = [0, 0, 0, 0, 0, 1, 0, 0, 0, 0, 1]\nclass = 2015"] ;
388 -> 389 ;
390 [label="gini = 0.0\nsamples = 1\nvalue = [0, 0, 0, 0, 0, 1, 0, 0, 0, 0, 0]\nclass = 2015"] ;
389 -> 390 ;
391 [label="gini = 0.0\nsamples = 1\nvalue = [0, 0, 0, 0, 0, 0, 0, 0, 0, 0, 1]\nclass = 2020"] ;
389 -> 391 ;
392 [label="gini = 0.0\nsamples = 1\nvalue = [0, 0, 0, 0, 0, 0, 0, 0, 0, 0, 1]\nclass = 2020"] ;
388 -> 392 ;
393 [label="gini = 0.0\nsamples = 1\nvalue = [0, 0, 0, 0, 0, 0, 0, 1, 0, 0, 0]\nclass = 2017"] ;
387 -> 393 ;
394 [label="gini = 0.0\nsamples = 2\nvalue = [0, 0, 0, 0, 0, 0, 0, 0, 0, 0, 2]\nclass = 2020"] ;
382 -> 394 ;
395 [label="gini = 0.0\nsamples = 1\nvalue = [0, 0, 0, 0, 1, 0, 0, 0, 0, 0, 0]\nclass = 2014"] ;
381 -> 395 ;
396 [label="cob_vac_bcg <= 88.942\ngini = 0.444\nsamples = 3\nvalue = [2, 0, 0, 0, 0, 0, 0, 0, 0, 1, 0]\nclass = 2010"] ;
378 -> 396 ;
397 [label="gini = 0.0\nsamples = 2\nvalue = [2, 0, 0, 0, 0, 0, 0, 0, 0, 0, 0]\nclass = 2010"] ;
396 -> 397 ;
398 [label="gini = 0.0\nsamples = 1\nvalue = [0, 0, 0, 0, 0, 0, 0, 0, 0, 1, 0]\nclass = 2019"] ;
396 -> 398 ;
399 [label="gini = 0.0\nsamples = 3\nvalue = [0, 0, 0, 0, 0, 0, 0, 0, 3, 0, 0]\nclass = 2018"] ;
231 -> 399 ;
400 [label="cob_vac_bcg <= 99.455\ngini = 0.903\nsamples = 205\nvalue = [24, 17, 13, 19, 25, 20, 19, 17, 22, 22, 7]\nclass = 2014"] ;
230 -> 400 ;
401 [label="exp_vida <= 70.535\ngini = 0.875\nsamples = 43\nvalue = [5, 6, 2, 3, 8, 2, 1, 2, 4, 8, 2]\nclass = 2014"] ;
400 -> 401 ;
402 [label="gini = 0.0\nsamples = 2\nvalue = [0, 0, 0, 2, 0, 0, 0, 0, 0, 0, 0]\nclass = 2013"] ;
401 -> 402 ;
403 [label="exp_vida <= 73.79\ngini = 0.867\nsamples = 41\nvalue = [5, 6, 2, 1, 8, 2, 1, 2, 4, 8, 2]\nclass = 2014"] ;
401 -> 403 ;
404 [label="exp_vida <= 73.545\ngini = 0.849\nsamples = 34\nvalue = [5, 3, 1, 1, 7, 2, 1, 0, 4, 8, 2]\nclass = 2019"] ;
403 -> 404 ;
405 [label="idhm <= 0.706\ngini = 0.86\nsamples = 30\nvalue = [4, 3, 1, 1, 7, 2, 1, 0, 4, 5, 2]\nclass = 2014"] ;
404 -> 405 ;
406 [label="cob_vac_bcg <= 97.971\ngini = 0.849\nsamples = 28\nvalue = [4, 2, 1, 1, 7, 2, 1, 0, 4, 5, 1]\nclass = 2014"] ;
405 -> 406 ;
407 [label="exp_vida <= 71.535\ngini = 0.837\nsamples = 19\nvalue = [1, 1, 1, 1, 6, 2, 1, 0, 2, 3, 1]\nclass = 2014"] ;
406 -> 407 ;
408 [label="cob_vac_bcg <= 92.206\ngini = 0.844\nsamples = 8\nvalue = [1, 0, 1, 0, 1, 2, 1, 0, 0, 1, 1]\nclass = 2015"] ;
407 -> 408 ;
409 [label="exp_vida <= 70.73\ngini = 0.75\nsamples = 4\nvalue = [1, 0, 1, 0, 1, 0, 0, 0, 0, 0, 1]\nclass = 2010"] ;
408 -> 409 ;
410 [label="cob_vac_bcg <= 91.148\ngini = 0.5\nsamples = 2\nvalue = [1, 0, 0, 0, 0, 0, 0, 0, 0, 0, 1]\nclass = 2010"] ;
409 -> 410 ;
411 [label="gini = 0.0\nsamples = 1\nvalue = [1, 0, 0, 0, 0, 0, 0, 0, 0, 0, 0]\nclass = 2010"] ;
410 -> 411 ;
412 [label="gini = 0.0\nsamples = 1\nvalue = [0, 0, 0, 0, 0, 0, 0, 0, 0, 0, 1]\nclass = 2020"] ;
410 -> 412 ;
413 [label="cob_vac_bcg <= 91.088\ngini = 0.5\nsamples = 2\nvalue = [0, 0, 1, 0, 1, 0, 0, 0, 0, 0, 0]\nclass = 2012"] ;
409 -> 413 ;
414 [label="gini = 0.0\nsamples = 1\nvalue = [0, 0, 0, 0, 1, 0, 0, 0, 0, 0, 0]\nclass = 2014"] ;
413 -> 414 ;
415 [label="gini = 0.0\nsamples = 1\nvalue = [0, 0, 1, 0, 0, 0, 0, 0, 0, 0, 0]\nclass = 2012"] ;
413 -> 415 ;
416 [label="cob_vac_bcg <= 94.493\ngini = 0.625\nsamples = 4\nvalue = [0, 0, 0, 0, 0, 2, 1, 0, 0, 1, 0]\nclass = 2015"] ;
408 -> 416 ;
417 [label="idhm <= 0.626\ngini = 0.444\nsamples = 3\nvalue = [0, 0, 0, 0, 0, 2, 0, 0, 0, 1, 0]\nclass = 2015"] ;
416 -> 417 ;
418 [label="gini = 0.0\nsamples = 1\nvalue = [0, 0, 0, 0, 0, 1, 0, 0, 0, 0, 0]\nclass = 2015"] ;
417 -> 418 ;
419 [label="cob_vac_bcg <= 92.766\ngini = 0.5\nsamples = 2\nvalue = [0, 0, 0, 0, 0, 1, 0, 0, 0, 1, 0]\nclass = 2015"] ;
417 -> 419 ;
420 [label="gini = 0.0\nsamples = 1\nvalue = [0, 0, 0, 0, 0, 1, 0, 0, 0, 0, 0]\nclass = 2015"] ;
419 -> 420 ;
421 [label="gini = 0.0\nsamples = 1\nvalue = [0, 0, 0, 0, 0, 0, 0, 0, 0, 1, 0]\nclass = 2019"] ;
419 -> 421 ;
422 [label="gini = 0.0\nsamples = 1\nvalue = [0, 0, 0, 0, 0, 0, 1, 0, 0, 0, 0]\nclass = 2016"] ;
416 -> 422 ;
423 [label="idhm <= 0.614\ngini = 0.711\nsamples = 11\nvalue = [0, 1, 0, 1, 5, 0, 0, 0, 2, 2, 0]\nclass = 2014"] ;
407 -> 423 ;
424 [label="gini = 0.0\nsamples = 2\nvalue = [0, 0, 0, 0, 2, 0, 0, 0, 0, 0, 0]\nclass = 2014"] ;
423 -> 424 ;
425 [label="idhm <= 0.621\ngini = 0.765\nsamples = 9\nvalue = [0, 1, 0, 1, 3, 0, 0, 0, 2, 2, 0]\nclass = 2014"] ;
423 -> 425 ;
426 [label="gini = 0.0\nsamples = 1\nvalue = [0, 1, 0, 0, 0, 0, 0, 0, 0, 0, 0]\nclass = 2011"] ;
425 -> 426 ;
427 [label="exp_vida <= 72.19\ngini = 0.719\nsamples = 8\nvalue = [0, 0, 0, 1, 3, 0, 0, 0, 2, 2, 0]\nclass = 2014"] ;
425 -> 427 ;
428 [label="cob_vac_bcg <= 93.955\ngini = 0.5\nsamples = 2\nvalue = [0, 0, 0, 1, 0, 0, 0, 0, 1, 0, 0]\nclass = 2013"] ;
427 -> 428 ;
429 [label="gini = 0.0\nsamples = 1\nvalue = [0, 0, 0, 0, 0, 0, 0, 0, 1, 0, 0]\nclass = 2018"] ;
428 -> 429 ;
430 [label="gini = 0.0\nsamples = 1\nvalue = [0, 0, 0, 1, 0, 0, 0, 0, 0, 0, 0]\nclass = 2013"] ;
428 -> 430 ;
431 [label="cob_vac_bcg <= 95.772\ngini = 0.611\nsamples = 6\nvalue = [0, 0, 0, 0, 3, 0, 0, 0, 1, 2, 0]\nclass = 2014"] ;
427 -> 431 ;
432 [label="idhm <= 0.644\ngini = 0.444\nsamples = 3\nvalue = [0, 0, 0, 0, 1, 0, 0, 0, 0, 2, 0]\nclass = 2019"] ;
431 -> 432 ;
433 [label="cob_vac_bcg <= 91.846\ngini = 0.5\nsamples = 2\nvalue = [0, 0, 0, 0, 1, 0, 0, 0, 0, 1, 0]\nclass = 2014"] ;
432 -> 433 ;
434 [label="gini = 0.0\nsamples = 1\nvalue = [0, 0, 0, 0, 0, 0, 0, 0, 0, 1, 0]\nclass = 2019"] ;
433 -> 434 ;
435 [label="gini = 0.0\nsamples = 1\nvalue = [0, 0, 0, 0, 1, 0, 0, 0, 0, 0, 0]\nclass = 2014"] ;
433 -> 435 ;
436 [label="gini = 0.0\nsamples = 1\nvalue = [0, 0, 0, 0, 0, 0, 0, 0, 0, 1, 0]\nclass = 2019"] ;
432 -> 436 ;
437 [label="idhm <= 0.649\ngini = 0.444\nsamples = 3\nvalue = [0, 0, 0, 0, 2, 0, 0, 0, 1, 0, 0]\nclass = 2014"] ;
431 -> 437 ;
438 [label="gini = 0.0\nsamples = 1\nvalue = [0, 0, 0, 0, 0, 0, 0, 0, 1, 0, 0]\nclass = 2018"] ;
437 -> 438 ;
439 [label="gini = 0.0\nsamples = 2\nvalue = [0, 0, 0, 0, 2, 0, 0, 0, 0, 0, 0]\nclass = 2014"] ;
437 -> 439 ;
440 [label="cob_vac_bcg <= 98.112\ngini = 0.765\nsamples = 9\nvalue = [3, 1, 0, 0, 1, 0, 0, 0, 2, 2, 0]\nclass = 2010"] ;
406 -> 440 ;
441 [label="gini = 0.0\nsamples = 2\nvalue = [2, 0, 0, 0, 0, 0, 0, 0, 0, 0, 0]\nclass = 2010"] ;
440 -> 441 ;
442 [label="cob_vac_bcg <= 99.147\ngini = 0.776\nsamples = 7\nvalue = [1, 1, 0, 0, 1, 0, 0, 0, 2, 2, 0]\nclass = 2018"] ;
440 -> 442 ;
443 [label="exp_vida <= 71.54\ngini = 0.64\nsamples = 5\nvalue = [0, 1, 0, 0, 0, 0, 0, 0, 2, 2, 0]\nclass = 2018"] ;
442 -> 443 ;
444 [label="exp_vida <= 70.73\ngini = 0.5\nsamples = 2\nvalue = [0, 1, 0, 0, 0, 0, 0, 0, 0, 1, 0]\nclass = 2011"] ;
443 -> 444 ;
445 [label="gini = 0.0\nsamples = 1\nvalue = [0, 0, 0, 0, 0, 0, 0, 0, 0, 1, 0]\nclass = 2019"] ;
444 -> 445 ;
446 [label="gini = 0.0\nsamples = 1\nvalue = [0, 1, 0, 0, 0, 0, 0, 0, 0, 0, 0]\nclass = 2011"] ;
444 -> 446 ;
447 [label="cob_vac_bcg <= 98.271\ngini = 0.444\nsamples = 3\nvalue = [0, 0, 0, 0, 0, 0, 0, 0, 2, 1, 0]\nclass = 2018"] ;
443 -> 447 ;
448 [label="gini = 0.0\nsamples = 1\nvalue = [0, 0, 0, 0, 0, 0, 0, 0, 0, 1, 0]\nclass = 2019"] ;
447 -> 448 ;
449 [label="gini = 0.0\nsamples = 2\nvalue = [0, 0, 0, 0, 0, 0, 0, 0, 2, 0, 0]\nclass = 2018"] ;
447 -> 449 ;
450 [label="exp_vida <= 71.595\ngini = 0.5\nsamples = 2\nvalue = [1, 0, 0, 0, 1, 0, 0, 0, 0, 0, 0]\nclass = 2010"] ;
442 -> 450 ;
451 [label="gini = 0.0\nsamples = 1\nvalue = [0, 0, 0, 0, 1, 0, 0, 0, 0, 0, 0]\nclass = 2014"] ;
450 -> 451 ;
452 [label="gini = 0.0\nsamples = 1\nvalue = [1, 0, 0, 0, 0, 0, 0, 0, 0, 0, 0]\nclass = 2010"] ;
450 -> 452 ;
453 [label="idhm <= 0.72\ngini = 0.5\nsamples = 2\nvalue = [0, 1, 0, 0, 0, 0, 0, 0, 0, 0, 1]\nclass = 2011"] ;
405 -> 453 ;
454 [label="gini = 0.0\nsamples = 1\nvalue = [0, 0, 0, 0, 0, 0, 0, 0, 0, 0, 1]\nclass = 2020"] ;
453 -> 454 ;
455 [label="gini = 0.0\nsamples = 1\nvalue = [0, 1, 0, 0, 0, 0, 0, 0, 0, 0, 0]\nclass = 2011"] ;
453 -> 455 ;
456 [label="idhm <= 0.676\ngini = 0.375\nsamples = 4\nvalue = [1, 0, 0, 0, 0, 0, 0, 0, 0, 3, 0]\nclass = 2019"] ;
404 -> 456 ;
457 [label="cob_vac_bcg <= 95.501\ngini = 0.5\nsamples = 2\nvalue = [1, 0, 0, 0, 0, 0, 0, 0, 0, 1, 0]\nclass = 2010"] ;
456 -> 457 ;
458 [label="gini = 0.0\nsamples = 1\nvalue = [1, 0, 0, 0, 0, 0, 0, 0, 0, 0, 0]\nclass = 2010"] ;
457 -> 458 ;
459 [label="gini = 0.0\nsamples = 1\nvalue = [0, 0, 0, 0, 0, 0, 0, 0, 0, 1, 0]\nclass = 2019"] ;
457 -> 459 ;
460 [label="gini = 0.0\nsamples = 2\nvalue = [0, 0, 0, 0, 0, 0, 0, 0, 0, 2, 0]\nclass = 2019"] ;
456 -> 460 ;
461 [label="idhm <= 0.678\ngini = 0.694\nsamples = 7\nvalue = [0, 3, 1, 0, 1, 0, 0, 2, 0, 0, 0]\nclass = 2011"] ;
403 -> 461 ;
462 [label="cob_vac_bcg <= 95.931\ngini = 0.444\nsamples = 3\nvalue = [0, 0, 0, 0, 1, 0, 0, 2, 0, 0, 0]\nclass = 2017"] ;
461 -> 462 ;
463 [label="gini = 0.0\nsamples = 2\nvalue = [0, 0, 0, 0, 0, 0, 0, 2, 0, 0, 0]\nclass = 2017"] ;
462 -> 463 ;
464 [label="gini = 0.0\nsamples = 1\nvalue = [0, 0, 0, 0, 1, 0, 0, 0, 0, 0, 0]\nclass = 2014"] ;
462 -> 464 ;
465 [label="cob_vac_bcg <= 94.423\ngini = 0.375\nsamples = 4\nvalue = [0, 3, 1, 0, 0, 0, 0, 0, 0, 0, 0]\nclass = 2011"] ;
461 -> 465 ;
466 [label="exp_vida <= 74.04\ngini = 0.5\nsamples = 2\nvalue = [0, 1, 1, 0, 0, 0, 0, 0, 0, 0, 0]\nclass = 2011"] ;
465 -> 466 ;
467 [label="gini = 0.0\nsamples = 1\nvalue = [0, 1, 0, 0, 0, 0, 0, 0, 0, 0, 0]\nclass = 2011"] ;
466 -> 467 ;
468 [label="gini = 0.0\nsamples = 1\nvalue = [0, 0, 1, 0, 0, 0, 0, 0, 0, 0, 0]\nclass = 2012"] ;
466 -> 468 ;
469 [label="gini = 0.0\nsamples = 2\nvalue = [0, 2, 0, 0, 0, 0, 0, 0, 0, 0, 0]\nclass = 2011"] ;
465 -> 469 ;
470 [label="idhm <= 0.651\ngini = 0.902\nsamples = 162\nvalue = [19, 11, 11, 16, 17, 18, 18, 15, 18, 14, 5]\nclass = 2010"] ;
400 -> 470 ;
471 [label="exp_vida <= 71.235\ngini = 0.897\nsamples = 91\nvalue = [9, 5, 2, 8, 10, 9, 10, 12, 11, 11, 4]\nclass = 2017"] ;
470 -> 471 ;
472 [label="idhm <= 0.628\ngini = 0.9\nsamples = 54\nvalue = [6, 4, 2, 5, 8, 6, 5, 4, 6, 5, 3]\nclass = 2014"] ;
471 -> 472 ;
473 [label="idhm <= 0.586\ngini = 0.901\nsamples = 45\nvalue = [3, 3, 2, 4, 6, 6, 5, 4, 5, 4, 3]\nclass = 2014"] ;
472 -> 473 ;
474 [label="gini = 0.0\nsamples = 1\nvalue = [0, 0, 0, 0, 0, 0, 0, 0, 0, 1, 0]\nclass = 2019"] ;
473 -> 474 ;
475 [label="exp_vida <= 70.93\ngini = 0.9\nsamples = 44\nvalue = [3, 3, 2, 4, 6, 6, 5, 4, 5, 3, 3]\nclass = 2014"] ;
473 -> 475 ;
476 [label="idhm <= 0.609\ngini = 0.901\nsamples = 43\nvalue = [3, 3, 2, 4, 5, 6, 5, 4, 5, 3, 3]\nclass = 2015"] ;
475 -> 476 ;
477 [label="idhm <= 0.602\ngini = 0.88\nsamples = 22\nvalue = [0, 1, 1, 2, 2, 3, 3, 3, 4, 1, 2]\nclass = 2018"] ;
476 -> 477 ;
478 [label="exp_vida <= 70.555\ngini = 0.875\nsamples = 19\nvalue = [0, 1, 1, 2, 2, 3, 2, 3, 3, 0, 2]\nclass = 2015"] ;
477 -> 478 ;
479 [label="idhm <= 0.593\ngini = 0.84\nsamples = 13\nvalue = [0, 0, 0, 1, 1, 2, 2, 2, 3, 0, 2]\nclass = 2018"] ;
478 -> 479 ;
480 [label="idhm <= 0.588\ngini = 0.843\nsamples = 11\nvalue = [0, 0, 0, 1, 1, 2, 2, 2, 2, 0, 1]\nclass = 2015"] ;
479 -> 480 ;
481 [label="gini = 0.833\nsamples = 6\nvalue = [0, 0, 0, 1, 0, 1, 1, 1, 1, 0, 1]\nclass = 2013"] ;
480 -> 481 ;
482 [label="gini = 0.8\nsamples = 5\nvalue = [0, 0, 0, 0, 1, 1, 1, 1, 1, 0, 0]\nclass = 2014"] ;
480 -> 482 ;
483 [label="gini = 0.5\nsamples = 2\nvalue = [0, 0, 0, 0, 0, 0, 0, 0, 1, 0, 1]\nclass = 2018"] ;
479 -> 483 ;
484 [label="gini = 0.833\nsamples = 6\nvalue = [0, 1, 1, 1, 1, 1, 0, 1, 0, 0, 0]\nclass = 2011"] ;
478 -> 484 ;
485 [label="gini = 0.667\nsamples = 3\nvalue = [0, 0, 0, 0, 0, 0, 1, 0, 1, 1, 0]\nclass = 2016"] ;
477 -> 485 ;
486 [label="idhm <= 0.615\ngini = 0.893\nsamples = 21\nvalue = [3, 2, 1, 2, 3, 3, 2, 1, 1, 2, 1]\nclass = 2010"] ;
476 -> 486 ;
487 [label="idhm <= 0.613\ngini = 0.876\nsamples = 13\nvalue = [2, 1, 1, 1, 2, 2, 1, 1, 0, 2, 0]\nclass = 2010"] ;
486 -> 487 ;
488 [label="gini = 0.875\nsamples = 12\nvalue = [2, 1, 1, 1, 2, 2, 1, 1, 0, 1, 0]\nclass = 2010"] ;
487 -> 488 ;
489 [label="gini = 0.0\nsamples = 1\nvalue = [0, 0, 0, 0, 0, 0, 0, 0, 0, 1, 0]\nclass = 2019"] ;
487 -> 489 ;
490 [label="gini = 0.875\nsamples = 8\nvalue = [1, 1, 0, 1, 1, 1, 1, 0, 1, 0, 1]\nclass = 2010"] ;
486 -> 490 ;
491 [label="gini = 0.0\nsamples = 1\nvalue = [0, 0, 0, 0, 1, 0, 0, 0, 0, 0, 0]\nclass = 2014"] ;
475 -> 491 ;
492 [label="exp_vida <= 70.57\ngini = 0.79\nsamples = 9\nvalue = [3, 1, 0, 1, 2, 0, 0, 0, 1, 1, 0]\nclass = 2010"] ;
472 -> 492 ;
493 [label="gini = 0.0\nsamples = 1\nvalue = [0, 0, 0, 0, 1, 0, 0, 0, 0, 0, 0]\nclass = 2014"] ;
492 -> 493 ;
494 [label="idhm <= 0.642\ngini = 0.781\nsamples = 8\nvalue = [3, 1, 0, 1, 1, 0, 0, 0, 1, 1, 0]\nclass = 2010"] ;
492 -> 494 ;
495 [label="gini = 0.5\nsamples = 2\nvalue = [1, 0, 0, 0, 0, 0, 0, 0, 1, 0, 0]\nclass = 2010"] ;
494 -> 495 ;
496 [label="gini = 0.778\nsamples = 6\nvalue = [2, 1, 0, 1, 1, 0, 0, 0, 0, 1, 0]\nclass = 2010"] ;
494 -> 496 ;
497 [label="exp_vida <= 71.825\ngini = 0.866\nsamples = 37\nvalue = [3, 1, 0, 3, 2, 3, 5, 8, 5, 6, 1]\nclass = 2017"] ;
471 -> 497 ;
498 [label="idhm <= 0.611\ngini = 0.777\nsamples = 11\nvalue = [2, 1, 0, 0, 0, 1, 2, 4, 0, 1, 0]\nclass = 2017"] ;
497 -> 498 ;
499 [label="exp_vida <= 71.535\ngini = 0.781\nsamples = 8\nvalue = [2, 1, 0, 0, 0, 0, 2, 2, 0, 1, 0]\nclass = 2010"] ;
498 -> 499 ;
500 [label="gini = 0.8\nsamples = 5\nvalue = [1, 1, 0, 0, 0, 0, 1, 1, 0, 1, 0]\nclass = 2010"] ;
499 -> 500 ;
501 [label="gini = 0.667\nsamples = 3\nvalue = [1, 0, 0, 0, 0, 0, 1, 1, 0, 0, 0]\nclass = 2010"] ;
499 -> 501 ;
502 [label="exp_vida <= 71.615\ngini = 0.444\nsamples = 3\nvalue = [0, 0, 0, 0, 0, 1, 0, 2, 0, 0, 0]\nclass = 2017"] ;
498 -> 502 ;
503 [label="gini = 0.0\nsamples = 1\nvalue = [0, 0, 0, 0, 0, 0, 0, 1, 0, 0, 0]\nclass = 2017"] ;
502 -> 503 ;
504 [label="gini = 0.5\nsamples = 2\nvalue = [0, 0, 0, 0, 0, 1, 0, 1, 0, 0, 0]\nclass = 2015"] ;
502 -> 504 ;
505 [label="idhm <= 0.619\ngini = 0.861\nsamples = 26\nvalue = [1, 0, 0, 3, 2, 2, 3, 4, 5, 5, 1]\nclass = 2018"] ;
497 -> 505 ;
506 [label="gini = 0.5\nsamples = 2\nvalue = [0, 0, 0, 0, 0, 0, 0, 0, 0, 1, 1]\nclass = 2019"] ;
505 -> 506 ;
507 [label="exp_vida <= 72.185\ngini = 0.854\nsamples = 24\nvalue = [1, 0, 0, 3, 2, 2, 3, 4, 5, 4, 0]\nclass = 2018"] ;
505 -> 507 ;
508 [label="gini = 0.75\nsamples = 4\nvalue = [0, 0, 0, 0, 1, 0, 1, 1, 1, 0, 0]\nclass = 2014"] ;
507 -> 508 ;
509 [label="exp_vida <= 73.425\ngini = 0.85\nsamples = 20\nvalue = [1, 0, 0, 3, 1, 2, 2, 3, 4, 4, 0]\nclass = 2018"] ;
507 -> 509 ;
510 [label="idhm <= 0.63\ngini = 0.806\nsamples = 12\nvalue = [1, 0, 0, 2, 0, 1, 1, 1, 2, 4, 0]\nclass = 2019"] ;
509 -> 510 ;
511 [label="gini = 0.8\nsamples = 5\nvalue = [0, 0, 0, 1, 0, 0, 1, 1, 1, 1, 0]\nclass = 2013"] ;
510 -> 511 ;
512 [label="exp_vida <= 72.955\ngini = 0.735\nsamples = 7\nvalue = [1, 0, 0, 1, 0, 1, 0, 0, 1, 3, 0]\nclass = 2019"] ;
510 -> 512 ;
513 [label="gini = 0.5\nsamples = 2\nvalue = [1, 0, 0, 0, 0, 0, 0, 0, 0, 1, 0]\nclass = 2010"] ;
512 -> 513 ;
514 [label="idhm <= 0.645\ngini = 0.72\nsamples = 5\nvalue = [0, 0, 0, 1, 0, 1, 0, 0, 1, 2, 0]\nclass = 2019"] ;
512 -> 514 ;
515 [label="gini = 0.667\nsamples = 3\nvalue = [0, 0, 0, 1, 0, 1, 0, 0, 0, 1, 0]\nclass = 2013"] ;
514 -> 515 ;
516 [label="gini = 0.5\nsamples = 2\nvalue = [0, 0, 0, 0, 0, 0, 0, 0, 1, 1, 0]\nclass = 2018"] ;
514 -> 516 ;
517 [label="exp_vida <= 73.93\ngini = 0.812\nsamples = 8\nvalue = [0, 0, 0, 1, 1, 1, 1, 2, 2, 0, 0]\nclass = 2017"] ;
509 -> 517 ;
518 [label="gini = 0.5\nsamples = 2\nvalue = [0, 0, 0, 0, 0, 0, 0, 1, 1, 0, 0]\nclass = 2017"] ;
517 -> 518 ;
519 [label="gini = 0.833\nsamples = 6\nvalue = [0, 0, 0, 1, 1, 1, 1, 1, 1, 0, 0]\nclass = 2013"] ;
517 -> 519 ;
520 [label="cob_vac_bcg <= 99.798\ngini = 0.892\nsamples = 71\nvalue = [10, 6, 9, 8, 7, 9, 8, 3, 7, 3, 1]\nclass = 2010"] ;
470 -> 520 ;
521 [label="gini = 0.0\nsamples = 1\nvalue = [0, 0, 0, 0, 0, 0, 0, 0, 1, 0, 0]\nclass = 2018"] ;
520 -> 521 ;
522 [label="exp_vida <= 72.725\ngini = 0.892\nsamples = 70\nvalue = [10, 6, 9, 8, 7, 9, 8, 3, 6, 3, 1]\nclass = 2010"] ;
520 -> 522 ;
523 [label="gini = 0.5\nsamples = 2\nvalue = [0, 0, 0, 0, 0, 0, 1, 0, 1, 0, 0]\nclass = 2016"] ;
522 -> 523 ;
524 [label="idhm <= 0.669\ngini = 0.891\nsamples = 68\nvalue = [10, 6, 9, 8, 7, 9, 7, 3, 5, 3, 1]\nclass = 2010"] ;
522 -> 524 ;
525 [label="exp_vida <= 73.565\ngini = 0.833\nsamples = 12\nvalue = [3, 2, 2, 0, 1, 1, 0, 1, 2, 0, 0]\nclass = 2010"] ;
524 -> 525 ;
526 [label="gini = 0.0\nsamples = 1\nvalue = [0, 1, 0, 0, 0, 0, 0, 0, 0, 0, 0]\nclass = 2011"] ;
525 -> 526 ;
527 [label="exp_vida <= 74.095\ngini = 0.826\nsamples = 11\nvalue = [3, 1, 2, 0, 1, 1, 0, 1, 2, 0, 0]\nclass = 2010"] ;
525 -> 527 ;
528 [label="gini = 0.667\nsamples = 3\nvalue = [1, 0, 0, 0, 0, 0, 0, 1, 1, 0, 0]\nclass = 2010"] ;
527 -> 528 ;
529 [label="exp_vida <= 74.3\ngini = 0.812\nsamples = 8\nvalue = [2, 1, 2, 0, 1, 1, 0, 0, 1, 0, 0]\nclass = 2010"] ;
527 -> 529 ;
530 [label="gini = 0.667\nsamples = 3\nvalue = [1, 1, 1, 0, 0, 0, 0, 0, 0, 0, 0]\nclass = 2010"] ;
529 -> 530 ;
531 [label="gini = 0.8\nsamples = 5\nvalue = [1, 0, 1, 0, 1, 1, 0, 0, 1, 0, 0]\nclass = 2010"] ;
529 -> 531 ;
532 [label="idhm <= 0.677\ngini = 0.888\nsamples = 56\nvalue = [7, 4, 7, 8, 6, 8, 7, 2, 3, 3, 1]\nclass = 2013"] ;
524 -> 532 ;
533 [label="gini = 0.0\nsamples = 1\nvalue = [0, 0, 0, 0, 0, 0, 1, 0, 0, 0, 0]\nclass = 2016"] ;
532 -> 533 ;
534 [label="exp_vida <= 74.205\ngini = 0.889\nsamples = 55\nvalue = [7, 4, 7, 8, 6, 8, 6, 2, 3, 3, 1]\nclass = 2013"] ;
532 -> 534 ;
535 [label="exp_vida <= 73.045\ngini = 0.875\nsamples = 42\nvalue = [5, 4, 6, 6, 4, 7, 6, 1, 2, 1, 0]\nclass = 2015"] ;
534 -> 535 ;
536 [label="gini = 0.667\nsamples = 3\nvalue = [0, 1, 1, 1, 0, 0, 0, 0, 0, 0, 0]\nclass = 2011"] ;
535 -> 536 ;
537 [label="idhm <= 0.722\ngini = 0.874\nsamples = 39\nvalue = [5, 3, 5, 5, 4, 7, 6, 1, 2, 1, 0]\nclass = 2015"] ;
535 -> 537 ;
538 [label="idhm <= 0.712\ngini = 0.872\nsamples = 31\nvalue = [4, 2, 5, 4, 4, 5, 4, 1, 2, 0, 0]\nclass = 2012"] ;
537 -> 538 ;
539 [label="idhm <= 0.691\ngini = 0.867\nsamples = 26\nvalue = [3, 2, 4, 3, 4, 4, 4, 0, 2, 0, 0]\nclass = 2012"] ;
538 -> 539 ;
540 [label="gini = 0.8\nsamples = 5\nvalue = [1, 0, 1, 0, 1, 1, 1, 0, 0, 0, 0]\nclass = 2010"] ;
539 -> 540 ;
541 [label="exp_vida <= 73.41\ngini = 0.871\nsamples = 21\nvalue = [2, 2, 3, 3, 3, 3, 3, 0, 2, 0, 0]\nclass = 2012"] ;
539 -> 541 ;
542 [label="idhm <= 0.706\ngini = 0.871\nsamples = 15\nvalue = [2, 1, 2, 2, 2, 2, 2, 0, 2, 0, 0]\nclass = 2010"] ;
541 -> 542 ;
543 [label="gini = 0.875\nsamples = 8\nvalue = [1, 1, 1, 1, 1, 1, 1, 0, 1, 0, 0]\nclass = 2010"] ;
542 -> 543 ;
544 [label="gini = 0.857\nsamples = 7\nvalue = [1, 0, 1, 1, 1, 1, 1, 0, 1, 0, 0]\nclass = 2010"] ;
542 -> 544 ;
545 [label="gini = 0.833\nsamples = 6\nvalue = [0, 1, 1, 1, 1, 1, 1, 0, 0, 0, 0]\nclass = 2011"] ;
541 -> 545 ;
546 [label="gini = 0.8\nsamples = 5\nvalue = [1, 0, 1, 1, 0, 1, 0, 1, 0, 0, 0]\nclass = 2010"] ;
538 -> 546 ;
547 [label="idhm <= 0.734\ngini = 0.812\nsamples = 8\nvalue = [1, 1, 0, 1, 0, 2, 2, 0, 0, 1, 0]\nclass = 2015"] ;
537 -> 547 ;
548 [label="gini = 0.75\nsamples = 4\nvalue = [0, 0, 0, 1, 0, 1, 1, 0, 0, 1, 0]\nclass = 2013"] ;
547 -> 548 ;
549 [label="gini = 0.75\nsamples = 4\nvalue = [1, 1, 0, 0, 0, 1, 1, 0, 0, 0, 0]\nclass = 2010"] ;
547 -> 549 ;
550 [label="exp_vida <= 74.39\ngini = 0.876\nsamples = 13\nvalue = [2, 0, 1, 2, 2, 1, 0, 1, 1, 2, 1]\nclass = 2010"] ;
534 -> 550 ;
551 [label="gini = 0.833\nsamples = 6\nvalue = [1, 0, 0, 1, 1, 0, 0, 1, 1, 1, 0]\nclass = 2010"] ;
550 -> 551 ;
552 [label="gini = 0.857\nsamples = 7\nvalue = [1, 0, 1, 1, 1, 1, 0, 0, 0, 1, 1]\nclass = 2010"] ;
550 -> 552 ;
}
